{"learner":{"attributes":{"scikit_learn":"{\"_estimator_type\": \"ranker\"}"},"feature_names":["basket_size","item_cooccurrence_score","category_affinity_score","context_popularity_score","customer_history_score","embedding_similarity_score","isHoliday","isFestival","weekOfMonth","season_Rainy","season_Summer","season_Winter","timeSlot_Afternoon","timeSlot_Evening","timeSlot_Morning","timeSlot_Night","candidate_category_Bakery-Bread","candidate_category_Beverage-Carbonated","candidate_category_Beverage-Hot","candidate_category_Beverage-Juice","candidate_category_Beverage-Water","candidate_category_Chocolates-Sweets","candidate_category_Clothing-Accessories","candidate_category_Clothing-Casual","candidate_category_Clothing-Traditional","candidate_category_Dairy-Milk","candidate_category_Dairy-Other","candidate_category_Desserts-Traditional","candidate_category_Dry-Fruits","candidate_category_Fish-Fresh","candidate_category_Fruits-Fresh","candidate_category_Household-Aircare","candidate_category_Household-Cleaning","candidate_category_Household-Kitchen","candidate_category_Household-Laundry","candidate_category_Household-Tissue","candidate_category_Household-Utility","candidate_category_Instant-Food","candidate_category_Meat-Fresh","candidate_category_Meat-Processed","candidate_category_Other","candidate_category_Pantry-Dryfood","candidate_category_Pantry-Flour","candidate_category_Pantry-Grains","candidate_category_Pantry-Oils","candidate_category_Pantry-Pulses","candidate_category_Pantry-Rice","candidate_category_Pantry-Sweeteners","candidate_category_Personal-Care-Bath","candidate_category_Personal-Care-Cosmetics","candidate_category_Personal-Care-Hair","candidate_category_Personal-Care-Oral","candidate_category_Personal-Care-Sanitary","candidate_category_Pickle","candidate_category_Protein-Egg","candidate_category_Snacks-General","candidate_category_Spices-Cooking","candidate_category_Spices-Meatspecial","candidate_category_Veg-Cooking"],"feature_types":["int","float","float","float","float","float","int","int","int","i","i","i","i","i","i","i","i","i","i","i","i","i","i","i","i","i","i","i","i","i","i","i","i","i","i","i","i","i","i","i","i","i","i","i","i","i","i","i","i","i","i","i","i","i","i","i","i","i","i"],"gradient_booster":{"model":{"cats":{"enc":[],"feature_segments":[],"sorted_idx":[]},"gbtree_model_param":{"num_parallel_tree":"1","num_trees":"300"},"iteration_indptr":[0,1,2,3,4,5,6,7,8,9,10,11,12,13,14,15,16,17,18,19,20,21,22,23,24,25,26,27,28,29,30,31,32,33,34,35,36,37,38,39,40,41,42,43,44,45,46,47,48,49,50,51,52,53,54,55,56,57,58,59,60,61,62,63,64,65,66,67,68,69,70,71,72,73,74,75,76,77,78,79,80,81,82,83,84,85,86,87,88,89,90,91,92,93,94,95,96,97,98,99,100,101,102,103,104,105,106,107,108,109,110,111,112,113,114,115,116,117,118,119,120,121,122,123,124,125,126,127,128,129,130,131,132,133,134,135,136,137,138,139,140,141,142,143,144,145,146,147,148,149,150,151,152,153,154,155,156,157,158,159,160,161,162,163,164,165,166,167,168,169,170,171,172,173,174,175,176,177,178,179,180,181,182,183,184,185,186,187,188,189,190,191,192,193,194,195,196,197,198,199,200,201,202,203,204,205,206,207,208,209,210,211,212,213,214,215,216,217,218,219,220,221,222,223,224,225,226,227,228,229,230,231,232,233,234,235,236,237,238,239,240,241,242,243,244,245,246,247,248,249,250,251,252,253,254,255,256,257,258,259,260,261,262,263,264,265,266,267,268,269,270,271,272,273,274,275,276,277,278,279,280,281,282,283,284,285,286,287,288,289,290,291,292,293,294,295,296,297,298,299,300],"tree_info":[0,0,0,0,0,0,0,0,0,0,0,0,0,0,0,0,0,0,0,0,0,0,0,0,0,0,0,0,0,0,0,0,0,0,0,0,0,0,0,0,0,0,0,0,0,0,0,0,0,0,0,0,0,0,0,0,0,0,0,0,0,0,0,0,0,0,0,0,0,0,0,0,0,0,0,0,0,0,0,0,0,0,0,0,0,0,0,0,0,0,0,0,0,0,0,0,0,0,0,0,0,0,0,0,0,0,0,0,0,0,0,0,0,0,0,0,0,0,0,0,0,0,0,0,0,0,0,0,0,0,0,0,0,0,0,0,0,0,0,0,0,0,0,0,0,0,0,0,0,0,0,0,0,0,0,0,0,0,0,0,0,0,0,0,0,0,0,0,0,0,0,0,0,0,0,0,0,0,0,0,0,0,0,0,0,0,0,0,0,0,0,0,0,0,0,0,0,0,0,0,0,0,0,0,0,0,0,0,0,0,0,0,0,0,0,0,0,0,0,0,0,0,0,0,0,0,0,0,0,0,0,0,0,0,0,0,0,0,0,0,0,0,0,0,0,0,0,0,0,0,0,0,0,0,0,0,0,0,0,0,0,0,0,0,0,0,0,0,0,0,0,0,0,0,0,0,0,0,0,0,0,0,0,0,0,0,0,0,0,0,0,0,0,0,0,0,0,0,0,0],"trees":[{"base_weights":[-1.2480223E-3,-4.998163E-2,7.1863905E-2,-4.998031E-2,1.5043108E-1,3.071862E-1,8.501998E-2,4.4679394E-1,7.9184696E-2,1.1565156E-1,-2.6011047E-1,5.58916E-1,2.6192594E-1,2.3757045E-1,7.3910714E-3,9.457862E-2,4.4242638E-1,-5.2053475E-1,-1.05303094E-1,3.6040306E-2,2.2162851E-2,1.5091498E-2,-1.4746839E-2,-1.1746805E-2,1.2724811E-2,-3.138242E-3,1.3750493E-2,-4.2912327E-3,6.907105E-3,-3.0735347E-2,2.381625E-2,-2.7883071E-2,-8.772784E-3,-1.9475797E-2,1.5199855E-3],"categories":[],"categories_nodes":[],"categories_segments":[],"categories_sizes":[],"default_left":[0,0,0,0,0,0,0,0,0,0,0,0,0,0,0,0,0,0,0,0,0,0,0,0,0,0,0,0,0,0,0,0,0,0,0],"id":0,"left_children":[1,-1,3,-1,5,7,9,11,13,15,17,19,21,23,25,27,29,31,33,-1,-1,-1,-1,-1,-1,-1,-1,-1,-1,-1,-1,-1,-1,-1,-1],"loss_changes":[2.9115698E3,0E0,3.128891E3,0E0,3.5503296E2,3.244773E2,2.5834436E2,1.3091467E2,4.4038113E1,1.545026E2,8.0259415E1,7.3359375E1,5.3174713E1,9.720467E0,5.007171E1,1.6571552E2,4.900531E1,9.414246E0,4.8248627E1,0E0,0E0,0E0,0E0,0E0,0E0,0E0,0E0,0E0,0E0,0E0,0E0,0E0,0E0,0E0,0E0],"parents":[2147483647,0,0,2,2,4,4,5,5,6,6,7,7,8,8,9,9,10,10,11,11,12,12,13,13,14,14,15,15,16,16,17,17,18,18],"right_children":[2,-1,4,-1,6,8,10,12,14,16,18,20,22,24,26,28,30,32,34,-1,-1,-1,-1,-1,-1,-1,-1,-1,-1,-1,-1,-1,-1,-1,-1],"split_conditions":[1E0,-4.998163E-2,1E0,-4.998031E-2,1.4E1,4E0,1E0,1.1777778E1,5E0,2.9E1,1.9428572E1,3E0,1E0,3.6666667E0,2.3428572E1,9.833405E-1,7.4E0,2E1,7E0,3.6040306E-2,2.2162851E-2,1.5091498E-2,-1.4746839E-2,-1.1746805E-2,1.2724811E-2,-3.138242E-3,1.3750493E-2,-4.2912327E-3,6.907105E-3,-3.0735347E-2,2.381625E-2,-2.7883071E-2,-8.772784E-3,-1.9475797E-2,1.5199855E-3],"split_indices":[4,0,3,0,2,3,44,1,3,4,1,4,41,1,1,5,1,4,4,0,0,0,0,0,0,0,0,0,0,0,0,0,0,0,0],"split_type":[0,0,0,0,0,0,0,0,0,0,0,0,0,0,0,0,0,0,0,0,0,0,0,0,0,0,0,0,0,0,0,0,0,0,0],"sum_hessian":[3.988591E4,2.7206895E3,3.716522E4,2.538218E3,3.4627E4,1.01939375E4,2.4433064E4,6.321969E3,3.8719688E3,2.2441926E4,1.9911375E3,3.9339895E3,2.3879797E3,1.2069581E3,2.6650105E3,2.1083584E4,1.3583418E3,7.414585E2,1.249679E3,1.6371733E3,2.2968162E3,2.2287297E3,1.5924979E2,4.1294125E1,1.1656641E3,2.1120935E3,5.5291705E2,4.100752E3,1.6982832E4,4.167163E1,1.3166702E3,6.688786E2,7.257987E1,4.0325034E2,8.4642865E2],"tree_param":{"num_deleted":"0","num_feature":"59","num_nodes":"35","size_leaf_vector":"1"}},{"base_weights":[-1.684187E-3,3.0671904E-2,-2.8988633E-1,-4.8319586E-2,3.840232E-2,-4.5133746E-1,-1.7937167E-2,5.6166276E-2,-3.1950554E-1,-2.0267494E-1,-5.24673E-1,3.4847613E-2,-3.5453063E-1,4.8109494E-2,8.420641E-1,-4.2385235E-1,-8.138774E-2,-4.304733E-1,-1.3938454E-1,-6.026449E-1,-3.4234428E-1,-5.9373736E-2,2.1926914E-1,-2.42856E-1,-5.6827E-1,6.1604712E-2,-3.0886966E-1,3.4353268E-1,9.314918E-1,-6.805426E-1,-3.5493964E-1,-8.289748E-1,-3.932493E-2,-2.6956713E-1,-7.4603975E-1,-3.4952322E-1,-2.9589972E-2,-8.752377E-1,-5.669086E-1,-4.1817212E-1,-2.4546374E-1,3.9121678E-1,-8.6666636E-2,9.1869265E-2,4.6207967E-1,1.21546976E-1,-4.0786138E-1,-4.846194E-1,-8.0573493E-1,-1.2315314E-2,3.9533926E-3,-3.141476E-2,-6.133297E-3,2.062716E-2,-4.51298E-2,5.0812946E-3,4.6936426E-2,-2.2310136E-2,-3.947994E-2,-1.9191435E-2,8.925737E-3,-4.4164617E-2,5.7287435E-3,-1.2076578E-2,6.3979737E-3,-2.1354241E-2,7.719212E-3,-3.0823728E-2,-4.2281236E-2,-1.18525345E-2,-2.5312444E-2,1.348113E-2,-5.008131E-3,-3.612573E-2,-4.8121016E-2,5.0982195E-3,-2.8672595E-2,-2.3976384E-2,-6.3437945E-3,-1.6314691E-2,-3.8998362E-3,4.4225664E-3,3.207915E-2,-7.014652E-3,7.60309E-3,-3.007975E-2,6.6115195E-3,3.3232383E-2,1.2065601E-2,-4.4775747E-2,9.374914E-3,-2.6961073E-2,1.289942E-2,-3.0268341E-2,3.5109818E-2,-2.802965E-2,-4.897676E-2],"categories":[],"categories_nodes":[],"categories_segments":[],"categories_sizes":[],"default_left":[0,0,0,0,0,0,0,0,0,0,0,0,0,0,0,0,0,0,0,0,0,0,0,0,0,0,0,0,0,0,0,0,0,0,0,0,0,0,0,0,0,0,0,0,0,0,0,0,0,0,0,0,0,0,0,0,0,0,0,0,0,0,0,0,0,0,0,0,0,0,0,0,0,0,0,0,0,0,0,0,0,0,0,0,0,0,0,0,0,0,0,0,0,0,0,0,0],"id":1,"left_children":[1,3,5,-1,7,9,11,13,15,17,19,21,23,25,27,29,31,33,35,37,39,41,43,45,47,49,51,53,55,57,59,61,63,65,67,69,71,73,75,77,79,81,83,85,87,89,91,93,95,-1,-1,-1,-1,-1,-1,-1,-1,-1,-1,-1,-1,-1,-1,-1,-1,-1,-1,-1,-1,-1,-1,-1,-1,-1,-1,-1,-1,-1,-1,-1,-1,-1,-1,-1,-1,-1,-1,-1,-1,-1,-1,-1,-1,-1,-1,-1,-1],"loss_changes":[1.6189863E3,1.2031487E3,7.694197E2,0E0,9.847992E2,2.0041528E2,1.1601676E2,9.343353E2,1.8195227E2,3.6070015E1,1.2050659E2,9.8103096E1,2.0991058E1,7.037234E2,6.6438354E1,8.983948E1,7.018291E1,2.7441154E1,4.527096E1,5.74292E1,1.8599152E1,4.5990837E1,5.901171E1,3.5114407E1,5.629013E0,7.5685626E2,3.1641342E2,2.0094582E1,7.526123E0,2.7164062E1,6.1970123E1,6.194618E0,7.157382E1,2.4247824E1,1.8434677E0,1.1750816E1,2.7270498E1,8.456604E0,2.3079224E1,2.5436707E1,1.5137245E1,1.6135155E1,4.51407E1,3.515901E1,2.9207748E1,1.2411437E1,3.5268517E1,3.2898373E1,2.7498894E0,0E0,0E0,0E0,0E0,0E0,0E0,0E0,0E0,0E0,0E0,0E0,0E0,0E0,0E0,0E0,0E0,0E0,0E0,0E0,0E0,0E0,0E0,0E0,0E0,0E0,0E0,0E0,0E0,0E0,0E0,0E0,0E0,0E0,0E0,0E0,0E0,0E0,0E0,0E0,0E0,0E0,0E0,0E0,0E0,0E0,0E0,0E0,0E0],"parents":[2147483647,0,0,1,1,2,2,4,4,5,5,6,6,7,7,8,8,9,9,10,10,11,11,12,12,13,13,14,14,15,15,16,16,17,17,18,18,19,19,20,20,21,21,22,22,23,23,24,24,25,25,26,26,27,27,28,28,29,29,30,30,31,31,32,32,33,33,34,34,35,35,36,36,37,37,38,38,39,39,40,40,41,41,42,42,43,43,44,44,45,45,46,46,47,47,48,48],"right_children":[2,4,6,-1,8,10,12,14,16,18,20,22,24,26,28,30,32,34,36,38,40,42,44,46,48,50,52,54,56,58,60,62,64,66,68,70,72,74,76,78,80,82,84,86,88,90,92,94,96,-1,-1,-1,-1,-1,-1,-1,-1,-1,-1,-1,-1,-1,-1,-1,-1,-1,-1,-1,-1,-1,-1,-1,-1,-1,-1,-1,-1,-1,-1,-1,-1,-1,-1,-1,-1,-1,-1,-1,-1,-1,-1,-1,-1,-1,-1,-1,-1],"split_conditions":[1E0,1E0,3.4125E1,-4.8319586E-2,1E0,9.809179E-1,9.8686695E-1,1E0,2.8E1,1.4E1,2.55E1,4.8555557E1,9.881717E-1,1E0,2E0,1.8E1,9.9718446E-1,2.4E1,1.8125E1,7.571429E0,1E0,9.772883E-1,9.7E1,2.5E1,9.7E1,4E0,1.5375E1,1E0,9.9019396E-1,1.2E1,9.995255E-1,5E1,2.44E1,1E0,2.8666666E1,9.8007953E-1,9.7836286E-1,9.833405E-1,7.714286E0,1.09E2,1E0,3.8E1,1.09E2,7E0,9.8425156E-1,8E0,9.879575E-1,9.2E1,9.88466E-1,-1.2315314E-2,3.9533926E-3,-3.141476E-2,-6.133297E-3,2.062716E-2,-4.51298E-2,5.0812946E-3,4.6936426E-2,-2.2310136E-2,-3.947994E-2,-1.9191435E-2,8.925737E-3,-4.4164617E-2,5.7287435E-3,-1.2076578E-2,6.3979737E-3,-2.1354241E-2,7.719212E-3,-3.0823728E-2,-4.2281236E-2,-1.18525345E-2,-2.5312444E-2,1.348113E-2,-5.008131E-3,-3.612573E-2,-4.8121016E-2,5.0982195E-3,-2.8672595E-2,-2.3976384E-2,-6.3437945E-3,-1.6314691E-2,-3.8998362E-3,4.4225664E-3,3.207915E-2,-7.014652E-3,7.60309E-3,-3.007975E-2,6.6115195E-3,3.3232383E-2,1.2065601E-2,-4.4775747E-2,9.374914E-3,-2.6961073E-2,1.289942E-2,-3.0268341E-2,3.5109818E-2,-2.802965E-2,-4.897676E-2],"split_indices":[38,2,1,0,54,5,5,48,2,2,1,1,5,22,1,1,5,1,1,1,6,5,2,2,2,1,1,7,5,2,5,1,1,15,1,5,5,5,1,2,15,2,2,2,5,2,5,2,5,0,0,0,0,0,0,0,0,0,0,0,0,0,0,0,0,0,0,0,0,0,0,0,0,0,0,0,0,0,0,0,0,0,0,0,0,0,0,0,0,0,0,0,0,0,0,0,0],"split_type":[0,0,0,0,0,0,0,0,0,0,0,0,0,0,0,0,0,0,0,0,0,0,0,0,0,0,0,0,0,0,0,0,0,0,0,0,0,0,0,0,0,0,0,0,0,0,0,0,0,0,0,0,0,0,0,0,0,0,0,0,0,0,0,0,0,0,0,0,0,0,0,0,0,0,0,0,0,0,0,0,0,0,0,0,0,0,0,0,0,0,0,0,0,0,0,0,0],"sum_hessian":[1.7361411E5,1.5609088E5,1.7523232E4,1.1999359E3,1.5489094E5,1.099503E4,6.528202E3,1.475676E5,7.3233447E3,2.5049915E3,8.490038E3,5.644003E3,8.841992E2,1.4607119E5,1.4964152E3,5.0914253E3,2.2319192E3,5.4338995E2,1.9616014E3,5.9452686E3,2.5447698E3,3.7359673E3,1.9080355E3,5.821654E2,3.0203378E2,1.4075106E5,5.320117E3,2.2833891E2,1.2680763E3,1.0757036E3,4.015722E3,1.17892624E2,2.1140266E3,3.6111365E2,1.822763E2,6.724324E2,1.2891691E3,6.8635284E2,5.258916E3,1.425625E3,1.1191448E3,2.1260721E2,3.52336E3,1.2523306E3,6.5570496E2,1.8153073E2,4.006347E2,2.2560265E2,7.643115E1,7.55354E3,1.3319753E5,1.9583196E3,3.3617976E3,2.169909E2,1.1347999E1,1.1092544E1,1.2569838E3,3.4324048E2,7.324632E2,3.80969E3,2.0603198E2,1.11535675E2,6.3569417E0,9.5690936E2,1.1571172E3,2.63284E2,9.7829666E1,8.23392E1,9.99371E1,3.9294913E2,2.7948322E2,2.4549661E2,1.0436725E3,2.5279817E2,4.335547E2,5.08058E1,5.20811E3,1.1770563E3,2.4856877E2,7.541813E2,3.649635E2,9.6845795E1,1.1576141E2,2.87741E3,6.4595026E2,6.811462E1,1.184216E3,3.408987E2,3.148062E2,1.0288539E1,1.7124219E2,3.3477905E2,6.5855644E1,2.0521396E2,2.038868E1,3.346082E1,4.2970333E1],"tree_param":{"num_deleted":"0","num_feature":"59","num_nodes":"97","size_leaf_vector":"1"}},{"base_weights":[6.743834E-4,-4.8086118E-2,3.219471E-2,2.4588745E-2,6.319378E-1,6.729814E-2,-6.3703254E-2,-5.8375396E-2,7.0298696E-1,5.202525E-2,4.612007E-1,-3.595262E-1,1.0664782E-1,7.9768187E-1,-3.5648745E-1,7.827292E-1,1.5699056E-1,7.0202045E-2,-2.54596E-1,-7.769081E-2,5.7282156E-1,-6.6665775E-1,-2.4802108E-1,5.8673985E-2,2.3558146E-1,4.523437E-2,3.909684E-3,-8.316001E-1,-1.2269228E-1,6.0337734E-1,8.565747E-1,-5.468848E-1,3.353557E-1,3.0587357E-3,3.3033516E-2,-1.7062202E-2,-3.8970222E-3,-1.6914934E-2,3.7584242E-3,2.4393454E-2,3.5281297E-2,-2.5374541E-2,-3.7834074E-2,-1.1302584E-2,-3.1410173E-2,4.895444E-3,-1.6325403E-2,1.7339153E-2,5.748643E-3,-2.2122223E-2,-4.7875203E-2,1.1379571E-2,-3.2578733E-2,3.288771E-2,2.3506077E-3,4.4067357E-2,2.4741285E-2,-4.7154307E-2,-1.1379855E-2,1.9765263E-2,-4.4255476E-2],"categories":[],"categories_nodes":[],"categories_segments":[],"categories_sizes":[],"default_left":[0,0,0,0,0,0,0,0,0,0,0,0,0,0,0,0,0,0,0,0,0,0,0,0,0,0,0,0,0,0,0,0,0,0,0,0,0,0,0,0,0,0,0,0,0,0,0,0,0,0,0,0,0,0,0,0,0,0,0,0,0],"id":2,"left_children":[1,-1,3,5,7,9,11,13,15,17,19,21,23,25,27,29,31,33,35,37,39,41,43,45,47,-1,-1,49,51,53,55,57,59,-1,-1,-1,-1,-1,-1,-1,-1,-1,-1,-1,-1,-1,-1,-1,-1,-1,-1,-1,-1,-1,-1,-1,-1,-1,-1,-1,-1],"loss_changes":[5.141065E3,0E0,7.4855347E2,6.110681E2,1.008327E2,6.57027E2,2.6624197E3,4.946062E1,8.100513E1,5.860111E2,2.4525226E2,6.610071E2,2.0736191E2,3.7849312E0,1.5850647E1,2.101355E1,3.015261E1,5.2903955E2,9.004318E1,2.792534E1,3.775659E1,7.329004E1,1.1817352E2,3.693237E2,1.2189255E2,0E0,0E0,1.8885269E0,1.819709E1,1.4415115E1,9.861694E0,5.9385138E0,1.4329695E1,0E0,0E0,0E0,0E0,0E0,0E0,0E0,0E0,0E0,0E0,0E0,0E0,0E0,0E0,0E0,0E0,0E0,0E0,0E0,0E0,0E0,0E0,0E0,0E0,0E0,0E0,0E0,0E0],"parents":[2147483647,0,0,2,2,3,3,4,4,5,5,6,6,7,7,8,8,9,9,10,10,11,11,12,12,13,13,14,14,15,15,16,16,17,17,18,18,19,19,20,20,21,21,22,22,23,23,24,24,27,27,28,28,29,29,30,30,31,31,32,32],"right_children":[2,-1,4,6,8,10,12,14,16,18,20,22,24,26,28,30,32,34,36,38,40,42,44,46,48,-1,-1,50,52,54,56,58,60,-1,-1,-1,-1,-1,-1,-1,-1,-1,-1,-1,-1,-1,-1,-1,-1,-1,-1,-1,-1,-1,-1,-1,-1,-1,-1,-1,-1],"split_conditions":[1E0,-4.8086118E-2,1E0,1.1E1,2.6E0,1E0,1.2833333E1,2E0,9E0,1E0,6.1666665E0,6.75E0,4.1333332E1,7E0,1.1E1,1.1E1,5E0,1E0,6E0,4.5E0,1.3333333E1,6E0,1E0,1E0,9.8425156E-1,4.523437E-2,3.909684E-3,3E0,7E0,9.9533045E-1,4.3E1,9.9448395E-1,9.9617004E-1,3.0587357E-3,3.3033516E-2,-1.7062202E-2,-3.8970222E-3,-1.6914934E-2,3.7584242E-3,2.4393454E-2,3.5281297E-2,-2.5374541E-2,-3.7834074E-2,-1.1302584E-2,-3.1410173E-2,4.895444E-3,-1.6325403E-2,1.7339153E-2,5.748643E-3,-2.2122223E-2,-4.7875203E-2,1.1379571E-2,-3.2578733E-2,3.288771E-2,2.3506077E-3,4.4067357E-2,2.4741285E-2,-4.7154307E-2,-1.1379855E-2,1.9765263E-2,-4.4255476E-2],"split_indices":[4,0,49,4,1,58,1,4,4,19,1,1,1,0,2,2,1,37,4,1,1,0,29,46,5,0,0,0,4,5,2,5,5,0,0,0,0,0,0,0,0,0,0,0,0,0,0,0,0,0,0,0,0,0,0,0,0,0,0,0,0],"split_type":[0,0,0,0,0,0,0,0,0,0,0,0,0,0,0,0,0,0,0,0,0,0,0,0,0,0,0,0,0,0,0,0,0,0,0,0,0,0,0,0,0,0,0,0,0,0,0,0,0,0,0,0,0,0,0,0,0,0,0,0,0],"sum_hessian":[1.6947398E5,5.373633E3,1.6410034E5,1.6204631E5,2.054037E3,1.09215734E5,5.2830574E4,1.9169618E2,1.862341E3,1.0514024E5,4.0754978E3,1.9305143E4,3.3525434E4,4.9080647E1,1.4261554E2,1.6246315E3,2.3770947E2,9.925696E4,5.883275E3,6.993634E2,3.3761343E3,5.1406562E3,1.4164486E4,2.4435055E4,9.090378E3,4.2502132E1,6.578512E0,4.61908E1,9.642474E1,4.765017E2,1.1481298E3,4.7640713E1,1.9006877E2,9.776342E4,1.4935458E3,3.9465793E3,1.9366954E3,2.5810696E2,4.4125644E2,2.0618682E3,1.3142662E3,1.8595344E3,3.2811216E3,1.3392193E4,7.722932E2,2.2176852E4,2.2582026E3,4.7286597E3,4.3617183E3,1.2394586E1,3.3796215E1,5.83492E1,3.807554E1,4.3391083E2,4.2590893E1,1.0732012E3,7.4928566E1,2.0387865E1,2.725285E1,1.8181412E2,8.254653E0],"tree_param":{"num_deleted":"0","num_feature":"59","num_nodes":"61","size_leaf_vector":"1"}},{"base_weights":[1.770829E-3,-4.811981E-2,3.1696975E-2,-4.683512E-2,5.577331E-2,1.14879854E-1,-3.1545587E-2,1.9884494E-1,-7.320199E-2,-3.4149277E-1,1.7848961E-2,3.4646037E-1,5.128541E-2,-4.100232E-1,-3.8064852E-2,-1.1766968E-1,-4.784081E-1,-1.4187351E-1,8.095577E-2,2.0639962E-2,7.452725E-3,5.374473E-3,-1.5742911E-2,-1.5970184E-2,-2.997124E-2,-8.189652E-3,1.3957968E-3,-8.5753336E-4,-2.6453987E-2,-1.1626455E-2,-2.9566735E-2,-1.2174121E-3,-1.578552E-2,2.6685582E-3,1.8975168E-2],"categories":[],"categories_nodes":[],"categories_segments":[],"categories_sizes":[],"default_left":[0,0,0,0,0,0,0,0,0,0,0,0,0,0,0,0,0,0,0,0,0,0,0,0,0,0,0,0,0,0,0,0,0,0,0],"id":3,"left_children":[1,-1,3,-1,5,7,9,11,13,15,17,19,21,23,25,27,29,31,33,-1,-1,-1,-1,-1,-1,-1,-1,-1,-1,-1,-1,-1,-1,-1,-1],"loss_changes":[4.771785E3,0E0,3.739847E3,0E0,8.077666E2,1.47395E3,9.6723926E2,1.4055012E3,3.4091388E2,2.660746E2,5.4929224E2,4.22365E2,6.6412054E2,4.6513184E1,2.1641214E2,1.3635373E2,1.4946631E2,3.1530362E2,3.2166672E2,0E0,0E0,0E0,0E0,0E0,0E0,0E0,0E0,0E0,0E0,0E0,0E0,0E0,0E0,0E0,0E0],"parents":[2147483647,0,0,2,2,4,4,5,5,6,6,7,7,8,8,9,9,10,10,11,11,12,12,13,13,14,14,15,15,16,16,17,17,18,18],"right_children":[2,-1,4,-1,6,8,10,12,14,16,18,20,22,24,26,28,30,32,34,-1,-1,-1,-1,-1,-1,-1,-1,-1,-1,-1,-1,-1,-1,-1,-1],"split_conditions":[1E0,-4.811981E-2,1E0,-4.683512E-2,4E0,1E1,7.6363635E0,1.1E1,6.75E0,5E0,5E0,3E0,1E0,5.1E1,2E0,1E0,1.2E1,1.6E1,3.6E1,2.0639962E-2,7.452725E-3,5.374473E-3,-1.5742911E-2,-1.5970184E-2,-2.997124E-2,-8.189652E-3,1.3957968E-3,-8.5753336E-4,-2.6453987E-2,-1.1626455E-2,-2.9566735E-2,-1.2174121E-3,-1.578552E-2,2.6685582E-3,1.8975168E-2],"split_indices":[3,0,4,0,3,4,1,1,1,3,4,3,38,2,3,6,2,2,4,0,0,0,0,0,0,0,0,0,0,0,0,0,0,0,0],"split_type":[0,0,0,0,0,0,0,0,0,0,0,0,0,0,0,0,0,0,0,0,0,0,0,0,0,0,0,0,0,0,0,0,0,0,0],"sum_hessian":[1.6537598E5,4.977535E3,1.6039845E5,3.8901653E3,1.5650828E5,9.3331484E4,6.3176805E4,6.4525434E4,2.8806047E4,8.683371E3,5.4493434E4,3.2255934E4,3.22695E4,2.7201624E3,2.6085885E4,3.296409E3,5.3869624E3,1.5432569E4,3.9060867E4,2.4141889E4,8.114046E3,2.7975838E4,4.2936616E3,1.8416887E3,8.7847345E2,8.977511E3,1.7108375E4,2.6499849E3,6.4642395E2,1.6963972E3,3.6905652E3,9.208293E3,6.2242764E3,3.5758133E4,3.3027312E3],"tree_param":{"num_deleted":"0","num_feature":"59","num_nodes":"35","size_leaf_vector":"1"}},{"base_weights":[-3.620799E-4,-4.681425E-2,2.3079092E-2,4.215893E-2,-2.701939E-1,1.3303703E-1,-2.5649456E-2,-5.8626527E-1,-1.9219305E-1,1.7299943E-1,-3.4382617E-1,-2.4829312E-1,-6.1901724E-3,-7.508527E-1,-4.910935E-1,-3.2130185E-1,-1.3197659E-2,1.8577473E-1,-4.7509933E-1,-4.88689E-1,-1.0669325E-1,-8.854538E-2,-5.66286E-1,3.96375E-3,-2.7713954E-1,-8.527162E-1,-6.918297E-1,-8.81195E-1,-4.4140825E-1,-4.14252E-1,-2.1642087E-1,-1.03584886E-1,3.3165556E-1,1.05612725E-2,-7.4638254E-3,-3.652459E-2,-2.096706E-2,-3.0209592E-2,-1.9684324E-2,-1.1886048E-2,9.128006E-3,-5.93554E-3,3.729403E-2,-2.048651E-2,-3.407594E-2,-2.8302724E-4,1.35471765E-2,-1.6316604E-2,1.3985889E-2,-4.5850646E-2,-3.605845E-2,-2.0948319E-2,-3.702184E-2,-2.5486795E-2,-4.608834E-2,-2.0074403E-2,-3.7359696E-2,-2.2855192E-2,-1.0767954E-2,-1.2610594E-2,3.1546073E-3,-1.2742939E-2,-3.4166207E-3,3.5858755E-3,2.201376E-2],"categories":[],"categories_nodes":[],"categories_segments":[],"categories_sizes":[],"default_left":[0,0,0,0,0,0,0,0,0,0,0,0,0,0,0,0,0,0,0,0,0,0,0,0,0,0,0,0,0,0,0,0,0,0,0,0,0,0,0,0,0,0,0,0,0,0,0,0,0,0,0,0,0,0,0,0,0,0,0,0,0,0,0,0,0],"id":4,"left_children":[1,-1,3,5,7,9,11,13,15,17,19,21,23,25,27,29,31,33,35,37,39,41,43,45,47,49,51,53,55,57,59,61,63,-1,-1,-1,-1,-1,-1,-1,-1,-1,-1,-1,-1,-1,-1,-1,-1,-1,-1,-1,-1,-1,-1,-1,-1,-1,-1,-1,-1,-1,-1,-1,-1],"loss_changes":[3.4866223E3,0E0,8.6755005E2,8.97048E2,2.3337402E2,1.1854497E3,3.6118555E2,2.8986938E1,1.7557361E2,4.7529578E2,1.651831E2,3.4033627E2,2.1092854E2,3.5269165E0,2.2682495E1,4.2939087E1,9.930339E1,4.7999707E2,1.5497025E1,3.2524353E1,6.922621E1,1.1238289E2,4.013849E1,1.8988464E2,7.595323E1,1.4270172E0,5.5101624E0,1.5417328E0,1.2613358E1,1.9835815E1,2.0783295E1,1.3443117E1,1.8648758E1,0E0,0E0,0E0,0E0,0E0,0E0,0E0,0E0,0E0,0E0,0E0,0E0,0E0,0E0,0E0,0E0,0E0,0E0,0E0,0E0,0E0,0E0,0E0,0E0,0E0,0E0,0E0,0E0,0E0,0E0,0E0,0E0],"parents":[2147483647,0,0,2,2,3,3,4,4,5,5,6,6,7,7,8,8,9,9,10,10,11,11,12,12,13,13,14,14,15,15,16,16,17,17,18,18,19,19,20,20,21,21,22,22,23,23,24,24,25,25,26,26,27,27,28,28,29,29,30,30,31,31,32,32],"right_children":[2,-1,4,6,8,10,12,14,16,18,20,22,24,26,28,30,32,34,36,38,40,42,44,46,48,50,52,54,56,58,60,62,64,-1,-1,-1,-1,-1,-1,-1,-1,-1,-1,-1,-1,-1,-1,-1,-1,-1,-1,-1,-1,-1,-1,-1,-1,-1,-1,-1,-1,-1,-1,-1,-1],"split_conditions":[1E0,-4.681425E-2,1E0,3E0,1.45E1,1E0,6E0,3E0,4E0,1E0,3.457143E1,5E0,1E0,1E1,7.3333335E0,3E1,4.1333332E1,1E0,1.8E1,2E0,1E0,1E0,6E0,1E0,4.4833332E1,1E0,1.06E1,3E0,9E0,1E1,5.1714287E1,1.8285715E1,5E0,1.05612725E-2,-7.4638254E-3,-3.652459E-2,-2.096706E-2,-3.0209592E-2,-1.9684324E-2,-1.1886048E-2,9.128006E-3,-5.93554E-3,3.729403E-2,-2.048651E-2,-3.407594E-2,-2.8302724E-4,1.35471765E-2,-1.6316604E-2,1.3985889E-2,-4.5850646E-2,-3.605845E-2,-2.0948319E-2,-3.702184E-2,-2.5486795E-2,-4.608834E-2,-2.0074403E-2,-3.7359696E-2,-2.2855192E-2,-1.0767954E-2,-1.2610594E-2,3.1546073E-3,-1.2742939E-2,-3.4166207E-3,3.5858755E-3,2.201376E-2],"split_indices":[3,0,44,3,1,38,1,3,3,54,1,3,41,1,1,1,1,29,1,3,7,50,3,58,1,11,1,0,0,0,1,1,3,0,0,0,0,0,0,0,0,0,0,0,0,0,0,0,0,0,0,0,0,0,0,0,0,0,0,0,0,0,0,0,0],"split_type":[0,0,0,0,0,0,0,0,0,0,0,0,0,0,0,0,0,0,0,0,0,0,0,0,0,0,0,0,0,0,0,0,0,0,0,0,0,0,0,0,0,0,0,0,0,0,0,0,0,0,0,0,0,0,0,0,0,0,0,0,0,0,0,0,0],"sum_hessian":[1.5892055E5,3.8821248E3,1.5503842E5,1.4556883E5,9.469603E3,6.2202664E4,8.336616E4,1.87308E3,7.5965225E3,5.739357E4,4.809096E3,6.699699E3,7.666646E4,6.8374347E2,1.1893365E3,4.4127935E3,3.183729E3,5.6284797E4,1.108771E3,2.9847021E3,1.8243942E3,4.4602935E3,2.239406E3,7.3898086E4,2.768371E3,2.4590564E2,4.3783783E2,1.3247551E2,1.056861E3,2.3378965E3,2.074897E3,2.523112E3,6.606169E2,5.2311547E4,3.9732507E3,1.9652307E2,9.122479E2,1.3445981E3,1.640104E3,1.2557399E3,5.6865436E2,4.3055024E3,1.5479091E2,9.513934E2,1.2880127E3,7.132779E4,2.5703008E3,2.5440454E3,2.2432574E2,1.6116272E2,8.474292E1,6.765663E1,3.7018118E2,1.438018E1,1.1809533E2,9.368664E2,1.1999458E2,1.9224113E3,4.1548517E2,1.8394564E3,2.3544055E2,4.756772E2,2.0474349E3,1.9518326E2,4.654336E2],"tree_param":{"num_deleted":"0","num_feature":"59","num_nodes":"65","size_leaf_vector":"1"}},{"base_weights":[-6.7687914E-4,-4.5475278E-2,2.2998694E-2,-4.578994E-2,4.280175E-2,3.75176E-2,7.6561016E-1,2.6234519E-2,3.6252022E-1,8.210056E-1,4.7697374E-1,1.6839337E-2,4.1209367E-1,4.516319E-1,3.4605224E-2,8.2517874E-1,5.791566E-3,-4.2327765E-2,5.318032E-1,1.8464171E-4,1.4499003E-2,2.6026664E-2,9.831867E-3,3.096128E-2,1.8128818E-2,-2.375878E-3,2.5537053E-2,4.1724976E-2,2.3834284E-2,1.7978033E-2,3.988148E-2],"categories":[],"categories_nodes":[],"categories_segments":[],"categories_sizes":[],"default_left":[0,0,0,0,0,0,0,0,0,0,0,0,0,0,0,0,0,0,0,0,0,0,0,0,0,0,0,0,0,0,0],"id":5,"left_children":[1,-1,3,-1,5,7,9,11,13,15,17,19,21,23,25,27,-1,-1,29,-1,-1,-1,-1,-1,-1,-1,-1,-1,-1,-1,-1],"loss_changes":[3.3329377E3,0E0,2.8066362E3,0E0,5.646627E2,5.3821967E2,1.6763977E1,5.142362E2,1.438844E2,2.5493774E0,1.316066E1,4.9726242E2,7.867566E1,5.7568115E1,4.1212883E1,2.5040283E0,0E0,0E0,7.44191E0,0E0,0E0,0E0,0E0,0E0,0E0,0E0,0E0,0E0,0E0,0E0,0E0],"parents":[2147483647,0,0,2,2,4,4,5,5,6,6,7,7,8,8,9,9,10,10,11,11,12,12,13,13,14,14,15,15,18,18],"right_children":[2,-1,4,-1,6,8,10,12,14,16,18,20,22,24,26,28,-1,-1,30,-1,-1,-1,-1,-1,-1,-1,-1,-1,-1,-1,-1],"split_conditions":[1E0,-4.5475278E-2,1E0,-4.578994E-2,1E0,1E0,8E0,1E0,5E0,9.987898E-1,4E0,1E0,3E0,9.858801E-1,1E1,4E0,5.791566E-3,-4.2327765E-2,1E0,1.8464171E-4,1.4499003E-2,2.6026664E-2,9.831867E-3,3.096128E-2,1.8128818E-2,-2.375878E-3,2.5537053E-2,4.1724976E-2,2.3834284E-2,1.7978033E-2,3.988148E-2],"split_indices":[4,0,3,0,51,55,4,26,3,5,0,58,3,5,4,3,0,0,10,0,0,0,0,0,0,0,0,0,0,0,0],"split_type":[0,0,0,0,0,0,0,0,0,0,0,0,0,0,0,0,0,0,0,0,0,0,0,0,0,0,0,0,0,0,0],"sum_hessian":[1.5489562E5,3.9317322E3,1.5096389E5,3.117722E3,1.4784617E5,1.4677422E5,1.0719526E3,1.4185069E5,4.923534E3,8.978011E2,1.7415158E2,1.3847992E5,3.3707673E3,3.87116E3,1.0523741E3,8.923501E2,5.4509897E0,6.3531427E0,1.6779845E2,1.321218E5,6.358124E3,2.2413005E3,1.1294667E3,1.3412002E3,2.5299597E3,8.983322E2,1.54042E2,8.677467E2,2.4603428E1,1.0325007E2,6.454838E1],"tree_param":{"num_deleted":"0","num_feature":"59","num_nodes":"31","size_leaf_vector":"1"}},{"base_weights":[-5.3792475E-3,-4.4457212E-2,1.5351835E-2,-4.475855E-2,3.195324E-2,2.5341352E-2,8.507032E-1,1.7840045E-2,6.007839E-1,4.723423E-1,9.125463E-1,1.175446E-2,6.2260866E-1,6.6659117E-1,1.505304E-1,9.013769E-1,-8.896938E-2,7.778802E-1,4.6464145E-2,2.8751322E-4,2.5895549E-2,-7.2710006E-3,3.8106147E-2,1.8597154E-2,3.794859E-2,-1.0539403E-2,2.9315425E-2,2.8402707E-2,4.606924E-2,-2.6795704E-2,2.0339368E-2,3.0986397E-2,4.6250142E-2],"categories":[],"categories_nodes":[],"categories_segments":[],"categories_sizes":[],"default_left":[0,0,0,0,0,0,0,0,0,0,0,0,0,0,0,0,0,0,0,0,0,0,0,0,0,0,0,0,0,0,0,0,0],"id":6,"left_children":[1,-1,3,-1,5,7,9,11,13,15,17,19,21,23,25,27,29,31,-1,-1,-1,-1,-1,-1,-1,-1,-1,-1,-1,-1,-1,-1,-1],"loss_changes":[2.7897097E3,0E0,2.2489114E3,0E0,7.9095514E2,6.256455E2,2.6956665E1,5.265756E2,5.516223E1,4.0179005E1,1.5420532E0,4.304936E2,1.528429E2,4.4003357E1,3.7774956E1,1.0659027E-1,1.6402834E1,2.1544037E0,0E0,0E0,0E0,0E0,0E0,0E0,0E0,0E0,0E0,0E0,0E0,0E0,0E0,0E0,0E0],"parents":[2147483647,0,0,2,2,4,4,5,5,6,6,7,7,8,8,9,9,10,10,11,11,12,12,13,13,14,14,15,15,16,16,17,17],"right_children":[2,-1,4,-1,6,8,10,12,14,16,18,20,22,24,26,28,30,32,-1,-1,-1,-1,-1,-1,-1,-1,-1,-1,-1,-1,-1,-1,-1],"split_conditions":[1E0,-4.4457212E-2,1E0,-4.475855E-2,1E0,1E0,2E0,1E0,9E0,2E0,4E0,1E0,3E0,4E0,6.6E0,2E0,1.6E1,1.1E1,4.6464145E-2,2.8751322E-4,2.5895549E-2,-7.2710006E-3,3.8106147E-2,1.8597154E-2,3.794859E-2,-1.0539403E-2,2.9315425E-2,2.8402707E-2,4.606924E-2,-2.6795704E-2,2.0339368E-2,3.0986397E-2,4.6250142E-2],"split_indices":[4,0,3,0,48,49,1,50,4,4,0,37,1,1,1,2,2,2,0,0,0,0,0,0,0,0,0,0,0,0,0,0,0],"split_type":[0,0,0,0,0,0,0,0,0,0,0,0,0,0,0,0,0,0,0,0,0,0,0,0,0,0,0,0,0,0,0,0,0],"sum_hessian":[1.522633E5,3.48892E3,1.4877438E5,2.6630579E3,1.4611133E5,1.4494186E5,1.1694602E3,1.4307777E5,1.8640907E3,1.65508E2,1.0039522E3,1.4165338E5,1.4243912E3,1.6259656E3,2.3812514E2,9.3463776E1,7.204421E1,1.1622877E2,8.8772345E2,1.3999373E5,1.6596406E3,2.1896152E2,1.2054297E3,3.893044E2,1.2366611E3,1.3046689E2,1.0765825E2,6.956854E0,8.650693E1,3.7844692E1,3.419952E1,5.852669E1,5.7702072E1],"tree_param":{"num_deleted":"0","num_feature":"59","num_nodes":"33","size_leaf_vector":"1"}},{"base_weights":[-2.2804965E-3,-4.3702193E-2,1.2665807E-2,6.463557E-3,8.23496E-1,-4.3041743E-2,1.1371686E-2,4.833427E-1,8.755793E-1,4.4146557E-3,5.7096124E-1,5.6393355E-1,-2.3476015E-1,7.7947766E-1,9.06031E-1,5.610276E-4,8.200807E-1,-1.0327903E-1,6.395545E-1,4.0650216E-1,7.886226E-1,-4.1594427E-2,6.1141867E-3,6.805349E-1,8.6595976E-1,4.5881517E-2,7.9421365E-1,-2.464488E-4,2.8160034E-2,2.7900308E-3,4.459972E-2,-1.6732601E-2,1.1912666E-2,3.4610193E-2,1.4156833E-2,1.30189955E-2,3.3605658E-2,2.5476584E-2,4.428875E-2,1.7292853E-2,3.6713637E-2,4.5181807E-2,2.6282817E-2,-4.1083074E-3,4.3449137E-2],"categories":[],"categories_nodes":[],"categories_segments":[],"categories_sizes":[],"default_left":[0,0,0,0,0,0,0,0,0,0,0,0,0,0,0,0,0,0,0,0,0,0,0,0,0,0,0,0,0,0,0,0,0,0,0,0,0,0,0,0,0,0,0,0,0],"id":7,"left_children":[1,-1,3,5,7,-1,9,11,13,15,17,19,21,23,25,27,29,31,33,35,37,-1,-1,39,41,-1,43,-1,-1,-1,-1,-1,-1,-1,-1,-1,-1,-1,-1,-1,-1,-1,-1,-1,-1],"loss_changes":[1.9741799E3,0E0,7.4911414E2,6.292985E2,1.9610107E1,0E0,5.7228076E2,8.951218E0,2.159851E0,4.5639023E2,8.354944E1,4.536213E0,3.5304456E0,1.4884796E0,2.2790527E-1,4.4639185E2,3.747592E1,1.331937E1,3.0552063E1,3.0385218E0,1.0536194E0,0E0,0E0,1.86689E0,1.1392365E0,0E0,5.100918E0,0E0,0E0,0E0,0E0,0E0,0E0,0E0,0E0,0E0,0E0,0E0,0E0,0E0,0E0,0E0,0E0,0E0,0E0],"parents":[2147483647,0,0,2,2,3,3,4,4,6,6,7,7,8,8,9,9,10,10,11,11,12,12,13,13,14,14,15,15,16,16,17,17,18,18,19,19,20,20,23,23,24,24,26,26],"right_children":[2,-1,4,6,8,-1,10,12,14,16,18,20,22,24,26,28,30,32,34,36,38,-1,-1,40,42,-1,44,-1,-1,-1,-1,-1,-1,-1,-1,-1,-1,-1,-1,-1,-1,-1,-1,-1,-1],"split_conditions":[1E0,-4.3702193E-2,1E0,1E0,2E0,-4.3041743E-2,1E0,3.2E1,5E0,1E0,2.6E0,1E1,1.1666666E0,1.1E1,3.4E1,1E0,2E0,2.1E1,3.9E1,1E0,1.1666666E0,-4.1594427E-2,6.1141867E-3,3E0,3.4E1,4.5881517E-2,6E0,-2.464488E-4,2.8160034E-2,2.7900308E-3,4.459972E-2,-1.6732601E-2,1.1912666E-2,3.4610193E-2,1.4156833E-2,1.30189955E-2,3.3605658E-2,2.5476584E-2,4.428875E-2,1.7292853E-2,3.6713637E-2,4.5181807E-2,2.6282817E-2,-4.1083074E-3,4.3449137E-2],"split_indices":[3,0,48,2,1,0,49,2,0,30,1,2,1,2,2,50,1,2,2,14,1,0,0,0,2,0,0,0,0,0,0,0,0,0,0,0,0,0,0,0,0,0,0,0,0],"split_type":[0,0,0,0,0,0,0,0,0,0,0,0,0,0,0,0,0,0,0,0,0,0,0,0,0,0,0,0,0,0,0,0,0,0,0,0,0,0,0,0,0,0,0,0,0],"sum_hessian":[1.5151269E5,2.5529163E3,1.4895977E5,1.4782998E5,1.129782E3,8.308958E2,1.469991E5,1.5138373E2,9.783982E2,1.4519498E5,1.8041115E3,1.3630164E2,1.5082094E1,2.4182541E2,7.365728E2,1.4451323E5,6.817546E2,1.6654504E2,1.6375664E3,8.179796E1,5.4503674E1,5.145952E0,9.936142E0,1.1692385E2,1.24901566E2,6.608169E2,7.57559E1,1.4311773E5,1.3954921E3,5.8784454E1,6.2297015E2,9.9296326E1,6.724871E1,1.4259811E3,2.1158531E2,5.404574E1,2.7752218E1,1.5686252E1,3.881742E1,1.7205355E1,9.97185E1,1.1096122E2,1.3940344E1,5.947337E0,6.9808556E1],"tree_param":{"num_deleted":"0","num_feature":"59","num_nodes":"45","size_leaf_vector":"1"}},{"base_weights":[1.7824624E-3,-4.32008E-2,1.9688228E-2,1.4183985E-2,7.762826E-1,3.0985031E-2,-1.7058975E-1,3.4197345E-1,8.539031E-1,4.5879457E-2,-2.0484693E-1,-3.8358063E-1,3.2590322E-2,8.5594887E-1,-2.1549457E-1,7.5609577E-1,8.837675E-1,9.111008E-2,-2.4706647E-2,-4.215617E-1,-1.2567292E-1,-5.665084E-1,-2.6808974E-1,-5.1571466E-2,3.342386E-1,4.5475185E-2,2.0459596E-2,-5.967138E-1,3.0852777E-1,1.4305176E-2,7.693564E-1,4.4675436E-2,7.371499E-1,5.1492187E-3,-1.8094989E-2,-1.7477201E-2,1.475896E-3,-3.1378012E-2,-1.8125148E-2,-1.2498393E-2,2.4028248E-3,2.7426345E-2,-2.875611E-2,-1.6120162E-2,4.6880185E-3,-5.6555E-3,4.752006E-3,3.2607117E-3,2.1211987E-2,-4.6334926E-2,-1.7196422E-2,3.9574724E-2,-4.234798E-2,3.917524E-2,1.6761718E-2,-3.6611357E-3,4.3049864E-2],"categories":[],"categories_nodes":[],"categories_segments":[],"categories_sizes":[],"default_left":[0,0,0,0,0,0,0,0,0,0,0,0,0,0,0,0,0,0,0,0,0,0,0,0,0,0,0,0,0,0,0,0,0,0,0,0,0,0,0,0,0,0,0,0,0,0,0,0,0,0,0,0,0,0,0,0,0],"id":8,"left_children":[1,-1,3,5,7,9,11,13,15,17,19,21,23,25,27,29,31,33,35,37,39,41,43,45,47,-1,-1,49,51,-1,53,-1,55,-1,-1,-1,-1,-1,-1,-1,-1,-1,-1,-1,-1,-1,-1,-1,-1,-1,-1,-1,-1,-1,-1,-1,-1],"loss_changes":[2.34755E3,0E0,6.178282E2,4.5724747E2,3.5829834E1,4.7425458E2,5.312851E2,4.7212658E1,1.9851685E0,4.0544885E2,1.3756693E2,1.26472595E2,1.5954784E2,1.6758728E0,1.6072426E1,1.1472931E0,3.2678223E-1,4.163755E2,8.736094E2,2.5877655E1,1.2689467E2,2.2585754E1,7.227472E1,4.434583E1,3.3165726E1,0E0,0E0,3.5501823E0,1.9729813E1,0E0,1.0443192E0,0E0,4.9506474E0,0E0,0E0,0E0,0E0,0E0,0E0,0E0,0E0,0E0,0E0,0E0,0E0,0E0,0E0,0E0,0E0,0E0,0E0,0E0,0E0,0E0,0E0,0E0,0E0],"parents":[2147483647,0,0,2,2,3,3,4,4,5,5,6,6,7,7,8,8,9,9,10,10,11,11,12,12,13,13,14,14,15,15,16,16,17,17,18,18,19,19,20,20,21,21,22,22,23,23,24,24,27,27,28,28,30,30,32,32],"right_children":[2,-1,4,6,8,10,12,14,16,18,20,22,24,26,28,30,32,34,36,38,40,42,44,46,48,-1,-1,50,52,-1,54,-1,56,-1,-1,-1,-1,-1,-1,-1,-1,-1,-1,-1,-1,-1,-1,-1,-1,-1,-1,-1,-1,-1,-1,-1,-1],"split_conditions":[1E0,-4.32008E-2,1E0,1E0,2E0,1E0,2.9375E1,2E0,5E0,9E0,1.75E1,1.5375E1,1.5E1,1E0,1.7E1,9.9019396E-1,1.1E1,1E0,8E0,1E1,1E1,3E0,1.7E1,1E0,7E0,4.5475185E-2,2.0459596E-2,7E0,3.3E1,1.4305176E-2,8E0,4.4675436E-2,2.6E0,5.1492187E-3,-1.8094989E-2,-1.7477201E-2,1.475896E-3,-3.1378012E-2,-1.8125148E-2,-1.2498393E-2,2.4028248E-3,2.7426345E-2,-2.875611E-2,-1.6120162E-2,4.6880185E-3,-5.6555E-3,4.752006E-3,3.2607117E-3,2.1211987E-2,-4.6334926E-2,-1.7196422E-2,3.9574724E-2,-4.234798E-2,3.917524E-2,1.6761718E-2,-3.6611357E-3,4.3049864E-2],"split_indices":[4,0,48,38,1,44,1,4,0,4,1,1,4,6,2,5,4,22,1,1,4,2,4,7,0,0,0,2,2,0,4,0,1,0,0,0,0,0,0,0,0,0,0,0,0,0,0,0,0,0,0,0,0,0,0,0,0],"split_type":[0,0,0,0,0,0,0,0,0,0,0,0,0,0,0,0,0,0,0,0,0,0,0,0,0,0,0,0,0,0,0,0,0,0,0,0,0,0,0,0,0,0,0,0,0,0,0,0,0,0,0,0,0,0,0,0,0],"sum_hessian":[1.5142556E5,3.0672534E3,1.483583E5,1.472878E5,1.0705037E3,1.3501228E5,1.227552E4,1.6313307E2,9.073706E2,1.2699262E5,8.019661E3,5.992635E3,6.282885E3,8.459895E1,7.853412E1,2.1840396E2,6.889666E2,7.739723E4,4.959539E4,2.144746E3,5.8749146E3,2.317696E3,3.674939E3,4.9129653E3,1.3699196E3,7.4618324E1,9.980636E0,4.5381195E1,3.3152927E1,6.6125674E0,2.117914E2,6.4126715E2,4.7699474E1,7.542106E4,1.9761638E3,7.0938096E3,4.2501582E4,4.7573663E2,1.6690095E3,3.4244495E3,2.4504653E3,1.7286669E1,2.3004092E3,3.1954177E3,4.7952124E2,3.4606328E3,1.4523325E3,3.438462E2,1.0260734E3,1.8528383E1,2.6852812E1,2.3602602E1,9.550324E0,2.0432745E2,7.4639506E0,6.3775983E0,4.1321877E1],"tree_param":{"num_deleted":"0","num_feature":"59","num_nodes":"57","size_leaf_vector":"1"}},{"base_weights":[-3.962591E-4,-4.2662825E-2,1.3291886E-2,7.963809E-3,7.981724E-1,1.2808746E-3,5.611164E-1,4.8449805E-1,8.442727E-1,-3.6975485E-3,6.7261887E-1,-2.8385976E-2,6.315607E-1,5.357287E-1,1.1711977E-1,7.147317E-1,8.5779977E-1,-7.4487664E-3,7.83903E-1,1.19622305E-1,8.173274E-1,2.1586287E-1,-3.2579666E-1,6.534242E-1,-4.661435E-1,3.9443773E-1,6.563382E-1,1.9777313E-2,-1.4991215E-2,7.708442E-1,5.2484167E-1,8.602336E-1,2.2226494E-2,-2.1549469E-2,9.270136E-5,-2.3961384E-3,4.2216323E-2,-1.5895069E-2,1.5413036E-2,4.1734185E-2,5.8869706E-3,-1.6674118E-2,1.66839E-2,-2.6735002E-2,1.517995E-2,2.8444579E-2,3.6433663E-2,-4.788113E-2,4.089399E-2,1.2176353E-2,3.40089E-2,3.700338E-2,1.7767316E-2,2.098646E-2,3.9870895E-2,-8.364257E-3,3.865448E-2,4.0039122E-2,4.379217E-2],"categories":[],"categories_nodes":[],"categories_segments":[],"categories_sizes":[],"default_left":[0,0,0,0,0,0,0,0,0,0,0,0,0,0,0,0,0,0,0,0,0,0,0,0,0,0,0,0,0,0,0,0,0,0,0,0,0,0,0,0,0,0,0,0,0,0,0,0,0,0,0,0,0,0,0,0,0,0,0],"id":9,"left_children":[1,-1,3,5,7,9,11,13,15,17,19,21,23,25,27,29,31,33,35,37,39,41,43,45,47,49,51,-1,-1,53,55,57,-1,-1,-1,-1,-1,-1,-1,-1,-1,-1,-1,-1,-1,-1,-1,-1,-1,-1,-1,-1,-1,-1,-1,-1,-1,-1,-1],"loss_changes":[1.7301154E3,0E0,6.0996844E2,5.3556744E2,1.3812317E1,4.784377E2,7.1837036E1,2.353222E0,8.87146E-1,4.198255E2,8.42262E1,1.355003E1,3.738159E1,1.6561127E0,2.090878E0,5.217972E-1,3.922119E-1,5.5722815E2,3.389612E1,1.8232672E1,1.0040649E1,6.7444916E0,1.1216605E1,9.223206E0,2.019063E1,2.1739883E0,1.2269249E0,0E0,0E0,2.7155685E-1,4.07505E0,8.178711E-3,0E0,0E0,0E0,0E0,0E0,0E0,0E0,0E0,0E0,0E0,0E0,0E0,0E0,0E0,0E0,0E0,0E0,0E0,0E0,0E0,0E0,0E0,0E0,0E0,0E0,0E0,0E0],"parents":[2147483647,0,0,2,2,3,3,4,4,5,5,6,6,7,7,8,8,9,9,10,10,11,11,12,12,13,13,14,14,15,15,16,16,17,17,18,18,19,19,20,20,21,21,22,22,23,23,24,24,25,25,26,26,29,29,30,30,31,31],"right_children":[2,-1,4,6,8,10,12,14,16,18,20,22,24,26,28,30,32,34,36,38,40,42,44,46,48,50,52,-1,-1,54,56,58,-1,-1,-1,-1,-1,-1,-1,-1,-1,-1,-1,-1,-1,-1,-1,-1,-1,-1,-1,-1,-1,-1,-1,-1,-1,-1,-1],"split_conditions":[1E0,-4.2662825E-2,1E0,1E0,2E0,1E0,2.75E0,1E0,4E0,1E0,3E0,9.9423486E-1,5E0,9.965749E-1,4E0,9.9701613E-1,9.978639E-1,3.5E0,1.6E0,2E0,4E0,1.1666666E0,1E0,6E0,7E0,2E0,9.980359E-1,1.9777313E-2,-1.4991215E-2,9.887887E-1,9.978639E-1,2.6E0,2.2226494E-2,-2.1549469E-2,9.270136E-5,-2.3961384E-3,4.2216323E-2,-1.5895069E-2,1.5413036E-2,4.1734185E-2,5.8869706E-3,-1.6674118E-2,1.66839E-2,-2.6735002E-2,1.517995E-2,2.8444579E-2,3.6433663E-2,-4.788113E-2,4.089399E-2,1.2176353E-2,3.40089E-2,3.700338E-2,1.7767316E-2,2.098646E-2,3.9870895E-2,-8.364257E-3,3.865448E-2,4.0039122E-2,4.379217E-2],"split_indices":[3,0,48,49,1,51,1,6,0,30,1,5,3,5,8,5,5,1,1,1,3,1,14,0,1,3,5,0,0,5,5,1,0,0,0,0,0,0,0,0,0,0,0,0,0,0,0,0,0,0,0,0,0,0,0,0,0,0,0],"split_type":[0,0,0,0,0,0,0,0,0,0,0,0,0,0,0,0,0,0,0,0,0,0,0,0,0,0,0,0,0,0,0,0,0,0,0,0,0,0,0,0,0,0,0,0,0,0,0,0,0,0,0,0,0,0,0,0,0,0,0],"sum_hessian":[1.4819955E5,2.3400164E3,1.4585953E5,1.4487705E5,9.824721E2,1.431486E5,1.728453E3,1.2736533E2,8.551068E2,1.4209586E5,1.052742E3,1.8456293E2,1.5438901E3,1.1137582E2,1.5989516E1,8.5940636E1,7.691662E2,1.4142327E5,6.7258636E2,2.187243E2,8.3401764E2,1.0148909E2,8.307383E1,1.514137E3,2.9753149E1,5.3257E1,5.8118816E1,9.618082E0,6.3714337E0,6.3976227E1,2.196441E1,7.635877E2,5.578442E0,3.038535E3,1.3838473E5,4.5561813E1,6.2702454E2,6.568674E1,1.5303757E2,8.136388E2,2.0378881E1,1.7598892E1,8.38902E1,6.2484867E1,2.0588963E1,7.171125E2,7.970245E2,2.1700977E1,8.052172E0,3.606299E1,1.7194014E1,4.432876E1,1.3790058E1,5.682941E0,5.8293285E1,5.8844438E0,1.6079966E1,1.6967332E2,5.939144E2],"tree_param":{"num_deleted":"0","num_feature":"59","num_nodes":"59","size_leaf_vector":"1"}},{"base_weights":[1.0402529E-3,-4.222895E-2,1.7788049E-2,-4.197932E-2,2.9784411E-2,2.3871517E-2,5.5105704E-1,1.8405342E-2,5.879039E-1,6.257427E-1,1.2171152E-1,2.7008735E-2,-2.928155E-1,6.877112E-1,2.456199E-1,6.567051E-1,2.6103944E-1,1.9201878E-2,6.486151E-1,1.7678865E-3,-1.406046E-2,-2.124308E-2,-1.0027929E-2,2.7253544E-2,4.2498212E-2,8.137797E-3,3.4388643E-2,2.1929938E-2,3.4880545E-2,9.468115E-5,3.325413E-2,1.3766463E-2,-9.162876E-3,3.800859E-2,2.224916E-3],"categories":[],"categories_nodes":[],"categories_segments":[],"categories_sizes":[],"default_left":[0,0,0,0,0,0,0,0,0,0,0,0,0,0,0,0,0,0,0,0,0,0,0,0,0,0,0,0,0,0,0,0,0,0,0],"id":10,"left_children":[1,-1,3,-1,5,7,9,11,13,15,17,19,21,23,25,27,29,31,33,-1,-1,-1,-1,-1,-1,-1,-1,-1,-1,-1,-1,-1,-1,-1,-1],"loss_changes":[2.0949822E3,0E0,1.4919622E3,0E0,4.4091104E2,4.3609412E2,5.1371674E1,3.751161E2,4.6211273E1,1.5258728E1,1.2895596E1,3.5081866E2,4.5825165E1,2.3851105E1,1.1174864E1,1.0925415E1,1.1368832E1,1.0478078E1,2.5871887E0,0E0,0E0,0E0,0E0,0E0,0E0,0E0,0E0,0E0,0E0,0E0,0E0,0E0,0E0,0E0,0E0],"parents":[2147483647,0,0,2,2,4,4,5,5,6,6,7,7,8,8,9,9,10,10,11,11,12,12,13,13,14,14,15,15,16,16,17,17,18,18],"right_children":[2,-1,4,-1,6,8,10,12,14,16,18,20,22,24,26,28,30,32,34,-1,-1,-1,-1,-1,-1,-1,-1,-1,-1,-1,-1,-1,-1,-1,-1],"split_conditions":[1E0,-4.222895E-2,1E0,-4.197932E-2,1E0,1E0,9E0,1E0,8E0,4E0,3E0,1E0,7E0,1.1E1,9E0,4E0,5E0,3.9E1,9.9496657E-1,1.7678865E-3,-1.406046E-2,-2.124308E-2,-1.0027929E-2,2.7253544E-2,4.2498212E-2,8.137797E-3,3.4388643E-2,2.1929938E-2,3.4880545E-2,9.468115E-5,3.325413E-2,1.3766463E-2,-9.162876E-3,3.800859E-2,2.224916E-3],"split_indices":[4,0,3,0,49,50,4,52,4,3,3,41,4,2,0,0,4,2,5,0,0,0,0,0,0,0,0,0,0,0,0,0,0,0,0],"split_type":[0,0,0,0,0,0,0,0,0,0,0,0,0,0,0,0,0,0,0,0,0,0,0,0,0,0,0,0,0,0,0,0,0,0,0],"sum_hessian":[1.479251E5,2.871853E3,1.4505323E5,2.0006235E3,1.4305261E5,1.4144917E5,1.6034392E3,1.4009253E5,1.3566381E3,1.3654574E3,2.3798178E2,1.3632488E5,3.7676538E3,1.0495798E3,3.0705817E2,1.2578668E3,1.0759055E2,2.0009042E2,3.7891357E1,1.3273038E5,3.5945095E3,1.5481711E3,2.2194827E3,5.608679E2,4.8871194E2,2.5974704E2,4.731114E1,2.0050618E2,1.0573606E3,6.616088E1,4.1429676E1,8.817811E1,1.1191231E2,3.1766932E1,6.124426E0],"tree_param":{"num_deleted":"0","num_feature":"59","num_nodes":"35","size_leaf_vector":"1"}},{"base_weights":[-2.5523787E-3,-4.1439712E-2,1.2722985E-2,-4.1225147E-2,2.3441661E-2,1.840439E-2,7.806814E-1,1.289028E-2,5.235004E-1,4.9014872E-1,8.2778484E-1,7.176682E-3,4.79605E-1,-1.6203701E-1,6.0673803E-1,8.047163E-1,2.5891898E-2,6.675989E-1,8.436918E-1,1.588404E-4,3.058119E-2,-1.0556237E-2,3.0900156E-2,2.4605712E-2,-1.932217E-2,3.4893163E-2,6.1230054E-3,3.376718E-2,4.4103287E-2,-3.3481006E-2,1.9927723E-2,4.1451912E-2,2.6215738E-2,4.2640027E-2,3.274001E-2],"categories":[],"categories_nodes":[],"categories_segments":[],"categories_sizes":[],"default_left":[0,0,0,0,0,0,0,0,0,0,0,0,0,0,0,0,0,0,0,0,0,0,0,0,0,0,0,0,0,0,0,0,0,0,0],"id":11,"left_children":[1,-1,3,-1,5,7,9,11,13,15,17,19,21,23,25,27,29,31,33,-1,-1,-1,-1,-1,-1,-1,-1,-1,-1,-1,-1,-1,-1,-1,-1],"loss_changes":[1.8525634E3,0E0,1.2933296E3,0E0,5.4276794E2,3.936977E2,1.2462402E1,3.7287708E2,8.7204895E1,1.9494984E1,1.494751E0,3.3398685E2,1.6179572E2,2.456842E1,5.9994843E1,2.0110321E-1,1.4524418E1,1.3638191E0,6.9921875E-1,0E0,0E0,0E0,0E0,0E0,0E0,0E0,0E0,0E0,0E0,0E0,0E0,0E0,0E0,0E0,0E0],"parents":[2147483647,0,0,2,2,4,4,5,5,6,6,7,7,8,8,9,9,10,10,11,11,12,12,13,13,14,14,15,15,16,16,17,17,18,18],"right_children":[2,-1,4,-1,6,8,10,12,14,16,18,20,22,24,26,28,30,32,34,-1,-1,-1,-1,-1,-1,-1,-1,-1,-1,-1,-1,-1,-1,-1,-1],"split_conditions":[1E0,-4.1439712E-2,1E0,-4.1225147E-2,1E0,1E0,2E0,1E0,2.6E0,3E0,4E0,1E0,3.5E0,2E0,9E0,7E0,1E1,3E0,1.1E1,1.588404E-4,3.058119E-2,-1.0556237E-2,3.0900156E-2,2.4605712E-2,-1.932217E-2,3.4893163E-2,6.1230054E-3,3.376718E-2,4.4103287E-2,-3.3481006E-2,1.9927723E-2,4.1451912E-2,2.6215738E-2,4.2640027E-2,3.274001E-2],"split_indices":[4,0,3,0,48,49,1,37,1,4,0,35,1,4,4,2,2,4,4,0,0,0,0,0,0,0,0,0,0,0,0,0,0,0,0],"split_type":[0,0,0,0,0,0,0,0,0,0,0,0,0,0,0,0,0,0,0,0,0,0,0,0,0,0,0,0,0,0,0,0,0,0,0],"sum_hessian":[1.4678066E5,2.663421E3,1.4411723E5,1.8207938E3,1.4229645E5,1.4135714E5,9.3930426E2,1.3983164E5,1.5255105E3,1.3263326E2,8.06671E2,1.381415E5,1.6901354E3,1.6506921E2,1.3604413E3,7.862547E1,5.4007786E1,7.675031E1,7.299207E2,1.3723436E5,9.071308E2,2.8202988E2,1.4081056E3,4.185824E1,1.23210976E2,1.1446202E3,2.1582097E2,3.3060463E1,4.556501E1,1.8564121E1,3.5443665E1,3.383837E1,4.2911945E1,6.929887E2,3.693196E1],"tree_param":{"num_deleted":"0","num_feature":"59","num_nodes":"35","size_leaf_vector":"1"}},{"base_weights":[2.2070545E-3,-4.069198E-2,1.6352095E-2,-4.0488478E-2,2.6175538E-2,3.2781623E-2,-3.8467816E-1,2.7360395E-2,5.261353E-1,-5.757453E-1,-2.290945E-1,1.7540451E-2,2.8899947E-1,-1.3879047E-1,5.9452504E-1,-5.1650196E-1,-8.491753E-1,-2.997703E-1,2.6730955E-2,6.535943E-4,3.0971784E-2,1.8387882E-2,6.5502507E-4,1.8887006E-2,-1.3693996E-2,3.399697E-2,8.035081E-3,-1.1486325E-2,-2.7862934E-2,-2.7135683E-2,-4.7511365E-2,-1.566206E-2,2.8803915E-2,-2.127155E-2,6.917318E-3],"categories":[],"categories_nodes":[],"categories_segments":[],"categories_sizes":[],"default_left":[0,0,0,0,0,0,0,0,0,0,0,0,0,0,0,0,0,0,0,0,0,0,0,0,0,0,0,0,0,0,0,0,0,0,0],"id":12,"left_children":[1,-1,3,-1,5,7,9,11,13,15,17,19,21,23,25,27,29,31,33,-1,-1,-1,-1,-1,-1,-1,-1,-1,-1,-1,-1,-1,-1,-1,-1],"loss_changes":[1.6966267E3,0E0,1.1725161E3,0E0,3.8754126E2,3.7582642E2,6.703677E1,3.5711685E2,6.953525E1,1.5978302E1,2.2555801E1,3.6031793E2,1.0925238E2,1.0099031E1,5.1213562E1,9.63768E0,5.0253906E0,1.1709961E1,1.3728847E1,0E0,0E0,0E0,0E0,0E0,0E0,0E0,0E0,0E0,0E0,0E0,0E0,0E0,0E0,0E0,0E0],"parents":[2147483647,0,0,2,2,4,4,5,5,6,6,7,7,8,8,9,9,10,10,11,11,12,12,13,13,14,14,15,15,16,16,17,17,18,18],"right_children":[2,-1,4,-1,6,8,10,12,14,16,18,20,22,24,26,28,30,32,34,-1,-1,-1,-1,-1,-1,-1,-1,-1,-1,-1,-1,-1,-1,-1,-1],"split_conditions":[1E0,-4.069198E-2,1E0,-4.0488478E-2,1E0,1E0,1.525E1,1E0,2.6E0,9.978639E-1,7E0,1E0,5E0,2E0,9E0,8.285714E0,3E0,9.989062E-1,9.952114E-1,6.535943E-4,3.0971784E-2,1.8387882E-2,6.5502507E-4,1.8887006E-2,-1.3693996E-2,3.399697E-2,8.035081E-3,-1.1486325E-2,-2.7862934E-2,-2.7135683E-2,-4.7511365E-2,-1.566206E-2,2.8803915E-2,-2.127155E-2,6.917318E-3],"split_indices":[4,0,3,0,34,49,1,55,1,5,3,51,3,4,4,1,2,5,5,0,0,0,0,0,0,0,0,0,0,0,0,0,0,0,0],"split_type":[0,0,0,0,0,0,0,0,0,0,0,0,0,0,0,0,0,0,0,0,0,0,0,0,0,0,0,0,0,0,0,0,0,0,0],"sum_hessian":[1.4698086E5,2.5033381E3,1.4447752E5,1.6968419E3,1.4278067E5,1.4052216E5,2.2585247E3,1.3899584E5,1.5263033E3,1.01245795E3,1.2460668E3,1.3396875E5,5.027103E3,1.422486E2,1.3840548E3,8.345313E2,1.7792662E2,9.762036E2,2.6986322E2,1.3298248E5,9.862609E2,3.9104827E3,1.1166202E3,2.9117634E1,1.1313097E2,1.1559045E3,2.2815028E2,1.04671295E2,7.2986005E2,4.570057E1,1.3222604E2,9.6204926E2,1.4154337E1,5.28703E1,2.1699294E2],"tree_param":{"num_deleted":"0","num_feature":"59","num_nodes":"35","size_leaf_vector":"1"}},{"base_weights":[1.0889038E-3,-4.0006172E-2,1.4163198E-2,-3.980897E-2,2.3185633E-2,1.8281268E-2,7.7183884E-1,1.279521E-2,5.276642E-1,4.3909276E-1,8.2085806E-1,9.448356E-3,7.402367E-1,6.1195E-1,7.251843E-2,4.112541E-2,1.7052798E-2,2.8003294E-2,4.117019E-2,-1.6232302E-2,8.3229935E-4,3.930195E-2,-1.592376E-2,-1.727647E-3,3.4246348E-2,-2.0860173E-2,1.942737E-2,-4.481965E-2,1.0826827E-2],"categories":[],"categories_nodes":[],"categories_segments":[],"categories_sizes":[],"default_left":[0,0,0,0,0,0,0,0,0,0,0,0,0,0,0,0,0,0,0,0,0,0,0,0,0,0,0,0,0],"id":13,"left_children":[1,-1,3,-1,5,7,9,11,13,15,17,19,21,23,25,-1,27,-1,-1,-1,-1,-1,-1,-1,-1,-1,-1,-1,-1],"loss_changes":[1.5294774E3,0E0,1.0503823E3,0E0,5.2166693E2,3.9446298E2,1.4722107E1,3.4000522E2,5.7654877E1,1.9546637E1,7.318115E-2,3.3429907E2,3.1264587E1,5.9891052E1,3.670907E1,0E0,1.0865429E1,0E0,0E0,0E0,0E0,0E0,0E0,0E0,0E0,0E0,0E0,0E0,0E0],"parents":[2147483647,0,0,2,2,4,4,5,5,6,6,7,7,8,8,9,9,10,10,11,11,12,12,13,13,14,14,16,16],"right_children":[2,-1,4,-1,6,8,10,12,14,16,18,20,22,24,26,-1,28,-1,-1,-1,-1,-1,-1,-1,-1,-1,-1,-1,-1],"split_conditions":[1E0,-4.0006172E-2,1E0,-3.980897E-2,1E0,1E0,2E0,1E0,9E0,2E0,9.9121326E-1,3.5E0,5E0,2.6E0,5.5E0,4.112541E-2,7E0,2.8003294E-2,4.117019E-2,-1.6232302E-2,8.3229935E-4,3.930195E-2,-1.592376E-2,-1.727647E-3,3.4246348E-2,-2.0860173E-2,1.942737E-2,-4.481965E-2,1.0826827E-2],"split_indices":[4,0,3,0,48,49,1,30,4,4,5,1,3,1,1,0,2,0,0,0,0,0,0,0,0,0,0,0,0],"split_type":[0,0,0,0,0,0,0,0,0,0,0,0,0,0,0,0,0,0,0,0,0,0,0,0,0,0,0,0,0],"sum_hessian":[1.4600611E5,2.343327E3,1.4366278E5,1.5809817E3,1.420818E5,1.4115811E5,9.236907E2,1.3965505E5,1.503061E3,1.19881676E2,8.03809E2,1.3901647E5,6.385818E2,1.2679181E3,2.3514294E2,6.2318027E1,5.7563652E1,9.907257E0,7.9390173E2,2.9308386E3,1.3608562E5,6.123477E2,2.6234026E1,1.2865857E2,1.1392595E3,9.2101425E1,1.4304152E2,9.691631E0,4.787202E1],"tree_param":{"num_deleted":"0","num_feature":"59","num_nodes":"29","size_leaf_vector":"1"}},{"base_weights":[-1.9742097E-3,-3.9347213E-2,1.0218573E-2,-3.9162423E-2,1.856129E-2,1.3883634E-2,7.596866E-1,9.068994E-3,5.466714E-1,4.9062315E-1,8.0822027E-1,-4.0387505E-4,2.6446098E-1,-1.4044847E-1,6.8481046E-1,5.9379065E-1,-4.4160258E-2,1.6542992E-2,4.054872E-2,-2.3551022E-4,2.982009E-2,1.8424047E-2,2.1308488E-3,3.365561E-2,-2.1912878E-2,3.8144227E-2,1.8419778E-2,3.7978277E-2,1.2222094E-2],"categories":[],"categories_nodes":[],"categories_segments":[],"categories_sizes":[],"default_left":[0,0,0,0,0,0,0,0,0,0,0,0,0,0,0,0,0,0,0,0,0,0,0,0,0,0,0,0,0],"id":14,"left_children":[1,-1,3,-1,5,7,9,11,13,15,17,19,21,23,25,27,-1,-1,-1,-1,-1,-1,-1,-1,-1,-1,-1,-1,-1],"loss_changes":[1.3938809E3,0E0,9.493347E2,0E0,4.9198004E2,3.617592E2,1.1226807E1,3.38137E2,1.1997806E2,2.0163654E1,7.210083E-1,3.463647E2,1.15336365E2,5.1718273E1,2.5701385E1,7.3131027E0,0E0,0E0,0E0,0E0,0E0,0E0,0E0,0E0,0E0,0E0,0E0,0E0,0E0],"parents":[2147483647,0,0,2,2,4,4,5,5,6,6,7,7,8,8,9,9,10,10,11,11,12,12,13,13,14,14,15,15],"right_children":[2,-1,4,-1,6,8,10,12,14,16,18,20,22,24,26,28,-1,-1,-1,-1,-1,-1,-1,-1,-1,-1,-1,-1,-1],"split_conditions":[1E0,-3.9347213E-2,1E0,-3.9162423E-2,1E0,1E0,2E0,1E0,3E0,1.1E1,9.9019396E-1,1E0,4E0,2E0,9E0,3E0,-4.4160258E-2,1.6542992E-2,4.054872E-2,-2.3551022E-4,2.982009E-2,1.8424047E-2,2.1308488E-3,3.365561E-2,-2.1912878E-2,3.8144227E-2,1.8419778E-2,3.7978277E-2,1.2222094E-2],"split_indices":[4,0,3,0,48,50,1,55,1,4,5,51,3,4,4,4,0,0,0,0,0,0,0,0,0,0,0,0,0],"split_type":[0,0,0,0,0,0,0,0,0,0,0,0,0,0,0,0,0,0,0,0,0,0,0,0,0,0,0,0,0],"sum_hessian":[1.456345E5,2.2265403E3,1.4340797E5,1.4911732E3,1.419168E5,1.410277E5,8.89086E2,1.397657E5,1.2620027E3,1.375635E2,7.5152246E2,1.3476795E5,4.9977456E3,2.1124226E2,1.0507604E3,1.284829E2,9.080626E0,5.0058517E0,7.4651666E2,1.3380347E5,9.644844E2,3.4019514E3,1.5957944E3,5.626801E1,1.5497426E2,8.416707E2,2.090897E2,8.633873E1,4.2144157E1],"tree_param":{"num_deleted":"0","num_feature":"59","num_nodes":"29","size_leaf_vector":"1"}},{"base_weights":[3.1889373E-4,-3.8731877E-2,1.1832029E-2,-3.8567193E-2,1.9577745E-2,1.4940002E-2,7.5415385E-1,1.02696195E-2,5.6375253E-1,5.4508585E-1,7.8899777E-1,5.159853E-3,5.111336E-1,-1.5324512E-1,6.674272E-1,8.0214715E-1,1.6421853E-1,1.6534027E-2,7.92861E-1,-1.3046023E-4,1.6263325E-2,-6.5383436E-3,2.9588906E-2,3.0991808E-2,-2.4027131E-2,3.8385086E-2,1.41709475E-2,4.1395057E-2,2.6642067E-2,-4.4294868E-2,2.0082109E-2,3.4176E-2,4.0232304E-2],"categories":[],"categories_nodes":[],"categories_segments":[],"categories_sizes":[],"default_left":[0,0,0,0,0,0,0,0,0,0,0,0,0,0,0,0,0,0,0,0,0,0,0,0,0,0,0,0,0,0,0,0,0],"id":15,"left_children":[1,-1,3,-1,5,7,9,11,13,15,17,19,21,23,25,27,29,-1,31,-1,-1,-1,-1,-1,-1,-1,-1,-1,-1,-1,-1,-1,-1],"loss_changes":[1.2939224E3,0E0,8.6688416E2,0E0,4.8205304E2,3.604133E2,6.0369873E0,3.5683868E2,8.830121E1,1.2601303E1,1.0811157E0,3.4325223E2,7.296713E1,3.843019E1,3.9706055E1,9.560776E-2,1.3735453E1,0E0,4.1851807E-1,0E0,0E0,0E0,0E0,0E0,0E0,0E0,0E0,0E0,0E0,0E0,0E0,0E0,0E0],"parents":[2147483647,0,0,2,2,4,4,5,5,6,6,7,7,8,8,9,9,10,10,11,11,12,12,13,13,14,14,15,15,16,16,18,18],"right_children":[2,-1,4,-1,6,8,10,12,14,16,18,20,22,24,26,28,30,-1,32,-1,-1,-1,-1,-1,-1,-1,-1,-1,-1,-1,-1,-1,-1],"split_conditions":[1E0,-3.8731877E-2,1E0,-3.8567193E-2,1E0,1E0,2E0,1E0,2.75E0,2E0,9.9078274E-1,1E0,2.75E0,2E0,9E0,1E0,7E0,1.6534027E-2,4E0,-1.3046023E-4,1.6263325E-2,-6.5383436E-3,2.9588906E-2,3.0991808E-2,-2.4027131E-2,3.8385086E-2,1.41709475E-2,4.1395057E-2,2.6642067E-2,-4.4294868E-2,2.0082109E-2,3.4176E-2,4.0232304E-2],"split_indices":[4,0,3,0,48,50,1,49,1,4,5,26,1,4,4,6,2,0,0,0,0,0,0,0,0,0,0,0,0,0,0,0,0],"split_type":[0,0,0,0,0,0,0,0,0,0,0,0,0,0,0,0,0,0,0,0,0,0,0,0,0,0,0,0,0,0,0,0,0],"sum_hessian":[1.4502112E5,2.1219954E3,1.4289912E5,1.3984857E3,1.4150064E5,1.406139E5,8.86745E2,1.3942839E5,1.1855139E3,1.290533E2,7.5769165E2,1.3802131E5,1.4070698E3,1.4970427E2,1.0358096E3,7.638928E1,5.266402E1,7.057073E0,7.506346E2,1.3475184E5,3.2694648E3,1.569761E2,1.2500938E3,4.4262302E1,1.0544197E2,8.205448E2,2.152648E2,6.782856E1,8.560722E0,9.207647E0,4.3456375E1,7.877409E1,6.7186053E2],"tree_param":{"num_deleted":"0","num_feature":"59","num_nodes":"33","size_leaf_vector":"1"}},{"base_weights":[-1.1525038E-3,-3.8157757E-2,9.645212E-3,-3.7988845E-2,1.6897654E-2,1.26073E-2,7.3596644E-1,7.5393417E-3,5.2185833E-1,7.462145E-1,4.8790807E-1,3.0373693E-3,5.708895E-1,6.0471004E-1,7.500029E-2,6.842639E-1,4.035992E-2,6.280362E-1,-1.16940355E-2,-1.07820255E-4,2.241258E-2,3.338722E-2,9.2001455E-3,3.1180253E-2,-1.07953055E-2,1.6796166E-2,-5.4742666E-3,3.5351466E-2,1.9011134E-2,3.88636E-2,2.1465912E-2],"categories":[],"categories_nodes":[],"categories_segments":[],"categories_sizes":[],"default_left":[0,0,0,0,0,0,0,0,0,0,0,0,0,0,0,0,0,0,0,0,0,0,0,0,0,0,0,0,0,0,0],"id":16,"left_children":[1,-1,3,-1,5,7,9,11,13,15,17,19,21,23,25,27,-1,29,-1,-1,-1,-1,-1,-1,-1,-1,-1,-1,-1,-1,-1],"loss_changes":[1.1846627E3,0E0,7.9223096E2,0E0,4.338892E2,3.6083133E2,1.7564697E0,3.5109583E2,5.0959503E1,2.4669495E0,3.786395E0,3.1757507E2,4.1003265E1,1.8152588E1,1.0464115E1,2.5207214E0,0E0,5.679903E-1,0E0,0E0,0E0,0E0,0E0,0E0,0E0,0E0,0E0,0E0,0E0,0E0,0E0],"parents":[2147483647,0,0,2,2,4,4,5,5,6,6,7,7,8,8,9,9,10,10,11,11,12,12,13,13,14,14,15,15,17,17],"right_children":[2,-1,4,-1,6,8,10,12,14,16,18,20,22,24,26,28,-1,30,-1,-1,-1,-1,-1,-1,-1,-1,-1,-1,-1,-1,-1],"split_conditions":[1E0,-3.8157757E-2,1E0,-3.7988845E-2,1E0,1E0,1.1E1,1E0,9E0,1.6E1,9.966832E-1,1E0,9E0,5E0,3.9E1,1.4E1,4.035992E-2,2.6E1,-1.16940355E-2,-1.07820255E-4,2.241258E-2,3.338722E-2,9.2001455E-3,3.1180253E-2,-1.07953055E-2,1.6796166E-2,-5.4742666E-3,3.5351466E-2,1.9011134E-2,3.88636E-2,2.1465912E-2],"split_indices":[4,0,3,0,48,49,4,50,4,2,5,37,4,3,2,2,0,2,0,0,0,0,0,0,0,0,0,0,0,0,0],"split_type":[0,0,0,0,0,0,0,0,0,0,0,0,0,0,0,0,0,0,0,0,0,0,0,0,0,0,0,0,0,0,0],"sum_hessian":[1.4397948E5,2.0107356E3,1.4196875E5,1.324709E3,1.4064405E5,1.3981088E5,8.3317004E2,1.3843422E5,1.3766532E3,7.981862E2,3.4983833E1,1.373377E5,1.096519E3,1.1610332E3,2.1561993E2,4.020167E2,3.9616953E2,2.9405027E1,5.5788045E0,1.3575502E5,1.582694E3,8.7639294E2,2.2012611E2,1.1351364E3,2.5896908E1,8.89685E1,1.26651436E2,3.7277902E2,2.923767E1,1.51306095E1,1.4274418E1],"tree_param":{"num_deleted":"0","num_feature":"59","num_nodes":"31","size_leaf_vector":"1"}},{"base_weights":[3.958291E-3,-3.760357E-2,1.4148981E-2,9.860547E-3,7.0131123E-1,5.0779968E-3,4.6820277E-1,3.6850804E-1,7.623478E-1,-3.774488E-3,2.429154E-1,2.5666928E-1,7.426112E-1,7.699109E-1,-7.7135615E-2,6.1101425E-1,3.889092E-2,-1.4654934E-2,2.1356165E-1,-1.9667862E-1,2.8208345E-1,3.9319637E-1,-4.1321594E-1,-1.290341E-2,7.5129205E-1,4.0055484E-2,2.3490956E-2,-4.225577E-2,1.0228849E-1,4.2892188E-1,3.7316557E-2,-9.920874E-4,2.2783214E-2,1.5252985E-3,1.8597977E-2,5.3913724E-3,-2.4730973E-2,2.5207838E-2,1.1280212E-2,2.7866676E-2,8.775216E-3,-3.578538E-2,-6.3617863E-3,3.4058E-2,4.467797E-2,2.3794126E-2,-2.0900907E-2,3.2114413E-2,9.929788E-3],"categories":[],"categories_nodes":[],"categories_segments":[],"categories_sizes":[],"default_left":[0,0,0,0,0,0,0,0,0,0,0,0,0,0,0,0,0,0,0,0,0,0,0,0,0,0,0,0,0,0,0,0,0,0,0,0,0,0,0,0,0,0,0,0,0,0,0,0,0],"id":17,"left_children":[1,-1,3,5,7,9,11,13,15,17,19,21,23,25,27,29,-1,31,33,35,37,39,41,-1,43,-1,-1,-1,45,47,-1,-1,-1,-1,-1,-1,-1,-1,-1,-1,-1,-1,-1,-1,-1,-1,-1,-1,-1],"loss_changes":[1.1093063E3,0E0,4.1864307E2,3.094855E2,1.7616974E1,2.9419543E2,8.444031E1,2.4832191E1,1.2656555E0,3.1856943E2,8.6390686E1,7.560049E1,5.7025146E0,3.0662918E-1,9.254656E0,1.4941521E0,0E0,3.1297882E2,1.8622208E2,3.7323887E1,5.763739E1,2.4403458E1,1.2031538E1,0E0,5.666626E0,0E0,0E0,0E0,1.0856345E1,1.5306196E0,0E0,0E0,0E0,0E0,0E0,0E0,0E0,0E0,0E0,0E0,0E0,0E0,0E0,0E0,0E0,0E0,0E0,0E0,0E0],"parents":[2147483647,0,0,2,2,3,3,4,4,5,5,6,6,7,7,8,8,9,9,10,10,11,11,12,12,13,13,14,14,15,15,17,17,18,18,19,19,20,20,21,21,22,22,24,24,28,28,29,29],"right_children":[2,-1,4,6,8,10,12,14,16,18,20,22,24,26,28,30,-1,32,34,36,38,40,42,-1,44,-1,-1,-1,46,48,-1,-1,-1,-1,-1,-1,-1,-1,-1,-1,-1,-1,-1,-1,-1,-1,-1,-1,-1],"split_conditions":[1E0,-3.760357E-2,1E0,1E0,2E0,1E0,7.25E0,2E0,4E0,1E0,3.8E0,1.1E1,2E0,1E0,7E0,1.1E1,3.889092E-2,1E0,1.0666667E1,9.866719E-1,9.84656E-1,4E0,5.5E0,-1.290341E-2,9.333333E0,4.0055484E-2,2.3490956E-2,-4.225577E-2,4E0,3E0,3.7316557E-2,-9.920874E-4,2.2783214E-2,1.5252985E-3,1.8597977E-2,5.3913724E-3,-2.4730973E-2,2.5207838E-2,1.1280212E-2,2.7866676E-2,8.775216E-3,-3.578538E-2,-6.3617863E-3,3.4058E-2,4.467797E-2,2.3794126E-2,-2.0900907E-2,3.2114413E-2,9.929788E-3],"split_indices":[4,0,48,42,1,55,1,4,0,58,1,4,2,6,2,2,0,49,1,5,5,4,1,0,1,0,0,0,4,4,0,0,0,0,0,0,0,0,0,0,0,0,0,0,0,0,0,0,0],"split_type":[0,0,0,0,0,0,0,0,0,0,0,0,0,0,0,0,0,0,0,0,0,0,0,0,0,0,0,0,0,0,0,0,0,0,0,0,0,0,0,0,0,0,0,0,0,0,0,0,0],"sum_hessian":[1.4397989E5,1.9139567E3,1.4206594E5,1.4118583E5,8.800965E2,1.3972886E5,1.4569832E3,1.3748637E2,7.426101E2,1.3471562E5,5.013231E3,8.2384247E2,6.3314075E2,7.195079E1,6.553559E1,7.263058E1,6.6997955E2,1.2829381E5,6.4218096E3,4.098089E2,4.6034224E3,6.847075E2,1.3913495E2,5.198137E0,6.2794257E2,6.3662605E1,8.288188E0,1.1708811E1,5.382678E1,3.274127E1,3.988931E1,1.26895336E5,1.3984799E3,2.979585E3,3.4422244E3,2.0298706E2,2.0682185E2,9.317815E2,3.6716406E3,3.8948236E2,2.9522516E2,6.688529E1,7.224966E1,4.2447913E2,2.0346344E2,3.1380281E1,2.2446497E1,1.6067904E1,1.6673365E1],"tree_param":{"num_deleted":"0","num_feature":"59","num_nodes":"49","size_leaf_vector":"1"}},{"base_weights":[6.6166074E-4,-3.712373E-2,1.05732465E-2,-3.7405208E-2,1.7339442E-2,1.3392045E-2,7.1468794E-1,2.8228015E-2,-1.5198965E-1,7.2578406E-1,4.5456505E-1,6.4071864E-2,-6.402867E-2,-1.8804781E-1,3.426571E-1,6.6986555E-1,3.9060347E-2,3.77801E-2,2.0091937E-1,5.6511224E-3,-3.390106E-3,-7.556369E-3,8.57707E-3,-1.6641546E-2,-5.4866667E-3,9.297457E-3,2.9342646E-2,3.4450483E-2,1.894934E-2,-2.7949053E-3,3.0971458E-2],"categories":[],"categories_nodes":[],"categories_segments":[],"categories_sizes":[],"default_left":[0,0,0,0,0,0,0,0,0,0,0,0,0,0,0,0,0,0,0,0,0,0,0,0,0,0,0,0,0,0,0],"id":18,"left_children":[1,-1,3,-1,5,7,9,11,13,15,17,19,21,23,25,27,-1,-1,29,-1,-1,-1,-1,-1,-1,-1,-1,-1,-1,-1,-1],"loss_changes":[1.0521018E3,0E0,7.2360455E2,0E0,3.8458176E2,3.4087833E2,1.9399109E0,4.2159964E2,2.0405676E2,1.8089294E0,2.5091295E0,5.927279E2,7.3198224E2,1.2084042E2,2.9641281E1,1.8639221E0,0E0,0E0,2.213834E0,0E0,0E0,0E0,0E0,0E0,0E0,0E0,0E0,0E0,0E0,0E0,0E0],"parents":[2147483647,0,0,2,2,4,4,5,5,6,6,7,7,8,8,9,9,10,10,11,11,12,12,13,13,14,14,15,15,18,18],"right_children":[2,-1,4,-1,6,8,10,12,14,16,18,20,22,24,26,28,-1,-1,30,-1,-1,-1,-1,-1,-1,-1,-1,-1,-1,-1,-1],"split_conditions":[1E0,-3.712373E-2,1E0,-3.7405208E-2,1E0,1E0,1.1E1,5E0,2.6E1,1.6E1,2.6E1,1.1E1,1.5E1,3E0,1E0,1.4E1,3.9060347E-2,3.77801E-2,1E0,5.6511224E-3,-3.390106E-3,-7.556369E-3,8.57707E-3,-1.6641546E-2,-5.4866667E-3,9.297457E-3,2.9342646E-2,3.4450483E-2,1.894934E-2,-2.7949053E-3,3.0971458E-2],"split_indices":[4,0,3,0,48,38,4,3,4,2,2,4,4,3,6,2,0,0,15,0,0,0,0,0,0,0,0,0,0,0,0],"split_type":[0,0,0,0,0,0,0,0,0,0,0,0,0,0,0,0,0,0,0,0,0,0,0,0,0,0,0,0,0,0,0],"sum_hessian":[1.4283672E5,1.8790386E3,1.4095769E5,1.2450374E3,1.3971264E5,1.3892725E5,7.853896E2,1.2749118E5,1.1436078E4,7.515407E2,3.384885E1,9.1818055E4,3.5673125E4,1.0659645E4,7.7643414E2,3.8061148E2,3.7092926E2,1.4573484E1,1.9275366E1,6.696231E4,2.485574E4,2.6044059E4,9.629064E3,3.7407397E3,6.9189043E3,4.7400928E2,3.0242487E2,3.5582425E2,2.4787235E1,1.2482157E1,6.793209E0],"tree_param":{"num_deleted":"0","num_feature":"59","num_nodes":"31","size_leaf_vector":"1"}},{"base_weights":[-1.0368738E-3,-3.6649827E-2,8.676624E-3,-3.689738E-2,1.5236104E-2,2.7858572E-2,-2.0859914E-1,4.335391E-2,-1.4218624E-1,-2.4377896E-1,1.6224872E-1,8.871484E-2,-2.7466904E-2,-2.9317445E-1,-4.2201396E-2,3.624019E-2,-2.9645154E-1,-5.001494E-1,2.0248272E-1,7.438189E-3,-4.414562E-3,-8.59978E-3,1.966817E-3,-6.5827123E-3,-2.028406E-2,-4.8724785E-3,1.042337E-2,-3.1492417E-3,1.3308744E-2,-2.2156294E-2,-1.04471715E-2,-3.8081594E-2,1.2773494E-2,2.251977E-2,3.6501207E-3],"categories":[],"categories_nodes":[],"categories_segments":[],"categories_sizes":[],"default_left":[0,0,0,0,0,0,0,0,0,0,0,0,0,0,0,0,0,0,0,0,0,0,0,0,0,0,0,0,0,0,0,0,0,0,0],"id":19,"left_children":[1,-1,3,-1,5,7,9,11,13,15,17,19,21,23,25,27,29,31,33,-1,-1,-1,-1,-1,-1,-1,-1,-1,-1,-1,-1,-1,-1,-1,-1],"loss_changes":[9.936723E2,0E0,6.7551355E2,0E0,3.8631256E2,3.4104358E2,9.526367E1,3.8107593E2,1.6317532E2,9.834302E1,1.6971462E1,7.685839E2,4.4717267E2,7.820041E1,9.009905E1,2.411906E1,7.1931854E1,7.413249E0,1.9145803E1,0E0,0E0,0E0,0E0,0E0,0E0,0E0,0E0,0E0,0E0,0E0,0E0,0E0,0E0,0E0,0E0],"parents":[2147483647,0,0,2,2,4,4,5,5,6,6,7,7,8,8,9,9,10,10,11,11,12,12,13,13,14,14,15,15,16,16,17,17,18,18],"right_children":[2,-1,4,-1,6,8,10,12,14,16,18,20,22,24,26,28,30,32,34,-1,-1,-1,-1,-1,-1,-1,-1,-1,-1,-1,-1,-1,-1,-1,-1],"split_conditions":[1E0,-3.6649827E-2,1E0,-3.689738E-2,1E0,1E0,2.1E1,4E0,7E0,9.9121326E-1,9.9111897E-1,1.1E1,5E0,2.2E1,2.1E1,5E0,3E0,5E0,9.9335694E-1,7.438189E-3,-4.414562E-3,-8.59978E-3,1.966817E-3,-6.5827123E-3,-2.028406E-2,-4.8724785E-3,1.042337E-2,-3.1492417E-3,1.3308744E-2,-2.2156294E-2,-1.04471715E-2,-3.8081594E-2,1.2773494E-2,2.251977E-2,3.6501207E-3],"split_indices":[4,0,3,0,44,38,4,3,4,5,5,4,4,2,4,3,3,8,5,0,0,0,0,0,0,0,0,0,0,0,0,0,0,0,0],"split_type":[0,0,0,0,0,0,0,0,0,0,0,0,0,0,0,0,0,0,0,0,0,0,0,0,0,0,0,0,0,0,0,0,0,0,0],"sum_hessian":[1.3975731E5,1.8293895E3,1.3792792E5,1.2002438E3,1.3672767E5,1.2942977E5,7.2979E3,1.18621164E5,1.0808613E4,6.665894E3,6.320057E2,7.230766E4,4.6313504E4,4.3052603E3,6.5033525E3,1.0554105E3,5.610484E3,3.553524E1,5.9647046E2,5.3991363E4,1.8316297E4,1.4639469E4,3.1674035E4,1.7684939E3,2.5367664E3,5.3293574E3,1.1739956E3,7.377648E2,3.1764575E2,2.094979E3,3.5155046E3,2.6393724E1,9.141518E0,2.0379358E2,3.9267688E2],"tree_param":{"num_deleted":"0","num_feature":"59","num_nodes":"35","size_leaf_vector":"1"}},{"base_weights":[-8.4802654E-4,-3.6213566E-2,8.768852E-3,-3.6439568E-2,1.5309156E-2,1.1323403E-2,6.980357E-1,8.250704E-3,7.1248436E-1,7.080792E-1,5.084855E-1,4.108722E-3,5.135825E-1,7.3829883E-1,-2.304988E-1,5.846139E-1,3.6239848E-2,3.968874E-1,3.5844237E-2,-2.5762807E-5,2.2473434E-2,3.1130975E-2,9.682979E-3,2.9997492E-2,3.889152E-2,-1.7805541E-2,-3.0922736E-3,3.5221275E-2,2.2352176E-2,3.0788728E-3,2.9227039E-2],"categories":[],"categories_nodes":[],"categories_segments":[],"categories_sizes":[],"default_left":[0,0,0,0,0,0,0,0,0,0,0,0,0,0,0,0,0,0,0,0,0,0,0,0,0,0,0,0,0,0,0],"id":20,"left_children":[1,-1,3,-1,5,7,9,11,13,15,17,19,21,23,25,27,-1,29,-1,-1,-1,-1,-1,-1,-1,-1,-1,-1,-1,-1,-1],"loss_changes":[9.520586E2,0E0,6.514858E2,0E0,3.6426627E2,2.8673138E2,1.1190796E0,2.7735257E2,1.43055725E1,1.0939941E0,7.072449E-1,2.706675E2,3.7459076E1,2.6258545E0,3.2191163E-1,1.215683E0,0E0,1.8524399E0,0E0,0E0,0E0,0E0,0E0,0E0,0E0,0E0,0E0,0E0,0E0,0E0,0E0],"parents":[2147483647,0,0,2,2,4,4,5,5,6,6,7,7,8,8,9,9,10,10,11,11,12,12,13,13,14,14,15,15,17,17],"right_children":[2,-1,4,-1,6,8,10,12,14,16,18,20,22,24,26,28,-1,30,-1,-1,-1,-1,-1,-1,-1,-1,-1,-1,-1,-1,-1],"split_conditions":[1E0,-3.6213566E-2,1E0,-3.6439568E-2,1E0,1E0,1.1E1,1E0,5E0,4E0,1E0,1E0,8E0,5E0,5E0,3E0,3.6239848E-2,8E0,3.5844237E-2,-2.5762807E-5,2.2473434E-2,3.1130975E-2,9.682979E-3,2.9997492E-2,3.889152E-2,-1.7805541E-2,-3.0922736E-3,3.5221275E-2,2.2352176E-2,3.0788728E-3,2.9227039E-2],"split_indices":[4,0,3,0,48,30,4,50,3,0,15,42,4,0,4,4,0,0,0,0,0,0,0,0,0,0,0,0,0,0,0],"split_type":[0,0,0,0,0,0,0,0,0,0,0,0,0,0,0,0,0,0,0,0,0,0,0,0,0,0,0,0,0,0,0],"sum_hessian":[1.3684566E5,1.7943263E3,1.3505133E5,1.1860691E3,1.3386525E5,1.330893E5,7.75958E2,1.3250961E5,5.7968536E2,7.34314E2,4.1643944E1,1.3143331E5,1.0762927E3,5.644504E2,1.523495E1,9.186147E1,6.424526E2,2.9012283E1,1.2631661E1,1.3008372E5,1.3496035E3,8.020051E2,2.7428763E2,1.2903638E2,4.35414E2,8.094625E0,7.1403246E0,4.6897484E1,4.496399E1,1.0886965E1,1.8125317E1],"tree_param":{"num_deleted":"0","num_feature":"59","num_nodes":"31","size_leaf_vector":"1"}},{"base_weights":[-1.5228105E-3,-3.5777707E-2,7.5676567E-3,-3.6004037E-2,1.3691663E-2,9.9213E-3,6.758754E-1,5.966057E-3,5.654109E-1,3.811824E-1,7.266988E-1,2.9159104E-3,7.209195E-1,-1.4448567E-2,7.3759764E-1,6.813777E-1,-1.876655E-1,5.493661E-1,3.7267234E-2,-1.1292552E-2,6.605766E-4,-1.0877689E-2,3.8781933E-2,2.5060996E-2,-2.5797298E-2,4.0360417E-2,2.5824344E-2,3.706437E-2,1.6500503E-2,-4.402734E-2,4.692977E-4,2.972492E-2,3.7450728E-3],"categories":[],"categories_nodes":[],"categories_segments":[],"categories_sizes":[],"default_left":[0,0,0,0,0,0,0,0,0,0,0,0,0,0,0,0,0,0,0,0,0,0,0,0,0,0,0,0,0,0,0,0,0],"id":21,"left_children":[1,-1,3,-1,5,7,9,11,13,15,17,19,21,23,25,27,29,31,-1,-1,-1,-1,-1,-1,-1,-1,-1,-1,-1,-1,-1,-1,-1],"loss_changes":[8.862576E2,0E0,6.007964E2,0E0,3.3379456E2,2.9208417E2,1.1059814E1,2.8785992E2,9.385272E1,1.9500063E1,1.7215271E0,3.095924E2,2.8965149E1,5.616277E1,1.0737549E1,1.32304E0,5.4656343E0,1.3499584E0,0E0,0E0,0E0,0E0,0E0,0E0,0E0,0E0,0E0,0E0,0E0,0E0,0E0,0E0,0E0],"parents":[2147483647,0,0,2,2,4,4,5,5,6,6,7,7,8,8,9,9,10,10,11,11,12,12,13,13,14,14,15,15,16,16,17,17],"right_children":[2,-1,4,-1,6,8,10,12,14,16,18,20,22,24,26,28,30,32,-1,-1,-1,-1,-1,-1,-1,-1,-1,-1,-1,-1,-1,-1,-1],"split_conditions":[1E0,-3.5777707E-2,1E0,-3.6004037E-2,1E0,1E0,2E0,1E0,3E0,3E0,4E0,4.4E0,1.1666666E0,4E0,7E0,2E0,1.1666666E0,3E0,3.7267234E-2,-1.1292552E-2,6.605766E-4,-1.0877689E-2,3.8781933E-2,2.5060996E-2,-2.5797298E-2,4.0360417E-2,2.5824344E-2,3.706437E-2,1.6500503E-2,-4.402734E-2,4.692977E-4,2.972492E-2,3.7450728E-3],"split_indices":[4,0,3,0,48,51,1,30,1,4,0,1,1,4,4,4,1,3,0,0,0,0,0,0,0,0,0,0,0,0,0,0,0],"split_type":[0,0,0,0,0,0,0,0,0,0,0,0,0,0,0,0,0,0,0,0,0,0,0,0,0,0,0,0,0,0,0,0,0],"sum_hessian":[1.3653712E5,1.7154509E3,1.3482167E5,1.1242382E3,1.3369744E5,1.3294152E5,7.559315E2,1.3200262E5,9.388853E2,1.1244328E2,6.434882E2,1.3144286E5,5.5975977E2,2.1517471E2,7.237106E2,7.34723E1,3.897099E1,6.41214E1,5.793668E2,5.6599014E3,1.2578296E5,3.067556E1,5.2908417E2,1.0608873E2,1.0908598E2,5.4840857E2,1.7530202E2,6.18217E1,1.1650593E1,7.861039E0,3.1109953E1,5.832079E1,5.8006077E0],"tree_param":{"num_deleted":"0","num_feature":"59","num_nodes":"33","size_leaf_vector":"1"}},{"base_weights":[1.8822692E-3,-3.537848E-2,1.06050065E-2,-3.5579693E-2,1.6409962E-2,1.273901E-2,6.7259204E-1,8.849794E-3,5.8231807E-1,3.5311833E-1,7.222892E-1,4.973038E-3,5.6587267E-1,6.533754E-2,7.0467603E-1,3.6441866E-2,-1.2994371E-1,1.3246882E-2,7.2618085E-1,-1.442491E-4,1.3488486E-2,2.109865E-3,3.5811093E-2,8.299795E-3,-2.612471E-2,3.8654827E-2,1.4296598E-2,-3.4620773E-2,1.0645509E-2,3.0893868E-2,3.68294E-2],"categories":[],"categories_nodes":[],"categories_segments":[],"categories_sizes":[],"default_left":[0,0,0,0,0,0,0,0,0,0,0,0,0,0,0,0,0,0,0,0,0,0,0,0,0,0,0,0,0,0,0],"id":22,"left_children":[1,-1,3,-1,5,7,9,11,13,15,17,19,21,23,25,-1,27,-1,29,-1,-1,-1,-1,-1,-1,-1,-1,-1,-1,-1,-1],"loss_changes":[8.450822E2,0E0,5.655617E2,0E0,3.2235406E2,2.9480225E2,1.1565216E1,2.854351E2,5.7045776E1,1.8639757E1,9.526367E-1,2.7314188E2,7.190018E1,1.0372442E1,2.0685608E1,0E0,8.931986E0,0E0,2.631836E-1,0E0,0E0,0E0,0E0,0E0,0E0,0E0,0E0,0E0,0E0,0E0,0E0],"parents":[2147483647,0,0,2,2,4,4,5,5,6,6,7,7,8,8,9,9,10,10,11,11,12,12,13,13,14,14,16,16,18,18],"right_children":[2,-1,4,-1,6,8,10,12,14,16,18,20,22,24,26,-1,28,-1,30,-1,-1,-1,-1,-1,-1,-1,-1,-1,-1,-1,-1],"split_conditions":[1E0,-3.537848E-2,1E0,-3.5579693E-2,1E0,1E0,2E0,1E0,4.8E0,2E0,9.9121326E-1,3.7E1,3E0,8E0,5E0,3.6441866E-2,1.1E1,1.3246882E-2,4E0,-1.442491E-4,1.3488486E-2,2.109865E-3,3.5811093E-2,8.299795E-3,-2.612471E-2,3.8654827E-2,1.4296598E-2,-3.4620773E-2,1.0645509E-2,3.0893868E-2,3.68294E-2],"split_indices":[4,0,3,0,48,35,1,51,1,4,5,4,1,0,3,0,2,0,0,0,0,0,0,0,0,0,0,0,0,0,0],"split_type":[0,0,0,0,0,0,0,0,0,0,0,0,0,0,0,0,0,0,0,0,0,0,0,0,0,0,0,0,0,0,0],"sum_hessian":[1.365577E5,1.6576166E3,1.3490008E5,1.0746963E3,1.3382539E5,1.3308189E5,7.43495E2,1.3218034E5,9.015422E2,1.01179085E2,6.423159E2,1.3126777E5,9.1258563E2,1.7283264E2,7.2870953E2,5.6626778E1,4.455231E1,6.0022955E0,6.3631366E2,1.2748553E5,3.78223E3,2.038487E2,7.0873694E2,1.4817694E2,2.4655714E1,6.256376E2,1.0307196E2,1.648619E1,2.8066118E1,6.1077003E1,5.7523663E2],"tree_param":{"num_deleted":"0","num_feature":"59","num_nodes":"31","size_leaf_vector":"1"}},{"base_weights":[1.0311157E-3,-3.499693E-2,9.3306545E-3,-3.5184253E-2,1.4857698E-2,1.1314802E-2,6.6301477E-1,3.954112E-3,3.0968416E-1,3.773139E-1,7.1346366E-1,2.793812E-4,5.9810114E-1,1.1213224E-1,6.1321306E-1,7.1491176E-1,-9.80905E-3,5.6978154E-1,3.6485918E-2,-1.7879001E-4,2.8348837E-2,2.193757E-2,3.55969E-2,1.4312192E-2,-8.134948E-3,3.4227524E-2,1.5122219E-2,3.698182E-2,2.2826543E-2,-4.3423742E-2,8.512595E-3,1.8965073E-2,3.5865895E-2],"categories":[],"categories_nodes":[],"categories_segments":[],"categories_sizes":[],"default_left":[0,0,0,0,0,0,0,0,0,0,0,0,0,0,0,0,0,0,0,0,0,0,0,0,0,0,0,0,0,0,0,0,0],"id":23,"left_children":[1,-1,3,-1,5,7,9,11,13,15,17,19,21,23,25,27,29,31,-1,-1,-1,-1,-1,-1,-1,-1,-1,-1,-1,-1,-1,-1,-1],"loss_changes":[7.914461E2,0E0,5.2985425E2,0E0,3.0636108E2,2.9141528E2,1.0184479E1,2.8273535E2,1.9148972E2,1.4510079E1,1.0212402E0,2.8118076E2,1.4127014E1,9.270406E1,2.7710114E1,4.1107178E-2,8.292901E0,1.6135426E0,0E0,0E0,0E0,0E0,0E0,0E0,0E0,0E0,0E0,0E0,0E0,0E0,0E0,0E0,0E0],"parents":[2147483647,0,0,2,2,4,4,5,5,6,6,7,7,8,8,9,9,10,10,11,11,12,12,13,13,14,14,15,15,16,16,17,17],"right_children":[2,-1,4,-1,6,8,10,12,14,16,18,20,22,24,26,28,30,32,-1,-1,-1,-1,-1,-1,-1,-1,-1,-1,-1,-1,-1,-1,-1],"split_conditions":[1E0,-3.499693E-2,1E0,-3.5184253E-2,1E0,1E0,2E0,1E0,8.666667E0,2E0,4E0,1E0,5.8333335E0,3E0,4E0,1E0,7E0,1.1E1,3.6485918E-2,-1.7879001E-4,2.8348837E-2,2.193757E-2,3.55969E-2,1.4312192E-2,-8.134948E-3,3.4227524E-2,1.5122219E-2,3.698182E-2,2.2826543E-2,-4.3423742E-2,8.512595E-3,1.8965073E-2,3.5865895E-2],"split_indices":[4,0,3,0,48,26,1,39,1,4,0,51,1,3,3,6,2,2,0,0,0,0,0,0,0,0,0,0,0,0,0,0,0],"split_type":[0,0,0,0,0,0,0,0,0,0,0,0,0,0,0,0,0,0,0,0,0,0,0,0,0,0,0,0,0,0,0,0,0],"sum_hessian":[1.3603834E5,1.5908822E3,1.3444747E5,1.0332006E3,1.3341427E5,1.3268998E5,7.2428015E2,1.2949635E5,3.1936262E3,1.0997145E2,6.143087E2,1.2870135E5,7.950025E2,1.9353633E3,1.2582628E3,5.829098E1,5.168047E1,6.60975E1,5.4821124E2,1.2783271E5,8.686386E2,3.3330017E2,4.6170233E2,1.184754E3,7.5060925E2,1.0223728E3,2.3589E2,5.1500286E1,6.790695E0,8.295945E0,4.3384525E1,3.0408644E1,3.568886E1],"tree_param":{"num_deleted":"0","num_feature":"59","num_nodes":"33","size_leaf_vector":"1"}},{"base_weights":[-3.3994738E-4,-3.4629785E-2,7.6237246E-3,-3.4799803E-2,1.2871406E-2,8.452731E-3,4.4396517E-1,5.6384765E-3,6.8031573E-1,-2.1656731E-1,5.3913945E-1,-6.9227302E-3,1.5512383E-1,-1.5862958E-1,7.490128E-1,3.6824602E-1,-4.1298828E-1,6.378239E-1,6.400443E-2,3.693865E-4,-1.1176524E-2,-8.040799E-3,9.768918E-3,3.3670872E-2,-3.1924166E-2,3.9731704E-2,-1.2633045E-2,3.6054324E-2,-1.8040808E-2,5.9442746E-4,-2.83222E-2,3.3389535E-2,-1.5913783E-2,-2.460224E-2,2.1125037E-2],"categories":[],"categories_nodes":[],"categories_segments":[],"categories_sizes":[],"default_left":[0,0,0,0,0,0,0,0,0,0,0,0,0,0,0,0,0,0,0,0,0,0,0,0,0,0,0,0,0,0,0,0,0,0,0],"id":24,"left_children":[1,-1,3,-1,5,7,9,11,13,15,17,19,21,23,25,27,29,31,33,-1,-1,-1,-1,-1,-1,-1,-1,-1,-1,-1,-1,-1,-1,-1,-1],"loss_changes":[7.481027E2,0E0,4.9536725E2,0E0,2.5365732E2,2.4923108E2,8.505228E1,2.4648161E2,3.1806976E1,1.977953E1,5.5343536E1,3.7535684E2,1.2944058E2,1.7374645E1,2.343274E1,1.1447337E1,8.376984E0,2.8231812E1,4.0923656E1,0E0,0E0,0E0,0E0,0E0,0E0,0E0,0E0,0E0,0E0,0E0,0E0,0E0,0E0,0E0,0E0],"parents":[2147483647,0,0,2,2,4,4,5,5,6,6,7,7,8,8,9,9,10,10,11,11,12,12,13,13,14,14,15,15,16,16,17,17,18,18],"right_children":[2,-1,4,-1,6,8,10,12,14,16,18,20,22,24,26,28,30,32,34,-1,-1,-1,-1,-1,-1,-1,-1,-1,-1,-1,-1,-1,-1,-1,-1],"split_conditions":[1E0,-3.4629785E-2,1E0,-3.4799803E-2,1E0,1E0,2.75E0,2.5E1,1.6E0,2E0,9E0,1E0,1.1E1,2E0,5E0,3E0,9.927999E-1,5E0,5.5E0,3.693865E-4,-1.1176524E-2,-8.040799E-3,9.768918E-3,3.3670872E-2,-3.1924166E-2,3.9731704E-2,-1.2633045E-2,3.6054324E-2,-1.8040808E-2,5.9442746E-4,-2.83222E-2,3.3389535E-2,-1.5913783E-2,-2.460224E-2,2.1125037E-2],"split_indices":[4,0,3,0,49,30,1,4,1,4,4,46,1,4,3,3,5,3,1,0,0,0,0,0,0,0,0,0,0,0,0,0,0,0,0],"split_type":[0,0,0,0,0,0,0,0,0,0,0,0,0,0,0,0,0,0,0,0,0,0,0,0,0,0,0,0,0,0,0,0,0,0,0],"sum_hessian":[1.356985E5,1.5423362E3,1.3415617E5,9.921716E2,1.33164E5,1.3181394E5,1.3500621E3,1.3126511E5,5.488261E2,1.6986722E2,1.1801948E3,1.21090836E5,1.01742705E4,4.144012E1,5.0738602E2,4.248874E1,1.2737849E2,9.769436E2,2.0325125E2,1.135875E5,7.503334E3,1.1494849E3,9.024786E3,1.5010001E1,2.6430117E1,4.8548148E2,2.1904552E1,2.8639275E1,1.38494625E1,3.40436E1,9.3334885E1,9.4754645E2,2.9397125E1,7.952723E1,1.23724014E2],"tree_param":{"num_deleted":"0","num_feature":"59","num_nodes":"35","size_leaf_vector":"1"}},{"base_weights":[1.3458756E-4,-3.4291156E-2,7.822743E-3,-3.4439024E-2,1.2875733E-2,2.4416862E-2,-1.9663519E-1,3.9917354E-2,-1.4441773E-1,-2.9859817E-1,-8.55996E-2,5.1696032E-2,-2.2031128E-1,-2.949946E-1,-6.88947E-2,-4.46378E-1,-2.0662881E-1,4.3344367E-2,-1.828725E-1,4.2660413E-3,-2.1687746E-3,-1.7574327E-2,3.8656231E-3,-1.7763902E-2,-3.6347196E-3,-1.4986056E-2,-7.198328E-4,-6.8279253E-3,-2.4966402E-2,-1.6876282E-4,-1.3883156E-2,-3.32288E-3,1.1026789E-2,4.9751843E-3,-1.0809591E-2],"categories":[],"categories_nodes":[],"categories_segments":[],"categories_sizes":[],"default_left":[0,0,0,0,0,0,0,0,0,0,0,0,0,0,0,0,0,0,0,0,0,0,0,0,0,0,0,0,0,0,0,0,0,0,0],"id":25,"left_children":[1,-1,3,-1,5,7,9,11,13,15,17,19,21,23,25,27,29,31,33,-1,-1,-1,-1,-1,-1,-1,-1,-1,-1,-1,-1,-1,-1,-1,-1],"loss_changes":[7.113964E2,0E0,4.695628E2,0E0,3.2024136E2,3.2850775E2,7.825992E1,3.5241412E2,1.2001669E2,4.88938E1,4.1543404E1,3.51625E2,1.9440181E2,4.721927E1,8.844255E1,2.2599335E1,3.210177E1,2.7734613E1,1.778265E1,0E0,0E0,0E0,0E0,0E0,0E0,0E0,0E0,0E0,0E0,0E0,0E0,0E0,0E0,0E0,0E0],"parents":[2147483647,0,0,2,2,4,4,5,5,6,6,7,7,8,8,9,9,10,10,11,11,12,12,13,13,14,14,15,15,16,16,17,17,18,18],"right_children":[2,-1,4,-1,6,8,10,12,14,16,18,20,22,24,26,28,30,32,34,-1,-1,-1,-1,-1,-1,-1,-1,-1,-1,-1,-1,-1,-1,-1,-1],"split_conditions":[1E0,-3.4291156E-2,1E0,-3.4439024E-2,1E0,1E0,9E0,1E0,3E0,3E0,9.9335694E-1,5E0,1E0,1E0,4E0,9.90419E-1,9.9207336E-1,5.3E1,2.9E1,4.2660413E-3,-2.1687746E-3,-1.7574327E-2,3.8656231E-3,-1.7763902E-2,-3.6347196E-3,-1.4986056E-2,-7.198328E-4,-6.8279253E-3,-2.4966402E-2,-1.6876282E-4,-1.3883156E-2,-3.32288E-3,1.1026789E-2,4.9751843E-3,-1.0809591E-2],"split_indices":[4,0,3,0,44,38,4,54,3,3,5,3,14,7,4,5,5,2,2,0,0,0,0,0,0,0,0,0,0,0,0,0,0,0,0],"split_type":[0,0,0,0,0,0,0,0,0,0,0,0,0,0,0,0,0,0,0,0,0,0,0,0,0,0,0,0,0,0,0,0,0,0,0],"sum_hessian":[1.3489184E5,1.4941217E3,1.3339772E5,9.596916E2,1.3243803E5,1.2552427E5,6.9137524E3,1.14969805E5,1.055447E4,3.6032402E3,3.3105125E3,1.09992055E5,4.977748E3,3.5244866E3,7.0299834E3,1.3807484E3,2.2224917E3,1.4237535E3,1.8867589E3,8.125425E4,2.8737807E4,3.454864E3,1.522884E3,2.7721392E3,7.523475E2,1.3418938E3,5.6880894E3,2.0205716E2,1.1786913E3,5.7584595E2,1.6466459E3,8.794197E2,5.443338E2,1.9892377E2,1.6878351E3],"tree_param":{"num_deleted":"0","num_feature":"59","num_nodes":"35","size_leaf_vector":"1"}},{"base_weights":[2.0636916E-4,-3.39699E-2,7.703791E-3,-3.41056E-2,1.2632135E-2,9.17266E-3,6.573732E-1,5.1701157E-3,5.1110446E-1,6.7055E-1,4.239185E-1,6.788032E-4,4.5353514E-1,6.309007E-1,1.2101855E-1,5.4406166E-1,6.891901E-1,2.7305424E-1,3.378723E-2,-2.9646998E-4,1.349091E-2,2.6686853E-2,9.549781E-4,3.2914747E-2,1.7936219E-2,-1.5540339E-2,8.937462E-3,3.3020567E-2,2.1436788E-2,3.4696527E-2,2.2708459E-2,2.046446E-2,-1.2710457E-2],"categories":[],"categories_nodes":[],"categories_segments":[],"categories_sizes":[],"default_left":[0,0,0,0,0,0,0,0,0,0,0,0,0,0,0,0,0,0,0,0,0,0,0,0,0,0,0,0,0,0,0,0,0],"id":26,"left_children":[1,-1,3,-1,5,7,9,11,13,15,17,19,21,23,25,27,29,31,-1,-1,-1,-1,-1,-1,-1,-1,-1,-1,-1,-1,-1,-1,-1],"loss_changes":[6.80168E2,0E0,4.4887524E2,0E0,2.9240256E2,2.6196942E2,1.868042E0,2.6051477E2,4.8131195E1,1.1824646E0,1.3389287E0,2.2780656E2,4.4694214E1,5.646576E0,6.128667E0,9.189911E-1,3.2211304E-1,2.0258799E0,0E0,0E0,0E0,0E0,0E0,0E0,0E0,0E0,0E0,0E0,0E0,0E0,0E0,0E0,0E0],"parents":[2147483647,0,0,2,2,4,4,5,5,6,6,7,7,8,8,9,9,10,10,11,11,12,12,13,13,14,14,15,15,16,16,17,17],"right_children":[2,-1,4,-1,6,8,10,12,14,16,18,20,22,24,26,28,30,32,-1,-1,-1,-1,-1,-1,-1,-1,-1,-1,-1,-1,-1,-1,-1],"split_conditions":[1E0,-3.39699E-2,1E0,-3.41056E-2,1E0,1E0,1.1E1,1E0,8E0,4E0,1E0,1E0,9E0,1E0,9.9734086E-1,3E0,9.980359E-1,9.9640596E-1,3.378723E-2,-2.9646998E-4,1.349091E-2,2.6686853E-2,9.549781E-4,3.2914747E-2,1.7936219E-2,-1.5540339E-2,8.937462E-3,3.3020567E-2,2.1436788E-2,3.4696527E-2,2.2708459E-2,2.046446E-2,-1.2710457E-2],"split_indices":[4,0,3,0,48,50,4,49,4,0,15,26,4,7,5,4,5,5,0,0,0,0,0,0,0,0,0,0,0,0,0,0,0],"split_type":[0,0,0,0,0,0,0,0,0,0,0,0,0,0,0,0,0,0,0,0,0,0,0,0,0,0,0,0,0,0,0,0,0],"sum_hessian":[1.334878E5,1.4555957E3,1.320322E5,9.3562933E2,1.3109656E5,1.3039791E5,6.986593E2,1.29367305E5,1.0306008E3,6.5955975E2,3.9099545E1,1.28085266E5,1.28204E3,7.879901E2,2.4261072E2,8.859022E1,5.7096954E2,2.575469E1,1.3344854E1,1.250167E5,3.0685679E3,1.082052E3,1.9998804E2,7.146435E2,7.334666E1,2.8092815E1,2.145179E2,4.174657E1,4.6843647E1,5.5776666E2,1.3202865E1,2.0644331E1,5.110359E0],"tree_param":{"num_deleted":"0","num_feature":"59","num_nodes":"33","size_leaf_vector":"1"}},{"base_weights":[-2.903886E-3,-3.365537E-2,4.295337E-3,-3.3780303E-2,8.992247E-3,4.861231E-3,5.1909673E-1,1.518229E-3,6.4538467E-1,6.3566494E-1,1.6493882E-1,-8.661641E-3,2.1296772E-1,6.600612E-1,3.536658E-1,5.075512E-1,7.7697325E-1,8.795024E-2,5.946E-1,-5.856515E-4,3.4374055E-2,1.6799469E-2,2.6930642E-4,2.3797037E-2,3.4269784E-2,3.4160372E-2,8.758893E-3,3.1463925E-2,8.507889E-3,3.9152347E-2,1.6106805E-2,9.270632E-3,-3.6575936E-2,9.242638E-3,4.2084865E-2],"categories":[],"categories_nodes":[],"categories_segments":[],"categories_sizes":[],"default_left":[0,0,0,0,0,0,0,0,0,0,0,0,0,0,0,0,0,0,0,0,0,0,0,0,0,0,0,0,0,0,0,0,0,0,0],"id":27,"left_children":[1,-1,3,-1,5,7,9,11,13,15,17,19,21,23,25,27,29,31,33,-1,-1,-1,-1,-1,-1,-1,-1,-1,-1,-1,-1,-1,-1,-1,-1],"loss_changes":[6.399096E2,0E0,4.1903653E2,0E0,2.746078E2,2.768033E2,4.3113525E1,2.7681888E2,2.6401978E0,1.3858154E1,8.567807E0,2.606368E2,1.5084357E2,2.6492004E0,1.8980675E0,1.6969826E1,7.767029E-1,1.7879488E1,3.8360777E0,0E0,0E0,0E0,0E0,0E0,0E0,0E0,0E0,0E0,0E0,0E0,0E0,0E0,0E0,0E0,0E0],"parents":[2147483647,0,0,2,2,4,4,5,5,6,6,7,7,8,8,9,9,10,10,11,11,12,12,13,13,14,14,15,15,16,16,17,17,18,18],"right_children":[2,-1,4,-1,6,8,10,12,14,16,18,20,22,24,26,28,30,32,34,-1,-1,-1,-1,-1,-1,-1,-1,-1,-1,-1,-1,-1,-1,-1,-1],"split_conditions":[1E0,-3.365537E-2,1E0,-3.3780303E-2,1E0,1E0,8E0,1E0,1.1E1,1.1E1,9E0,1E0,1.2E1,4E0,2.6E1,4E0,2.6E1,1.1E1,2E0,-5.856515E-4,3.4374055E-2,1.6799469E-2,2.6930642E-4,2.3797037E-2,3.4269784E-2,3.4160372E-2,8.758893E-3,3.1463925E-2,8.507889E-3,3.9152347E-2,1.6106805E-2,9.270632E-3,-3.6575936E-2,9.242638E-3,4.2084865E-2],"split_indices":[4,0,3,0,50,48,4,58,4,2,0,30,4,0,2,4,2,4,3,0,0,0,0,0,0,0,0,0,0,0,0,0,0,0,0],"split_type":[0,0,0,0,0,0,0,0,0,0,0,0,0,0,0,0,0,0,0,0,0,0,0,0,0,0,0,0,0,0,0,0,0,0,0],"sum_hessian":[1.3262367E5,1.4084994E3,1.3121517E5,8.992645E2,1.3031591E5,1.2927004E5,1.0458674E3,1.2859985E5,6.701824E2,7.862762E2,2.595913E2,1.2269393E5,5.9059277E3,6.3687805E2,3.3304276E1,4.1479977E2,3.7147638E2,2.2116643E2,3.8424877E1,1.2215945E5,5.344759E2,3.7078691E3,2.1980586E3,7.942653E1,5.5745154E2,1.0707431E1,2.2596846E1,3.0418762E2,1.10612144E2,3.6586917E2,5.6072226E0,1.9834972E2,2.2816706E1,1.5112604E1,2.3312273E1],"tree_param":{"num_deleted":"0","num_feature":"59","num_nodes":"35","size_leaf_vector":"1"}},{"base_weights":[7.412468E-5,-3.335999E-2,7.01856E-3,-3.347002E-2,1.1509315E-2,6.8023033E-3,4.0224585E-1,2.5643115E-3,4.3367466E-1,-5.1132936E-2,5.7968825E-1,-1.2863136E-3,4.7764108E-1,-1.5068214E-1,5.266599E-1,1.2494523E-1,-7.847554E-1,7.4127173E-1,1.822658E-1,-5.41273E-4,9.762152E-3,-1.2564081E-2,3.1280566E-2,1.875671E-2,-1.5281007E-2,3.1265877E-2,-1.8749756E-4,-3.2116815E-2,1.7894054E-2,-4.840092E-2,-2.9636715E-2,4.065123E-2,2.630668E-2,-8.557194E-3,2.074481E-2],"categories":[],"categories_nodes":[],"categories_segments":[],"categories_sizes":[],"default_left":[0,0,0,0,0,0,0,0,0,0,0,0,0,0,0,0,0,0,0,0,0,0,0,0,0,0,0,0,0,0,0,0,0,0,0],"id":28,"left_children":[1,-1,3,-1,5,7,9,11,13,15,17,19,21,23,25,27,29,31,33,-1,-1,-1,-1,-1,-1,-1,-1,-1,-1,-1,-1,-1,-1,-1,-1],"loss_changes":[6.135654E2,0E0,3.9807678E2,0E0,2.3942924E2,2.3270831E2,1.2468974E2,2.330049E2,6.878902E1,5.6520615E1,7.1387726E1,2.3686844E2,1.1061273E2,1.4320403E1,5.7101044E1,6.3340458E1,2.4061813E0,1.1790466E1,2.6648006E1,0E0,0E0,0E0,0E0,0E0,0E0,0E0,0E0,0E0,0E0,0E0,0E0,0E0,0E0,0E0,0E0],"parents":[2147483647,0,0,2,2,4,4,5,5,6,6,7,7,8,8,9,9,10,10,11,11,12,12,13,13,14,14,15,15,16,16,17,17,18,18],"right_children":[2,-1,4,-1,6,8,10,12,14,16,18,20,22,24,26,28,30,32,34,-1,-1,-1,-1,-1,-1,-1,-1,-1,-1,-1,-1,-1,-1,-1,-1],"split_conditions":[1E0,-3.335999E-2,1E0,-3.347002E-2,1E0,1E0,4.2727275E0,1E0,2.75E0,1E1,1E1,1E0,3E0,2E0,9E0,2.4E0,1.2E1,4E0,6.25E0,-5.41273E-4,9.762152E-3,-1.2564081E-2,3.1280566E-2,1.875671E-2,-1.5281007E-2,3.1265877E-2,-1.8749756E-4,-3.2116815E-2,1.7894054E-2,-4.840092E-2,-2.9636715E-2,4.065123E-2,2.630668E-2,-8.557194E-3,2.074481E-2],"split_indices":[4,0,3,0,37,49,1,50,1,4,4,58,1,4,4,1,4,3,1,0,0,0,0,0,0,0,0,0,0,0,0,0,0,0,0],"split_type":[0,0,0,0,0,0,0,0,0,0,0,0,0,0,0,0,0,0,0,0,0,0,0,0,0,0,0,0,0,0,0,0,0,0,0],"sum_hessian":[1.324077E5,1.3628174E3,1.3104488E5,8.632944E2,1.30181586E5,1.2863302E5,1.5485616E3,1.2736951E5,1.2635194E3,4.35792E2,1.1127697E3,1.2634643E5,1.0230745E3,1.7337022E2,1.0901492E3,3.5211087E2,8.368113E1,7.9050287E2,3.2226678E2,1.2049861E5,5.847819E3,1.7251964E2,8.505549E2,3.913517E1,1.3423505E2,9.1902844E2,1.7112071E2,8.159211E1,2.7051877E2,4.0749256E1,4.2931877E1,5.907103E2,1.9979253E2,1.280297E2,1.9423709E2],"tree_param":{"num_deleted":"0","num_feature":"59","num_nodes":"35","size_leaf_vector":"1"}},{"base_weights":[4.792431E-4,-3.305356E-2,7.208108E-3,-3.3161562E-2,1.1525294E-2,8.163485E-3,6.487272E-1,4.451214E-3,5.5260956E-1,6.661099E-1,3.4236643E-1,1.3079311E-4,4.4773945E-1,6.3004655E-1,1.6716239E-1,5.621734E-1,6.950043E-1,3.402109E-2,1.623061E-1,-2.2428707E-4,2.050175E-2,2.6397113E-2,1.6448984E-3,2.7223572E-2,4.3087363E-2,-3.017327E-3,2.0198537E-2,3.122743E-2,8.365568E-3,3.255522E-2,3.5884116E-2,-2.3545403E-2,1.9903397E-2],"categories":[],"categories_nodes":[],"categories_segments":[],"categories_sizes":[],"default_left":[0,0,0,0,0,0,0,0,0,0,0,0,0,0,0,0,0,0,0,0,0,0,0,0,0,0,0,0,0,0,0,0,0],"id":29,"left_children":[1,-1,3,-1,5,7,9,11,13,15,17,19,21,23,25,27,29,-1,31,-1,-1,-1,-1,-1,-1,-1,-1,-1,-1,-1,-1,-1,-1],"loss_changes":[5.8686444E2,0E0,3.7775204E2,0E0,2.7777634E2,2.6071265E2,3.3960876E0,2.4537822E2,2.5969086E1,1.5401917E0,2.239029E0,2.401136E2,4.1128174E1,1.39470825E1,7.971302E0,3.4690285E0,2.9342651E-2,0E0,4.1431675E0,0E0,0E0,0E0,0E0,0E0,0E0,0E0,0E0,0E0,0E0,0E0,0E0,0E0,0E0],"parents":[2147483647,0,0,2,2,4,4,5,5,6,6,7,7,8,8,9,9,10,10,11,11,12,12,13,13,14,14,15,15,16,16,18,18],"right_children":[2,-1,4,-1,6,8,10,12,14,16,18,20,22,24,26,28,30,-1,32,-1,-1,-1,-1,-1,-1,-1,-1,-1,-1,-1,-1,-1,-1],"split_conditions":[1E0,-3.305356E-2,1E0,-3.3161562E-2,1E0,1E0,1.1E1,1E0,5E0,7E0,2.6E1,1E0,9E0,1.2E1,9.9821246E-1,6E0,1.6E1,3.402109E-2,9.9586713E-1,-2.2428707E-4,2.050175E-2,2.6397113E-2,1.6448984E-3,2.7223572E-2,4.3087363E-2,-3.017327E-3,2.0198537E-2,3.122743E-2,8.365568E-3,3.255522E-2,3.5884116E-2,-2.3545403E-2,1.9903397E-2],"split_indices":[4,0,3,0,48,35,4,49,3,2,2,37,4,2,5,2,2,0,5,0,0,0,0,0,0,0,0,0,0,0,0,0,0],"split_type":[0,0,0,0,0,0,0,0,0,0,0,0,0,0,0,0,0,0,0,0,0,0,0,0,0,0,0,0,0,0,0,0,0],"sum_hessian":[1.3183364E5,1.326446E3,1.30507195E5,8.340267E2,1.2967317E5,1.28993625E5,6.795437E2,1.2812105E5,8.7257715E2,6.4194586E2,3.7597866E1,1.2688538E5,1.2356628E3,7.260732E2,1.4650397E2,1.4409068E2,4.9785516E2,1.2100624E1,2.5497242E1,1.25473234E5,1.4121497E3,1.035243E3,2.0041985E2,5.3268427E2,1.9338895E2,7.509913E1,7.140485E1,1.2393185E2,2.0158829E1,1.7970168E2,3.181535E2,6.6470547E0,1.8850187E1],"tree_param":{"num_deleted":"0","num_feature":"59","num_nodes":"33","size_leaf_vector":"1"}},{"base_weights":[2.2691395E-3,8.9537185E-3,-2.7501038E-1,2.2110434E-2,-1.4012903E-1,-3.1554945E-2,-3.6422318E-1,3.395135E-2,-1.7534728E-1,-3.0565014E-1,1.3632086E-1,-9.734988E-2,4.0183708E-1,-4.6364775E-1,-1.3740766E-1,4.788017E-2,-1.4097676E-1,-3.9204618E-1,-8.8379286E-2,-4.901428E-1,-1.9965588E-1,1.7154258E-1,-1.7508405E-1,-1.3632958E-1,4.4260105E-1,-1.9527256E-2,5.6665057E-1,-4.731114E-1,4.5285154E-2,-3.53392E-2,-5.317626E-1,6.1179157E-2,-1.5918925E-1,-3.428895E-1,1.4974752E-2,-6.21761E-1,-3.3336473E-1,-1.2099437E-1,1.4768352E-1,-7.132857E-1,-4.5353484E-1,7.969633E-2,-2.4153452E-1,1.074829E-1,3.2990035E-1,-5.9942824E-1,-8.520207E-2,9.601968E-2,-2.2166137E-1,7.215647E-1,-2.2827215E-1,4.02688E-1,-4.4461463E-2,7.3408735E-1,1.6885127E-1,-5.303207E-1,-3.2692307E-1,-4.415399E-2,-3.6291876E-3,-7.649322E-1,6.5740995E-2,3.6743362E-3,-9.631243E-3,-9.666349E-3,5.7543903E-3,-2.7421985E-2,-1.1708367E-2,1.1286653E-2,-2.217618E-3,-3.5095047E-2,-2.4110502E-2,-1.4659959E-2,-2.5418345E-2,-2.1443285E-2,-5.148086E-3,5.417658E-3,4.79843E-2,-2.9937157E-2,-4.186676E-2,-1.5740352E-2,-2.720935E-2,-1.932494E-2,6.6284947E-3,-1.3252558E-2,-6.426092E-4,2.4974283E-3,1.647033E-2,1.9544838E-2,-2.3010233E-3,-1.2004307E-2,-4.185347E-2,1.0478737E-2,-1.0250356E-2,-1.765219E-2,1.6618116E-2,-6.882424E-3,-2.3367641E-2,1.8143242E-2,4.210529E-2,1.68015E-2,-4.203817E-2,6.399551E-3,2.8928071E-2,4.3904748E-2,2.1666493E-2,-4.0942542E-2,2.439073E-2,-2.7560059E-2,-6.1458554E-3,-2.8473947E-2,2.563882E-3,3.71579E-3,-1.2463517E-2,-4.4133723E-2,-2.6525674E-2,-2.3418276E-2,2.706009E-2],"categories":[],"categories_nodes":[],"categories_segments":[],"categories_sizes":[],"default_left":[0,0,0,0,0,0,0,0,0,0,0,0,0,0,0,0,0,0,0,0,0,0,0,0,0,0,0,0,0,0,0,0,0,0,0,0,0,0,0,0,0,0,0,0,0,0,0,0,0,0,0,0,0,0,0,0,0,0,0,0,0,0,0,0,0,0,0,0,0,0,0,0,0,0,0,0,0,0,0,0,0,0,0,0,0,0,0,0,0,0,0,0,0,0,0,0,0,0,0,0,0,0,0,0,0,0,0,0,0,0,0,0,0,0,0,0,0],"id":30,"left_children":[1,3,5,7,9,11,13,15,17,19,21,23,25,27,29,31,33,35,37,39,41,43,45,47,49,51,53,55,-1,57,59,61,63,65,67,69,71,73,75,77,79,81,83,85,87,89,91,93,95,97,99,101,-1,103,105,107,109,-1,111,113,115,-1,-1,-1,-1,-1,-1,-1,-1,-1,-1,-1,-1,-1,-1,-1,-1,-1,-1,-1,-1,-1,-1,-1,-1,-1,-1,-1,-1,-1,-1,-1,-1,-1,-1,-1,-1,-1,-1,-1,-1,-1,-1,-1,-1,-1,-1,-1,-1,-1,-1,-1,-1,-1,-1,-1,-1],"loss_changes":[2.439649E2,2.5209776E2,6.7285065E1,2.7614142E2,4.7697238E2,2.376417E1,5.1069427E1,2.7149292E2,1.2588933E2,1.273963E2,4.2851166E1,1.5280806E1,7.640373E0,2.0851929E1,2.785293E1,2.8421893E2,2.587799E2,2.558432E1,3.6738914E1,1.9104004E1,4.84814E1,3.5549965E1,1.50985985E1,1.3409018E1,9.321234E0,1.2055383E1,5.138172E0,1.2922211E1,0E0,1.4812565E1,1.9875576E1,3.029454E2,5.834207E1,7.990674E1,5.7998486E1,4.0025177E0,1.057843E1,2.322337E1,1.8400562E1,4.236389E0,2.5556946E1,1.3381661E1,1.9371109E1,3.1892103E1,2.3173615E1,5.7135925E0,1.1659764E1,1.9441103E1,1.01358185E1,1.1989937E0,5.5116124E0,9.952297E-1,0E0,2.0147018E0,8.181425E0,9.492218E0,4.067027E1,0E0,1.0209735E1,2.359066E0,1.0630912E1,0E0,0E0,0E0,0E0,0E0,0E0,0E0,0E0,0E0,0E0,0E0,0E0,0E0,0E0,0E0,0E0,0E0,0E0,0E0,0E0,0E0,0E0,0E0,0E0,0E0,0E0,0E0,0E0,0E0,0E0,0E0,0E0,0E0,0E0,0E0,0E0,0E0,0E0,0E0,0E0,0E0,0E0,0E0,0E0,0E0,0E0,0E0,0E0,0E0,0E0,0E0,0E0,0E0,0E0,0E0,0E0],"parents":[2147483647,0,0,1,1,2,2,3,3,4,4,5,5,6,6,7,7,8,8,9,9,10,10,11,11,12,12,13,13,14,14,15,15,16,16,17,17,18,18,19,19,20,20,21,21,22,22,23,23,24,24,25,25,26,26,27,27,29,29,30,30,31,31,32,32,33,33,34,34,35,35,36,36,37,37,38,38,39,39,40,40,41,41,42,42,43,43,44,44,45,45,46,46,47,47,48,48,49,49,50,50,51,51,53,53,54,54,55,55,56,56,58,58,59,59,60,60],"right_children":[2,4,6,8,10,12,14,16,18,20,22,24,26,28,30,32,34,36,38,40,42,44,46,48,50,52,54,56,-1,58,60,62,64,66,68,70,72,74,76,78,80,82,84,86,88,90,92,94,96,98,100,102,-1,104,106,108,110,-1,112,114,116,-1,-1,-1,-1,-1,-1,-1,-1,-1,-1,-1,-1,-1,-1,-1,-1,-1,-1,-1,-1,-1,-1,-1,-1,-1,-1,-1,-1,-1,-1,-1,-1,-1,-1,-1,-1,-1,-1,-1,-1,-1,-1,-1,-1,-1,-1,-1,-1,-1,-1,-1,-1,-1,-1,-1,-1],"split_conditions":[1E0,1E0,9.9078274E-1,1E0,3.557143E1,2.9E1,1E0,1E0,1.8125E1,1.75E1,9.8686695E-1,5.36E1,1E0,9.9799246E-1,9E0,1E0,1.725E1,1E1,4.722222E1,7.571429E0,9.793368E-1,5.1714287E1,5E0,1.5833333E1,5.85E1,7E0,1E0,2E1,4.5285154E-2,7E0,3.3666668E1,1E0,2.6857143E1,9.428572E0,9.8408276E-1,1E0,1.6333334E1,7E0,9.9611485E-1,9.833405E-1,6E0,1.2E1,1.35E2,1.09E2,1E0,2.2E1,2.5E1,5E0,1E0,1E0,1E0,6E0,-4.4461463E-2,9.8973763E-1,2.3666666E1,1.1E1,1E0,-4.415399E-2,1E0,1.1E1,1.6E1,3.6743362E-3,-9.631243E-3,-9.666349E-3,5.7543903E-3,-2.7421985E-2,-1.1708367E-2,1.1286653E-2,-2.217618E-3,-3.5095047E-2,-2.4110502E-2,-1.4659959E-2,-2.5418345E-2,-2.1443285E-2,-5.148086E-3,5.417658E-3,4.79843E-2,-2.9937157E-2,-4.186676E-2,-1.5740352E-2,-2.720935E-2,-1.932494E-2,6.6284947E-3,-1.3252558E-2,-6.426092E-4,2.4974283E-3,1.647033E-2,1.9544838E-2,-2.3010233E-3,-1.2004307E-2,-4.185347E-2,1.0478737E-2,-1.0250356E-2,-1.765219E-2,1.6618116E-2,-6.882424E-3,-2.3367641E-2,1.8143242E-2,4.210529E-2,1.68015E-2,-4.203817E-2,6.399551E-3,2.8928071E-2,4.3904748E-2,2.1666493E-2,-4.0942542E-2,2.439073E-2,-2.7560059E-2,-6.1458554E-3,-2.8473947E-2,2.563882E-3,3.71579E-3,-1.2463517E-2,-4.4133723E-2,-2.6525674E-2,-2.3418276E-2,2.706009E-2],"split_indices":[41,38,5,44,1,2,15,29,1,1,5,1,10,5,0,19,1,1,1,1,5,1,0,1,1,0,6,2,0,1,1,54,1,1,5,13,1,2,5,5,0,2,2,2,9,2,2,0,12,10,6,0,0,5,1,0,10,0,6,0,2,0,0,0,0,0,0,0,0,0,0,0,0,0,0,0,0,0,0,0,0,0,0,0,0,0,0,0,0,0,0,0,0,0,0,0,0,0,0,0,0,0,0,0,0,0,0,0,0,0,0,0,0,0,0,0,0],"split_type":[0,0,0,0,0,0,0,0,0,0,0,0,0,0,0,0,0,0,0,0,0,0,0,0,0,0,0,0,0,0,0,0,0,0,0,0,0,0,0,0,0,0,0,0,0,0,0,0,0,0,0,0,0,0,0,0,0,0,0,0,0,0,0,0,0,0,0,0,0,0,0,0,0,0,0,0,0,0,0,0,0,0,0,0,0,0,0,0,0,0,0,0,0,0,0,0,0,0,0,0,0,0,0,0,0,0,0,0,0,0,0,0,0,0,0,0,0],"sum_hessian":[1.316218E5,1.28524336E5,3.097462E3,1.18102516E5,1.0421825E4,8.3101996E2,2.266442E3,1.11421734E5,6.680781E3,6.5187153E3,3.9031096E3,7.2216125E2,1.0885874E2,1.5749974E3,6.9144446E2,1.0320469E5,8.217047E3,1.9123226E3,4.7684585E3,2.377258E3,4.141457E3,3.506907E3,3.962027E2,6.742349E2,4.7926308E1,3.085527E1,7.800347E1,1.5648373E3,1.0160148E1,5.5014374E2,1.4130072E2,9.697706E4,6.227625E3,3.5803352E3,4.636712E3,3.871574E2,1.5251652E3,4.1900386E3,5.784197E2,3.3243335E2,2.0448246E3,5.3980115E2,3.601656E3,2.4980586E3,1.0088485E3,6.826168E1,3.27941E2,1.810715E2,4.9316342E2,3.3797157E1,1.4129151E1,2.1132858E1,9.722412E0,5.430198E1,2.3701496E1,1.1228094E3,4.420278E2,1.886825E1,5.3127545E2,1.0143611E2,3.986461E1,9.2492586E4,4.4844766E3,5.538566E3,6.8905914E2,1.2372135E3,2.3431216E3,1.01788666E3,3.6188254E3,2.4336858E2,1.4378885E2,1.2426373E3,2.8252792E2,2.3057906E2,3.9594595E3,5.5277856E2,2.5641083E1,1.7586914E2,1.5656421E2,8.0989294E2,1.2349316E3,5.434269E1,4.854585E2,3.2656707E3,3.3598538E2,1.9847354E3,5.133232E2,8.6797266E2,1.4087584E2,2.7973164E1,4.028852E1,9.455123E1,2.3338979E2,6.2267048E1,1.1880446E2,3.6866174E2,1.24501686E2,9.509521E0,2.4287636E1,7.588794E0,6.540357E0,8.923295E0,1.2209564E1,3.5421818E1,1.888016E1,5.4030814E0,1.8298414E1,1.0677327E3,5.5076847E1,2.690007E2,1.730271E2,4.03832E2,1.2744347E2,6.5680954E1,3.5755157E1,1.8781467E1,2.1083143E1],"tree_param":{"num_deleted":"0","num_feature":"59","num_nodes":"117","size_leaf_vector":"1"}},{"base_weights":[-5.846261E-4,-3.2777265E-2,4.0485593E-3,1.020451E-3,6.1231995E-1,-2.3642038E-3,5.1466936E-1,2.6856804E-1,6.765744E-1,-2.7915215E-1,4.1343216E-3,-6.950362E-2,7.250078E-1,3.358698E-1,-2.057012E-1,5.347006E-1,3.4717806E-2,-3.5558847E-1,5.3112805E-1,5.0554384E-4,6.487949E-1,2.582872E-1,-6.498585E-1,5.2356935E-1,7.692395E-1,2.4042064E-1,3.325441E-2,1.2734217E-3,-2.0990042E-2,3.314607E-1,3.3734877E-2,-2.8743906E-2,-1.29864765E-2,-1.0175915E-2,3.3180516E-2,-2.05142E-4,2.3678817E-2,1.4512797E-2,3.4840908E-2,4.8614927E-3,3.1583756E-2,-2.0444375E-2,-4.811902E-2,2.9006338E-2,8.859558E-3,3.8646046E-2,1.9121777E-2,1.5893118E-2,-2.7156666E-2,5.6250516E-4,2.343165E-2],"categories":[],"categories_nodes":[],"categories_segments":[],"categories_sizes":[],"default_left":[0,0,0,0,0,0,0,0,0,0,0,0,0,0,0,0,0,0,0,0,0,0,0,0,0,0,0,0,0,0,0,0,0,0,0,0,0,0,0,0,0,0,0,0,0,0,0,0,0,0,0],"id":31,"left_children":[1,-1,3,5,7,9,11,13,15,17,19,21,23,25,27,29,-1,31,33,35,37,39,41,43,45,47,-1,-1,-1,49,-1,-1,-1,-1,-1,-1,-1,-1,-1,-1,-1,-1,-1,-1,-1,-1,-1,-1,-1,-1,-1],"loss_changes":[3.9503687E2,0E0,2.3809451E2,2.2362048E2,1.3961456E1,2.2984955E2,1.0351372E2,3.340755E0,9.880371E-1,1.8174278E2,2.9207556E2,4.2748226E1,5.1142883E0,2.6726475E0,6.7181396E-1,1.6076183E0,0E0,5.617151E1,2.476764E1,2.7067484E2,1.1831024E1,8.583587E0,5.712143E0,2.1425362E0,4.2434692E-1,4.5080075E0,0E0,0E0,0E0,1.234118E0,0E0,0E0,0E0,0E0,0E0,0E0,0E0,0E0,0E0,0E0,0E0,0E0,0E0,0E0,0E0,0E0,0E0,0E0,0E0,0E0,0E0],"parents":[2147483647,0,0,2,2,3,3,4,4,5,5,6,6,7,7,8,8,9,9,10,10,11,11,12,12,13,13,14,14,15,15,17,17,18,18,19,19,20,20,21,21,22,22,23,23,24,24,25,25,29,29],"right_children":[2,-1,4,6,8,10,12,14,16,18,20,22,24,26,28,30,-1,32,34,36,38,40,42,44,46,48,-1,-1,-1,50,-1,-1,-1,-1,-1,-1,-1,-1,-1,-1,-1,-1,-1,-1,-1,-1,-1,-1,-1,-1,-1],"split_conditions":[1E0,-3.2777265E-2,1E0,1E0,2E0,3.5E0,3E0,3.3E1,4E0,1E0,1E0,1.9E1,3.6666667E0,1.6E1,6E0,7E0,3.4717806E-2,2.1666667E0,1.6E0,1E0,4E0,1.1E1,6E0,3E0,8.6E0,1.4E1,3.325441E-2,1.2734217E-3,-2.0990042E-2,1E0,3.3734877E-2,-2.8743906E-2,-1.29864765E-2,-1.0175915E-2,3.3180516E-2,-2.05142E-4,2.3678817E-2,1.4512797E-2,3.4840908E-2,4.8614927E-3,3.1583756E-2,-2.0444375E-2,-4.811902E-2,2.9006338E-2,8.859558E-3,3.8646046E-2,1.9121777E-2,1.5893118E-2,-2.7156666E-2,5.6250516E-4,2.343165E-2],"split_indices":[3,0,48,51,1,1,1,2,0,30,50,2,1,2,0,2,0,1,1,37,1,2,0,3,1,2,0,0,0,9,0,0,0,0,0,0,0,0,0,0,0,0,0,0,0,0,0,0,0,0,0],"split_type":[0,0,0,0,0,0,0,0,0,0,0,0,0,0,0,0,0,0,0,0,0,0,0,0,0,0,0,0,0,0,0,0,0,0,0,0,0,0,0,0,0,0,0,0,0,0,0,0,0,0,0],"sum_hessian":[1.3017765E5,9.1342004E2,1.29264234E5,1.28624914E5,6.3932135E2,1.2778388E5,8.4102783E2,1.0149854E2,5.3782275E2,2.9303699E3,1.24853516E5,2.2283041E2,6.1819745E2,8.914073E1,1.2357807E1,6.336074E1,4.7446204E2,2.6782803E3,2.520896E2,1.2415565E5,6.978681E2,1.427555E2,8.007492E1,1.13614655E2,5.045828E2,7.0446655E1,1.8694077E1,6.3656607E0,5.9921465E0,2.7216686E1,3.6144054E1,8.1313434E2,1.8651459E3,3.8432995E1,2.1365662E2,1.2295884E5,1.1968031E3,8.326444E1,6.1460364E2,1.006161E2,4.2139397E1,4.6516537E1,3.355838E1,9.7087204E1,1.6527452E1,4.9883682E2,5.745959E0,6.465125E1,5.7954044E0,8.486975E0,1.8729712E1],"tree_param":{"num_deleted":"0","num_feature":"59","num_nodes":"51","size_leaf_vector":"1"}},{"base_weights":[-6.208814E-4,-3.271994E-2,5.884703E-3,-3.260341E-2,1.0048292E-2,7.1263025E-3,6.112974E-1,-1.3979001E-1,1.9470373E-2,2.8005356E-1,6.6874534E-1,1.1720859E-1,-3.1688E-1,-5.3128713E-1,2.4813289E-2,6.2355185E-1,-3.1547424E-1,5.065893E-1,3.4364056E-2,2.2147413E-2,-8.457069E-3,-3.3199352E-3,-1.8097756E-2,-3.746472E-2,-1.812276E-2,1.0356725E-3,2.6021713E-2,3.4296818E-2,1.1072989E-2,-3.409876E-2,8.037721E-3,1.5666312E-2,3.0349959E-2],"categories":[],"categories_nodes":[],"categories_segments":[],"categories_sizes":[],"default_left":[0,0,0,0,0,0,0,0,0,0,0,0,0,0,0,0,0,0,0,0,0,0,0,0,0,0,0,0,0,0,0,0,0],"id":32,"left_children":[1,-1,3,-1,5,7,9,11,13,15,17,19,21,23,25,27,29,31,-1,-1,-1,-1,-1,-1,-1,-1,-1,-1,-1,-1,-1,-1,-1],"loss_changes":[5.5245905E2,0E0,3.523338E2,0E0,2.2452878E2,2.3066353E2,1.1574722E1,4.4870618E2,3.4527582E2,1.9236269E1,1.2328796E0,3.7527557E2,6.58761E1,4.122177E1,2.3611206E2,1.3371811E0,6.1680093E0,9.3075943E-1,0E0,0E0,0E0,0E0,0E0,0E0,0E0,0E0,0E0,0E0,0E0,0E0,0E0,0E0,0E0],"parents":[2147483647,0,0,2,2,4,4,5,5,6,6,7,7,8,8,9,9,10,10,11,11,12,12,13,13,14,14,15,15,16,16,17,17],"right_children":[2,-1,4,-1,6,8,10,12,14,16,18,20,22,24,26,28,30,32,-1,-1,-1,-1,-1,-1,-1,-1,-1,-1,-1,-1,-1,-1,-1],"split_conditions":[1E0,-3.271994E-2,1E0,-3.260341E-2,1E0,2E0,2E0,9.285714E0,2.6E0,3E0,4E0,3E0,4E0,2E0,1E0,2E0,9.968551E-1,3.6666667E0,3.4364056E-2,2.2147413E-2,-8.457069E-3,-3.3199352E-3,-1.8097756E-2,-3.746472E-2,-1.812276E-2,1.0356725E-3,2.6021713E-2,3.4296818E-2,1.1072989E-2,-3.409876E-2,8.037721E-3,1.5666312E-2,3.0349959E-2],"split_indices":[4,0,3,0,48,4,1,1,1,4,0,3,0,1,49,4,5,1,0,0,0,0,0,0,0,0,0,0,0,0,0,0,0],"split_type":[0,0,0,0,0,0,0,0,0,0,0,0,0,0,0,0,0,0,0,0,0,0,0,0,0,0,0,0,0,0,0,0,0],"sum_hessian":[1.2989043E5,1.278792E3,1.2861164E5,8.0777045E2,1.2780387E5,1.27186766E5,6.1709863E2,9.857284E3,1.17329484E5,9.207437E1,5.2502423E2,4.0214973E3,5.835787E3,1.1263356E3,1.1620315E5,5.8363472E1,3.3710896E1,5.6764397E1,4.6825986E2,1.8810955E3,2.1404019E3,8.903901E2,4.945397E3,4.900768E2,6.362587E2,1.1525082E5,9.523274E2,4.9913486E1,8.4499855E0,1.8805971E1,1.4904926E1,2.0817184E1,3.5947212E1],"tree_param":{"num_deleted":"0","num_feature":"59","num_nodes":"33","size_leaf_vector":"1"}},{"base_weights":[-2.0968597E-3,-3.248493E-2,4.271898E-3,9.0868835E-4,5.4509026E-1,-7.284208E-3,2.209188E-1,6.320562E-1,2.801007E-1,-1.0402225E-2,5.998237E-1,4.5903116E-1,1.6534191E-1,6.77263E-1,4.8366287E-1,3.9529005E-1,-1.0111421E-1,-1.4765616E-2,4.30644E-1,4.695285E-1,6.368062E-1,4.9811354E-1,3.2584614E-1,2.1570419E-1,-1.1014796E-1,3.5894597E-1,7.007716E-1,6.34446E-1,7.0243865E-2,3.7444975E-2,3.239276E-1,-4.3107438E-1,3.506654E-1,-1.2587024E-3,8.6257635E-3,2.575768E-2,5.17053E-4,2.7010022E-2,7.525681E-3,3.29757E-2,1.6986167E-2,2.1050178E-2,3.069821E-2,1.1759925E-3,2.2322627E-2,4.8448523E-3,1.9415027E-2,-1.8594695E-2,2.5267748E-3,3.433358E-2,3.1407462E-3,3.971107E-2,3.2133885E-2,2.0527368E-2,3.4591865E-2,-1.3438306E-2,3.479296E-2,-1.9338984E-2,1.8693052E-2,7.977317E-3,-3.2864615E-2,5.674716E-3,4.0006716E-2],"categories":[],"categories_nodes":[],"categories_segments":[],"categories_sizes":[],"default_left":[0,0,0,0,0,0,0,0,0,0,0,0,0,0,0,0,0,0,0,0,0,0,0,0,0,0,0,0,0,0,0,0,0,0,0,0,0,0,0,0,0,0,0,0,0,0,0,0,0,0,0,0,0,0,0,0,0,0,0,0,0,0,0],"id":33,"left_children":[1,-1,3,5,7,9,11,13,15,17,19,21,23,25,27,29,31,33,35,37,39,41,43,45,47,49,51,53,55,-1,57,59,61,-1,-1,-1,-1,-1,-1,-1,-1,-1,-1,-1,-1,-1,-1,-1,-1,-1,-1,-1,-1,-1,-1,-1,-1,-1,-1,-1,-1,-1,-1],"loss_changes":[5.344293E2,0E0,2.3339037E2,2.2986488E2,1.8098297E1,2.3273955E2,6.051187E1,3.6724854E0,8.723443E0,2.3540352E2,2.7281952E0,4.3444977E0,5.154619E1,3.1499176E0,8.852936E0,3.5946674E0,7.1101832E0,2.3610631E2,4.2558228E1,3.1358585E0,3.0580902E0,5.704529E0,7.2573013E0,6.434837E1,2.4185745E1,3.1896706E0,1.7818451E0,1.0583038E0,8.515784E0,0E0,4.697421E0,3.7694259E0,2.068462E0,0E0,0E0,0E0,0E0,0E0,0E0,0E0,0E0,0E0,0E0,0E0,0E0,0E0,0E0,0E0,0E0,0E0,0E0,0E0,0E0,0E0,0E0,0E0,0E0,0E0,0E0,0E0,0E0,0E0,0E0],"parents":[2147483647,0,0,2,2,3,3,4,4,5,5,6,6,7,7,8,8,9,9,10,10,11,11,12,12,13,13,14,14,15,15,16,16,17,17,18,18,19,19,20,20,21,21,22,22,23,23,24,24,25,25,26,26,27,27,28,28,30,30,31,31,32,32],"right_children":[2,-1,4,6,8,10,12,14,16,18,20,22,24,26,28,30,32,34,36,38,40,42,44,46,48,50,52,54,56,-1,58,60,62,-1,-1,-1,-1,-1,-1,-1,-1,-1,-1,-1,-1,-1,-1,-1,-1,-1,-1,-1,-1,-1,-1,-1,-1,-1,-1,-1,-1,-1,-1],"split_conditions":[1E0,-3.248493E-2,1E0,1E0,8E0,1E0,9.8438406E-1,1E0,9.97436E-1,1E0,7E0,8E0,1.1E1,9.9448395E-1,9.9734086E-1,9.9256456E-1,1E0,2.9E1,9E0,6E0,1.1E1,4E0,5.2E1,5E0,1.5E1,3E0,3E0,5E0,9.981254E-1,3.7444975E-2,9.948482E-1,1.1E1,9.99029E-1,-1.2587024E-3,8.6257635E-3,2.575768E-2,5.17053E-4,2.7010022E-2,7.525681E-3,3.29757E-2,1.6986167E-2,2.1050178E-2,3.069821E-2,1.1759925E-3,2.2322627E-2,4.8448523E-3,1.9415027E-2,-1.8594695E-2,2.5267748E-3,3.433358E-2,3.1407462E-3,3.971107E-2,3.2133885E-2,2.0527368E-2,3.4591865E-2,-1.3438306E-2,3.479296E-2,-1.9338984E-2,1.8693052E-2,7.977317E-3,-3.2864615E-2,5.674716E-3,4.0006716E-2],"split_indices":[4,0,51,55,4,48,5,14,5,49,2,4,4,5,5,5,14,4,4,2,4,4,2,4,4,4,4,2,5,0,5,4,5,0,0,0,0,0,0,0,0,0,0,0,0,0,0,0,0,0,0,0,0,0,0,0,0,0,0,0,0,0,0],"split_type":[0,0,0,0,0,0,0,0,0,0,0,0,0,0,0,0,0,0,0,0,0,0,0,0,0,0,0,0,0,0,0,0,0,0,0,0,0,0,0,0,0,0,0,0,0,0,0,0,0,0,0,0,0,0,0,0,0,0,0,0,0,0,0],"sum_hessian":[1.2957522E5,1.2608976E3,1.2831432E5,1.275223E5,7.920265E2,1.22944945E5,4.5773467E3,5.9527893E2,1.9674757E2,1.2231773E5,6.2722296E2,8.6482983E2,3.7125166E3,4.535458E2,1.4173314E2,1.5106444E2,4.568313E1,1.21120414E5,1.1973109E3,1.4169725E2,4.855257E2,6.665071E2,1.9832277E2,3.13891E3,5.736068E2,3.2310806E1,4.21235E2,1.0346317E2,3.8269966E1,2.3772846E1,1.27291595E2,2.6427477E1,1.925565E1,1.14744195E5,6.376223E3,9.966837E2,2.0062714E2,1.1543205E2,2.6265203E1,4.4991605E2,3.5609657E1,4.0294293E2,2.6356412E2,5.6895863E1,1.4142691E2,1.8600801E3,1.2788297E3,2.1768825E2,3.5591858E2,1.4711221E1,1.7599586E1,1.5662195E2,2.6461304E2,2.2773003E1,8.069017E1,2.5190224E1,1.3079743E1,7.9134073E0,1.1937819E2,7.400532E0,1.9026945E1,1.3424473E1,5.8311777E0],"tree_param":{"num_deleted":"0","num_feature":"59","num_nodes":"63","size_leaf_vector":"1"}},{"base_weights":[-1.7108295E-4,-3.2238897E-2,6.025829E-3,-3.232746E-2,1.0062315E-2,6.022426E-3,4.393693E-1,2.3634078E-3,4.8857278E-1,-1.4213808E-1,5.165557E-1,-5.4723833E-4,5.941614E-1,-1.038011E-1,6.1743903E-1,-1.48604335E-2,-7.342162E-1,6.2016004E-1,2.7067933E-2,-4.6213085E-4,9.929044E-3,1.31375985E-2,3.2933734E-2,3.5341974E-2,-1.7395869E-2,3.4529913E-2,9.940587E-3,3.4684572E-2,-1.0496085E-2,2.9342098E-3,-4.7691923E-2,3.211325E-2,-2.1211093E-2,-1.5171758E-2,2.5248015E-2],"categories":[],"categories_nodes":[],"categories_segments":[],"categories_sizes":[],"default_left":[0,0,0,0,0,0,0,0,0,0,0,0,0,0,0,0,0,0,0,0,0,0,0,0,0,0,0,0,0,0,0,0,0,0,0],"id":34,"left_children":[1,-1,3,-1,5,7,9,11,13,15,17,19,21,23,25,27,29,31,33,-1,-1,-1,-1,-1,-1,-1,-1,-1,-1,-1,-1,-1,-1,-1,-1],"loss_changes":[5.155083E2,0E0,3.3670737E2,0E0,2.2032707E2,2.2221654E2,5.323044E1,2.1515813E2,7.2365295E1,1.0506286E1,5.3016083E1,2.1522455E2,1.2897507E1,3.390377E1,2.3691559E1,1.6162895E1,4.352418E0,2.0196259E1,2.9171114E1,0E0,0E0,0E0,0E0,0E0,0E0,0E0,0E0,0E0,0E0,0E0,0E0,0E0,0E0,0E0,0E0],"parents":[2147483647,0,0,2,2,4,4,5,5,6,6,7,7,8,8,9,9,10,10,11,11,12,12,13,13,14,