{"learner":{"attributes":{"scikit_learn":"{\"_estimator_type\": \"ranker\"}"},"feature_names":["basket_size","item_cooccurrence_score","category_affinity_score","context_popularity_score","customer_history_score","embedding_similarity_score","candidate_category_popularity","allowed_category_rank","candidate_category_allowed","same_category_as_context","category_rule_weight","candidate_family_in_input","mixed_basket_flag","input_family_count","ngcf_score","ngcf_rank","seasonLabel","isHoliday","isFestival","timeSlotLabel","monthPartLabel","weekOfMonth","candidate_category_Bakery-Bread","candidate_category_Beverage-Carbonated","candidate_category_Beverage-Hot","candidate_category_Beverage-Juice","candidate_category_Beverage-Water","candidate_category_Chocolates-Sweets","candidate_category_Dairy-Milk","candidate_category_Dairy-Other","candidate_category_Desserts-Traditional","candidate_category_Dry-Fruits","candidate_category_Fish-Fresh","candidate_category_Fruits-Fresh","candidate_category_Household-AirCare","candidate_category_Household-Cleaning","candidate_category_Household-Kitchen","candidate_category_Household-Laundry","candidate_category_Household-Utility","candidate_category_Meat-Fresh","candidate_category_Meat-Processed","candidate_category_Pantry-Flour","candidate_category_Pantry-Grains","candidate_category_Pantry-Oils","candidate_category_Pantry-Pulses","candidate_category_Pantry-Rice","candidate_category_Pantry-Sweeteners","candidate_category_Personal-Care-Bath","candidate_category_Personal-Care-Cosmetics","candidate_category_Personal-Care-Hair","candidate_category_Personal-Care-Oral","candidate_category_Personal-Care-Sanitary","candidate_category_Pickle","candidate_category_Protein-Egg","candidate_category_Snacks-General","candidate_category_Spices-Cooking","candidate_category_Veg-Cooking","candidate_category_cleaning_clothes","candidate_category_clothing - male","candidate_category_clothing accessories female","candidate_category_clothing accessories male","candidate_category_clothing babies","candidate_category_clothing female","candidate_category_general_cooking_vegetables","candidate_category_household hygene","candidate_category_noodles_pasta_and_haleem","candidate_category_pantry salt","candidate_category_sauce item","candidate_family_beverage","candidate_family_breakfast","candidate_family_clothing","candidate_family_cooking","candidate_family_dessert","candidate_family_household","candidate_family_personal_care","candidate_family_processed_food","candidate_family_snack","season_Summer","season_Winter","timeSlot_Afternoon","timeSlot_Evening","timeSlot_Morning","timeSlot_Night","timeSlot_Noon","rule_mode_Bakery-Bread","rule_mode_Beverage-Carbonated","rule_mode_Beverage-Hot","rule_mode_Beverage-Juice","rule_mode_Beverage-Water","rule_mode_Chocolates-Sweets","rule_mode_Dairy-Milk","rule_mode_Dairy-Other","rule_mode_Desserts-Traditional","rule_mode_Dry-Fruits","rule_mode_Fish-Fresh","rule_mode_Fruits-Fresh","rule_mode_Household-AirCare","rule_mode_Household-Cleaning","rule_mode_Household-Kitchen","rule_mode_Household-Laundry","rule_mode_Household-Utility","rule_mode_Meat-Fresh","rule_mode_Meat-Processed","rule_mode_Pantry-Flour","rule_mode_Pantry-Grains","rule_mode_Pantry-Oils","rule_mode_Pantry-Pulses","rule_mode_Pantry-Rice","rule_mode_Pantry-Sweeteners","rule_mode_Personal-Care-Bath","rule_mode_Personal-Care-Cosmetics","rule_mode_Personal-Care-Hair","rule_mode_Personal-Care-Oral","rule_mode_Personal-Care-Sanitary","rule_mode_Pickle","rule_mode_Protein-Egg","rule_mode_Snacks-General","rule_mode_Spices-Cooking","rule_mode_Veg-Cooking","rule_mode_clothing - male","rule_mode_clothing accessories male","rule_mode_general_cooking_vegetables","rule_mode_household hygene","rule_mode_mixed_basket","rule_mode_noodles_pasta_and_haleem","rule_mode_pantry salt","rule_mode_sauce item"],"feature_types":["int","float","float","float","float","float","float","int","int","int","float","int","int","int","float","int","int","int","int","int","int","int","int","int","int","int","int","int","int","int","int","int","int","int","int","int","int","int","int","int","int","int","int","int","int","int","int","int","int","int","int","int","int","int","int","int","int","int","int","int","int","int","int","int","int","int","int","int","int","int","int","int","int","int","int","int","int","int","int","int","int","int","int","int","int","int","int","int","int","int","int","int","int","int","int","int","int","int","int","int","int","int","int","int","int","int","int","int","int","int","int","int","int","int","int","int","int","int","int","int","int","int","int","int","int","int","int"],"gradient_booster":{"model":{"cats":{"enc":[],"feature_segments":[],"sorted_idx":[]},"gbtree_model_param":{"num_parallel_tree":"1","num_trees":"250"},"iteration_indptr":[0,1,2,3,4,5,6,7,8,9,10,11,12,13,14,15,16,17,18,19,20,21,22,23,24,25,26,27,28,29,30,31,32,33,34,35,36,37,38,39,40,41,42,43,44,45,46,47,48,49,50,51,52,53,54,55,56,57,58,59,60,61,62,63,64,65,66,67,68,69,70,71,72,73,74,75,76,77,78,79,80,81,82,83,84,85,86,87,88,89,90,91,92,93,94,95,96,97,98,99,100,101,102,103,104,105,106,107,108,109,110,111,112,113,114,115,116,117,118,119,120,121,122,123,124,125,126,127,128,129,130,131,132,133,134,135,136,137,138,139,140,141,142,143,144,145,146,147,148,149,150,151,152,153,154,155,156,157,158,159,160,161,162,163,164,165,166,167,168,169,170,171,172,173,174,175,176,177,178,179,180,181,182,183,184,185,186,187,188,189,190,191,192,193,194,195,196,197,198,199,200,201,202,203,204,205,206,207,208,209,210,211,212,213,214,215,216,217,218,219,220,221,222,223,224,225,226,227,228,229,230,231,232,233,234,235,236,237,238,239,240,241,242,243,244,245,246,247,248,249,250],"tree_info":[0,0,0,0,0,0,0,0,0,0,0,0,0,0,0,0,0,0,0,0,0,0,0,0,0,0,0,0,0,0,0,0,0,0,0,0,0,0,0,0,0,0,0,0,0,0,0,0,0,0,0,0,0,0,0,0,0,0,0,0,0,0,0,0,0,0,0,0,0,0,0,0,0,0,0,0,0,0,0,0,0,0,0,0,0,0,0,0,0,0,0,0,0,0,0,0,0,0,0,0,0,0,0,0,0,0,0,0,0,0,0,0,0,0,0,0,0,0,0,0,0,0,0,0,0,0,0,0,0,0,0,0,0,0,0,0,0,0,0,0,0,0,0,0,0,0,0,0,0,0,0,0,0,0,0,0,0,0,0,0,0,0,0,0,0,0,0,0,0,0,0,0,0,0,0,0,0,0,0,0,0,0,0,0,0,0,0,0,0,0,0,0,0,0,0,0,0,0,0,0,0,0,0,0,0,0,0,0,0,0,0,0,0,0,0,0,0,0,0,0,0,0,0,0,0,0,0,0,0,0,0,0,0,0,0,0,0,0,0,0,0,0,0,0,0,0,0,0,0,0],"trees":[{"base_weights":[-3.250951E-5,-1.9871783E-1,4.7536594E-1,-4.8165494E-1,-5.9961446E-2,3.2065156E-1,6.962812E-1,-6.1310166E-1,-3.0050033E-1,-3.1877908E-1,2.57979E-2,4.0806875E-1,1.0042507E-1,6.243514E-1,7.811748E-1,-3.5327096E-2,-2.429993E-2,-2.639362E-2,-9.409353E-3,-3.1224659E-2,-1.2749246E-2,-1.0285222E-3,1.3105166E-2,1.5785757E-2,2.6643274E-2,-8.020077E-4,1.3301111E-2,2.041016E-2,3.230976E-2,3.254057E-2,4.117318E-2],"categories":[],"categories_nodes":[],"categories_segments":[],"categories_sizes":[],"default_left":[0,0,0,0,0,0,0,0,0,0,0,0,0,0,0,0,0,0,0,0,0,0,0,0,0,0,0,0,0,0,0],"id":0,"left_children":[1,3,5,7,9,11,13,15,17,19,21,23,25,27,29,-1,-1,-1,-1,-1,-1,-1,-1,-1,-1,-1,-1,-1,-1,-1,-1],"loss_changes":[7.3734443E3,2.1612742E3,7.8581885E2,4.308496E2,8.2002356E2,2.6043384E2,5.667041E1,1.2378198E2,1.9432574E2,1.7887347E2,3.0409628E2,1.11202515E2,7.428757E1,2.358252E1,2.261621E1,0E0,0E0,0E0,0E0,0E0,0E0,0E0,0E0,0E0,0E0,0E0,0E0,0E0,0E0,0E0,0E0],"parents":[2147483647,0,0,1,1,2,2,3,3,4,4,5,5,6,6,7,7,8,8,9,9,10,10,11,11,12,12,13,13,14,14],"right_children":[2,4,6,8,10,12,14,16,18,20,22,24,26,28,30,-1,-1,-1,-1,-1,-1,-1,-1,-1,-1,-1,-1,-1,-1,-1,-1],"split_conditions":[4.9E1,7.941185E-1,1.07E2,1.6E1,1.2E1,1E1,8.488E2,1.7E1,6.597723E-1,5E0,5.0966666E2,9.1165584E-1,8.6617225E-1,1E0,1.56E2,-3.5327096E-2,-2.429993E-2,-2.639362E-2,-9.409353E-3,-3.1224659E-2,-1.2749246E-2,-1.0285222E-3,1.3105166E-2,1.5785757E-2,2.6643274E-2,-8.020077E-4,1.3301111E-2,2.041016E-2,3.230976E-2,3.254057E-2,4.117318E-2],"split_indices":[4,5,4,4,4,7,1,3,5,4,1,5,5,11,4,0,0,0,0,0,0,0,0,0,0,0,0,0,0,0,0],"split_type":[0,0,0,0,0,0,0,0,0,0,0,0,0,0,0,0,0,0,0,0,0,0,0,0,0,0,0,0,0,0,0],"sum_hessian":[7.8059734E4,5.505277E4,2.3006963E4,1.811289E4,3.693988E4,1.3534136E4,9.472827E3,1.0493299E4,7.6195913E3,9.19279E3,2.774709E4,9.686692E3,3.8474429E3,5.1379497E3,4.3348774E3,6.0415435E3,4.4517554E3,2.5164473E3,5.103144E3,1.5836588E3,7.6091313E3,2.3196596E4,4.5504937E3,5.57171E3,4.114983E3,2.2593394E3,1.5881035E3,4.758244E2,4.662125E3,1.0706669E3,3.2642104E3],"tree_param":{"num_deleted":"0","num_feature":"127","num_nodes":"31","size_leaf_vector":"1"}},{"base_weights":[-1.3614368E-3,-1.287591E-1,3.9140013E-1,-3.0497757E-1,-1.5454742E-2,2.545762E-1,5.788433E-1,-5.384522E-1,-2.2027142E-1,-1.449635E-1,9.7034715E-2,3.2676566E-1,5.5790525E-2,4.5252803E-1,6.606695E-1,-3.791742E-2,-2.3914916E-2,-2.129437E-2,-7.51967E-3,-3.5663794E-3,-1.5282551E-2,3.3280214E-3,1.8584888E-2,2.737712E-2,1.2549736E-2,1.2450881E-2,-3.2634994E-3,8.268346E-3,2.3677407E-2,2.50354E-2,3.4860536E-2],"categories":[],"categories_nodes":[],"categories_segments":[],"categories_sizes":[],"default_left":[0,0,0,0,0,0,0,0,0,0,0,0,0,0,0,0,0,0,0,0,0,0,0,0,0,0,0,0,0,0,0],"id":1,"left_children":[1,3,5,7,9,11,13,15,17,19,21,23,25,27,29,-1,-1,-1,-1,-1,-1,-1,-1,-1,-1,-1,-1,-1,-1,-1,-1],"loss_changes":[1.7132463E4,5.161984E3,2.1503086E3,2.0006133E3,2.2925398E3,6.9559644E2,3.6494434E2,3.5535645E2,1.0665544E3,8.6542395E2,7.0477734E2,5.9452246E2,3.0224402E2,8.375195E1,1.2460449E2,0E0,0E0,0E0,0E0,0E0,0E0,0E0,0E0,0E0,0E0,0E0,0E0,0E0,0E0,0E0,0E0],"parents":[2147483647,0,0,1,1,2,2,3,3,4,4,5,5,6,6,7,7,8,8,9,9,10,10,11,11,12,12,13,13,14,14],"right_children":[2,4,6,8,10,12,14,16,18,20,22,24,26,28,30,-1,-1,-1,-1,-1,-1,-1,-1,-1,-1,-1,-1,-1,-1,-1,-1],"split_conditions":[6.4E1,8.372758E-1,1.32E2,1.1E1,2.2E1,1E1,5.4E2,5E0,6.7722803E-1,1E0,1E0,1E0,1E0,6.79538E-1,8.5091656E-1,-3.791742E-2,-2.3914916E-2,-2.129437E-2,-7.51967E-3,-3.5663794E-3,-1.5282551E-2,3.3280214E-3,1.8584888E-2,2.737712E-2,1.2549736E-2,1.2450881E-2,-3.2634994E-3,8.268346E-3,2.3677407E-2,2.50354E-2,3.4860536E-2],"split_indices":[4,5,4,4,4,7,1,4,5,71,69,71,71,5,5,0,0,0,0,0,0,0,0,0,0,0,0,0,0,0,0],"split_type":[0,0,0,0,0,0,0,0,0,0,0,0,0,0,0,0,0,0,0,0,0,0,0,0,0,0,0,0,0,0,0],"sum_hessian":[3.4239325E5,2.5853544E5,8.385783E4,1.0117565E5,1.5735978E5,4.8477355E4,3.5380477E4,2.6931672E4,7.424398E4,7.314683E4,8.421295E4,3.5561188E4,1.2916167E4,1.3914906E4,2.146557E4,5.7793203E3,2.1152354E4,1.8828576E4,5.5415402E4,5.016313E4,2.29837E4,7.580527E4,8.407683E3,9.082557E3,2.647863E4,4.974844E3,7.9413228E3,9.507898E2,1.2964117E4,3.9979177E3,1.7467652E4],"tree_param":{"num_deleted":"0","num_feature":"127","num_nodes":"31","size_leaf_vector":"1"}},{"base_weights":[-1.0188277E-3,-9.9985816E-2,3.229467E-1,-2.748912E-1,-1.3850859E-2,1.8683535E-1,4.3672976E-1,-4.9096915E-1,-1.9737953E-1,-2.758008E-1,2.4550335E-2,4.154581E-1,1.4296807E-1,3.701256E-1,5.769517E-1,-2.9514924E-2,-1.6926805E-2,-2.3857897E-2,-7.891824E-3,-1.5792534E-2,4.586442E-4,-2.7181746E-3,4.9530244E-3,1.623814E-2,2.6179506E-2,4.4578137E-3,1.83941E-2,3.3787634E-2,1.4837428E-2,3.192048E-2,2.4793137E-2],"categories":[],"categories_nodes":[],"categories_segments":[],"categories_sizes":[],"default_left":[0,0,0,0,0,0,0,0,0,0,0,0,0,0,0,0,0,0,0,0,0,0,0,0,0,0,0,0,0,0,0],"id":2,"left_children":[1,3,5,7,9,11,13,15,17,19,21,23,25,27,29,-1,-1,-1,-1,-1,-1,-1,-1,-1,-1,-1,-1,-1,-1,-1,-1],"loss_changes":[1.0056703E4,3.6197007E3,1.1364717E3,1.3275312E3,1.6194807E3,3.350094E2,3.7278223E2,3.1635107E2,6.4532983E2,2.3497961E2,8.256004E2,5.228705E1,3.3931726E2,6.0739746E2,6.3331543E1,0E0,0E0,0E0,0E0,0E0,0E0,0E0,0E0,0E0,0E0,0E0,0E0,0E0,0E0,0E0,0E0],"parents":[2147483647,0,0,1,1,2,2,3,3,4,4,5,5,6,6,7,7,8,8,9,9,10,10,11,11,12,12,13,13,14,14],"right_children":[2,4,6,8,10,12,14,16,18,20,22,24,26,28,30,-1,-1,-1,-1,-1,-1,-1,-1,-1,-1,-1,-1,-1,-1,-1,-1],"split_conditions":[5.4E2,1.7E1,8.748571E2,7.561209E-1,7.0643693E-1,1E0,5.41E2,1E0,4E0,3.27E2,8.833333E-1,2.0666666E0,5.15E2,1E0,3E0,-2.9514924E-2,-1.6926805E-2,-2.3857897E-2,-7.891824E-3,-1.5792534E-2,4.586442E-4,-2.7181746E-3,4.9530244E-3,1.623814E-2,2.6179506E-2,4.4578137E-3,1.83941E-2,3.3787634E-2,1.4837428E-2,3.192048E-2,2.4793137E-2],"split_indices":[1,3,1,5,5,71,2,11,3,2,10,10,2,71,7,0,0,0,0,0,0,0,0,0,0,0,0,0,0,0,0],"split_type":[0,0,0,0,0,0,0,0,0,0,0,0,0,0,0,0,0,0,0,0,0,0,0,0,0,0,0,0,0,0,0],"sum_hessian":[3.136623E5,2.4026617E5,7.339614E4,7.9278125E4,1.6098805E5,3.342207E4,3.9974074E4,2.092718E4,5.835094E4,2.058194E4,1.4040611E5,5.377232E3,2.8044838E4,2.7106893E4,1.2867181E4,1.2666578E4,8.260601E3,7.222658E3,5.1128285E4,1.8046072E4,2.5358665E3,6.818732E4,7.221879E4,2.9295098E3,2.4477224E3,2.2633191E4,5.4116465E3,5.2444517E3,2.1862441E4,7.31073E3,5.55645E3],"tree_param":{"num_deleted":"0","num_feature":"127","num_nodes":"31","size_leaf_vector":"1"}},{"base_weights":[2.3191E-5,-1.1310545E-1,2.469487E-1,-4.1381896E-1,-7.156636E-2,1.2251297E-1,3.9466023E-1,-5.2862626E-1,-2.6529694E-1,-1.6683452E-1,2.2644153E-2,7.027814E-2,3.0242157E-1,3.3831486E-1,5.080769E-1,-3.4664974E-2,-2.3458943E-2,1.6160746E-3,-1.4874722E-2,-2.0453736E-2,-6.705233E-3,-2.1672354E-4,1.04290405E-2,2.2259161E-3,1.3720167E-2,1.1904954E-2,2.1220952E-2,3.6143918E-2,1.6218482E-2,1.6606942E-2,2.7438862E-2],"categories":[],"categories_nodes":[],"categories_segments":[],"categories_sizes":[],"default_left":[0,0,0,0,0,0,0,0,0,0,0,0,0,0,0,0,0,0,0,0,0,0,0,0,0,0,0,0,0,0,0],"id":3,"left_children":[1,3,5,7,9,11,13,15,17,19,21,23,25,27,29,-1,-1,-1,-1,-1,-1,-1,-1,-1,-1,-1,-1,-1,-1,-1,-1],"loss_changes":[8.346391E3,2.5594338E3,1.7253667E3,4.236455E2,1.615937E3,4.787716E2,2.7383057E2,1.3645874E2,1.0400012E2,7.095564E2,4.5412704E2,2.0759895E2,8.966406E1,1.5319897E2,1.0148389E2,0E0,0E0,0E0,0E0,0E0,0E0,0E0,0E0,0E0,0E0,0E0,0E0,0E0,0E0,0E0,0E0],"parents":[2147483647,0,0,1,1,2,2,3,3,4,4,5,5,6,6,7,7,8,8,9,9,10,10,11,11,12,12,13,13,14,14],"right_children":[2,4,6,8,10,12,14,16,18,20,22,24,26,28,30,-1,-1,-1,-1,-1,-1,-1,-1,-1,-1,-1,-1,-1,-1,-1,-1],"split_conditions":[4.05E2,6.79538E-1,7.98E2,2.3E1,2.6E1,9.278739E-1,1.36E2,6E0,5E0,5E0,1E0,1E0,2.1454546E0,1.3484E4,8.6190325E-1,-3.4664974E-2,-2.3458943E-2,1.6160746E-3,-1.4874722E-2,-2.0453736E-2,-6.705233E-3,-2.1672354E-4,1.04290405E-2,2.2259161E-3,1.3720167E-2,1.1904954E-2,2.1220952E-2,3.6143918E-2,1.6218482E-2,1.6606942E-2,2.7438862E-2],"split_indices":[1,5,1,3,3,5,3,3,7,3,69,69,10,6,5,0,0,0,0,0,0,0,0,0,0,0,0,0,0,0,0],"split_type":[0,0,0,0,0,0,0,0,0,0,0,0,0,0,0,0,0,0,0,0,0,0,0,0,0,0,0,0,0,0,0],"sum_hessian":[2.9878122E5,2.049048E5,9.387643E4,2.486662E4,1.8003817E5,5.095521E4,4.292122E4,1.402172E4,1.08449E4,8.951664E4,9.052154E4,3.949253E4,1.1462682E4,2.868153E4,1.42396875E4,3.712899E3,1.0308821E4,1.058252E3,9.786648E3,1.0651939E4,7.88647E4,7.90525E4,1.1469037E4,3.507E4,4.4225283E3,7.5101367E3,3.952545E3,9.99734E2,2.7681795E4,2.6793757E3,1.15603125E4],"tree_param":{"num_deleted":"0","num_feature":"127","num_nodes":"31","size_leaf_vector":"1"}},{"base_weights":[1.6473225E-4,-1.24884926E-1,3.5097495E-1,-2.9286486E-1,-4.3541536E-2,2.09937E-1,5.260884E-1,-5.370332E-1,-2.4142721E-1,5.3204466E-2,-1.1244936E-1,3.961921E-1,1.3002841E-1,4.6774834E-1,6.307077E-1,-3.0873245E-2,-1.999963E-2,-3.3823133E-3,-1.5300088E-2,4.0834686E-3,-1.0979648E-2,1.0161999E-3,-8.178146E-3,9.859885E-3,2.3014234E-2,1.1574983E-3,1.2220169E-2,1.2877123E-2,2.4414709E-2,2.2726258E-2,3.3530917E-2],"categories":[],"categories_nodes":[],"categories_segments":[],"categories_sizes":[],"default_left":[0,0,0,0,0,0,0,0,0,0,0,0,0,0,0,0,0,0,0,0,0,0,0,0,0,0,0,0,0,0,0],"id":4,"left_children":[1,3,5,7,9,11,13,15,17,19,21,23,25,27,29,-1,-1,-1,-1,-1,-1,-1,-1,-1,-1,-1,-1,-1,-1,-1,-1],"loss_changes":[1.2632935E4,2.9007417E3,1.868667E3,8.6951514E2,9.53576E2,6.23724E2,2.0528418E2,1.321726E2,6.4194727E2,4.620393E2,5.669601E2,1.6021313E2,3.5858154E2,9.327344E1,8.415332E1,0E0,0E0,0E0,0E0,0E0,0E0,0E0,0E0,0E0,0E0,0E0,0E0,0E0,0E0,0E0,0E0],"parents":[2147483647,0,0,1,1,2,2,3,3,4,4,5,5,6,6,7,7,8,8,9,9,10,10,11,11,12,12,13,13,14,14],"right_children":[2,4,6,8,10,12,14,16,18,20,22,24,26,28,30,-1,-1,-1,-1,-1,-1,-1,-1,-1,-1,-1,-1,-1,-1,-1,-1],"split_conditions":[5.9E1,1.5E1,1.13E2,6E0,7E0,1E0,1.0073333E3,1.8E1,1.4985E4,1E0,1.9317E4,1E0,7.74E2,1E0,1.48E2,-3.0873245E-2,-1.999963E-2,-3.3823133E-3,-1.5300088E-2,4.0834686E-3,-1.0979648E-2,1.0161999E-3,-8.178146E-3,9.859885E-3,2.3014234E-2,1.1574983E-3,1.2220169E-2,1.2877123E-2,2.4414709E-2,2.2726258E-2,3.3530917E-2],"split_indices":[4,4,4,4,7,71,1,3,6,41,6,11,1,11,4,0,0,0,0,0,0,0,0,0,0,0,0,0,0,0,0],"split_type":[0,0,0,0,0,0,0,0,0,0,0,0,0,0,0,0,0,0,0,0,0,0,0,0,0,0,0,0,0,0,0],"sum_hessian":[2.8796672E5,2.1229352E5,7.567319E4,6.9259875E4,1.4303364E5,4.191762E4,3.375557E4,1.2047939E4,5.721193E4,5.949768E4,8.353596E4,1.2581717E4,2.9335906E4,2.1678883E4,1.2076687E4,7.5869253E3,4.4610146E3,1.5501425E4,4.1710508E4,5.387778E4,5.619898E3,2.321933E4,6.031663E4,3.0676826E3,9.514034E3,1.51668545E4,1.4169051E4,1.933322E3,1.974556E4,2.2357354E3,9.840951E3],"tree_param":{"num_deleted":"0","num_feature":"127","num_nodes":"31","size_leaf_vector":"1"}},{"base_weights":[2.9067812E-4,-1.1522376E-1,3.4831804E-1,-2.6655E-1,-2.3631942E-2,2.3146318E-1,5.3535056E-1,-4.783801E-1,-1.9513024E-1,-8.97039E-2,8.4315665E-2,4.0896305E-1,1.5694538E-1,4.2660964E-1,6.170485E-1,-3.173078E-2,-2.0142538E-2,-1.9894214E-2,-7.527531E-3,-9.461353E-3,-9.944596E-4,-9.782611E-4,7.2894916E-3,9.240199E-3,2.3869012E-2,-5.072091E-3,1.1731687E-2,1.920098E-2,2.7082399E-2,2.227742E-2,3.2363318E-2],"categories":[],"categories_nodes":[],"categories_segments":[],"categories_sizes":[],"default_left":[0,0,0,0,0,0,0,0,0,0,0,0,0,0,0,0,0,0,0,0,0,0,0,0,0,0,0,0,0,0,0],"id":5,"left_children":[1,3,5,7,9,11,13,15,17,19,21,23,25,27,29,-1,-1,-1,-1,-1,-1,-1,-1,-1,-1,-1,-1,-1,-1,-1,-1],"loss_changes":[1.1066455E4,2.8644666E3,1.498875E3,1.1786196E3,9.182966E2,5.5827075E2,2.3363818E2,2.3116602E2,5.265747E2,5.5489484E2,3.1219675E2,1.9116699E2,5.971065E2,5.4919434E1,7.728223E1,0E0,0E0,0E0,0E0,0E0,0E0,0E0,0E0,0E0,0E0,0E0,0E0,0E0,0E0,0E0,0E0],"parents":[2147483647,0,0,1,1,2,2,3,3,4,4,5,5,6,6,7,7,8,8,9,9,10,10,11,11,12,12,13,13,14,14],"right_children":[2,4,6,8,10,12,14,16,18,20,22,24,26,28,30,-1,-1,-1,-1,-1,-1,-1,-1,-1,-1,-1,-1,-1,-1,-1,-1],"split_conditions":[6.1E1,8.372758E-1,1.32E2,1.1E1,2.9E1,1E0,5.504286E2,6.7472374E-1,6.6192734E-1,8.1E1,8.796257E-1,7.3097366E-1,8.4651613E-1,9.172522E-1,8.446772E-1,-3.173078E-2,-2.0142538E-2,-1.9894214E-2,-7.527531E-3,-9.461353E-3,-9.944596E-4,-9.782611E-4,7.2894916E-3,9.240199E-3,2.3869012E-2,-5.072091E-3,1.1731687E-2,1.920098E-2,2.7082399E-2,2.227742E-2,3.2363318E-2],"split_indices":[4,5,4,4,4,71,1,5,5,15,5,5,5,5,5,0,0,0,0,0,0,0,0,0,0,0,0,0,0,0,0],"split_type":[0,0,0,0,0,0,0,0,0,0,0,0,0,0,0,0,0,0,0,0,0,0,0,0,0,0,0,0,0,0,0],"sum_hessian":[2.752651E5,2.0666983E5,6.859527E4,7.792242E4,1.287474E5,4.2221348E4,2.637393E4,1.9644273E4,5.8278152E4,7.98655E4,4.88819E4,1.2480962E4,2.9740387E4,1.1320493E4,1.5053437E4,6.39636E3,1.3247913E4,1.050064E4,4.777751E4,3.29247E4,4.69408E4,1.8172457E4,3.0709441E4,2.92084E3,9.560122E3,6.8742993E3,2.2866086E4,8.2690625E3,3.0514304E3,2.2605005E3,1.2792936E4],"tree_param":{"num_deleted":"0","num_feature":"127","num_nodes":"31","size_leaf_vector":"1"}},{"base_weights":[6.8491056E-5,-7.704977E-2,3.061857E-1,-2.5729287E-1,-1.8121624E-2,2.4561231E-1,4.7764742E-1,-5.689279E-1,-2.2116096E-1,-5.107606E-2,1.4142253E-1,2.156185E-1,6.267778E-1,3.3319443E-1,5.163638E-1,-4.67322E-2,-2.457775E-2,-1.7390385E-2,-7.633682E-3,-5.095128E-3,1.7571837E-3,4.7785738E-3,1.6284376E-2,9.641576E-3,3.2610733E-2,1.6072998E-2,3.4085862E-2,1.499143E-2,2.1597454E-2,2.1553412E-2,2.7510038E-2],"categories":[],"categories_nodes":[],"categories_segments":[],"categories_sizes":[],"default_left":[0,0,0,0,0,0,0,0,0,0,0,0,0,0,0,0,0,0,0,0,0,0,0,0,0,0,0,0,0,0,0],"id":6,"left_children":[1,3,5,7,9,11,13,15,17,19,21,23,25,27,29,-1,-1,-1,-1,-1,-1,-1,-1,-1,-1,-1,-1,-1,-1,-1,-1],"loss_changes":[6.2469814E3,2.2449968E3,5.5270996E2,5.8602246E2,8.3752277E2,4.495161E2,7.7256836E1,1.519231E2,4.0462598E2,5.785913E2,2.3027106E2,3.626117E2,4.7542603E1,9.332153E0,3.0999268E1,0E0,0E0,0E0,0E0,0E0,0E0,0E0,0E0,0E0,0E0,0E0,0E0,0E0,0E0,0E0,0E0],"parents":[2147483647,0,0,1,1,2,2,3,3,4,4,5,5,6,6,7,7,8,8,9,9,10,10,11,11,12,12,13,13,14,14],"right_children":[2,4,6,8,10,12,14,16,18,20,22,24,26,28,30,-1,-1,-1,-1,-1,-1,-1,-1,-1,-1,-1,-1,-1,-1,-1,-1],"split_conditions":[5.9925E2,1.4E1,5.15E2,3E0,3.27E2,1E0,8.225E2,1E0,1E0,4.5E1,6.7E1,1E0,1E0,5E0,8.2427E4,-4.67322E-2,-2.457775E-2,-1.7390385E-2,-7.633682E-3,-5.095128E-3,1.7571837E-3,4.7785738E-3,1.6284376E-2,9.641576E-3,3.2610733E-2,1.6072998E-2,3.4085862E-2,1.499143E-2,2.1597454E-2,2.1553412E-2,2.7510038E-2],"split_indices":[1,3,2,3,2,53,1,3,11,3,3,70,11,19,6,0,0,0,0,0,0,0,0,0,0,0,0,0,0,0,0],"split_type":[0,0,0,0,0,0,0,0,0,0,0,0,0,0,0,0,0,0,0,0,0,0,0,0,0,0,0,0,0,0,0],"sum_hessian":[2.6461612E5,2.1136836E5,5.3247746E4,5.2075652E4,1.5929272E5,3.935152E4,1.3896228E4,5.4070044E3,4.666865E4,1.320248E5,2.7267912E4,3.648412E4,2.8674E3,2.9421152E3,1.0954112E4,9.399718E2,4.4670327E3,1.6375935E4,3.0292713E4,8.306147E4,4.8963332E4,2.1837812E4,5.4300986E3,3.467745E4,1.8066715E3,4.397858E2,2.427614E3,2.2062798E3,7.358355E2,3.1203362E3,7.8337764E3],"tree_param":{"num_deleted":"0","num_feature":"127","num_nodes":"31","size_leaf_vector":"1"}},{"base_weights":[9.5885625E-4,-1.0900007E-1,3.2903725E-1,-2.53162E-1,-2.2762632E-2,1.972366E-1,4.9312234E-1,-5.0144506E-1,-1.9967374E-1,-2.6495764E-1,5.738037E-3,3.6141652E-1,1.289265E-1,4.255923E-1,5.8771276E-1,-3.3244576E-2,-2.1900425E-2,-1.791841E-2,-7.017452E-3,-1.5089198E-2,1.3096151E-2,3.6697784E-3,-3.2551591E-3,7.312987E-3,2.1894364E-2,-7.94259E-3,9.87628E-3,1.7800601E-2,2.4291972E-2,2.179918E-2,3.1640954E-2],"categories":[],"categories_nodes":[],"categories_segments":[],"categories_sizes":[],"default_left":[0,0,0,0,0,0,0,0,0,0,0,0,0,0,0,0,0,0,0,0,0,0,0,0,0,0,0,0,0,0,0],"id":7,"left_children":[1,3,5,7,9,11,13,15,17,19,21,23,25,27,29,-1,-1,-1,-1,-1,-1,-1,-1,-1,-1,-1,-1,-1,-1,-1,-1],"loss_changes":[9.335594E3,2.4095444E3,1.4045869E3,9.631089E2,8.371815E2,4.0389758E2,1.8417383E2,1.3255542E2,5.6178E2,2.4793024E2,5.2008966E2,1.7392651E2,5.0241302E2,7.0332275E1,8.173291E1,0E0,0E0,0E0,0E0,0E0,0E0,0E0,0E0,0E0,0E0,0E0,0E0,0E0,0E0,0E0,0E0],"parents":[2147483647,0,0,1,1,2,2,3,3,4,4,5,5,6,6,7,7,8,8,9,9,10,10,11,11,12,12,13,13,14,14],"right_children":[2,4,6,8,10,12,14,16,18,20,22,24,26,28,30,-1,-1,-1,-1,-1,-1,-1,-1,-1,-1,-1,-1,-1,-1,-1,-1],"split_conditions":[6E1,8.372758E-1,1.13E2,9E0,9E0,1E0,8.488E2,5E0,6.898653E-1,1E0,1E0,1E0,8.363019E-1,8.5649645E-1,1.56E2,-3.3244576E-2,-2.1900425E-2,-1.791841E-2,-7.017452E-3,-1.5089198E-2,1.3096151E-2,3.6697784E-3,-3.2551591E-3,7.312987E-3,2.1894364E-2,-7.94259E-3,9.87628E-3,1.7800601E-2,2.4291972E-2,2.179918E-2,3.1640954E-2],"split_indices":[4,5,4,4,4,71,1,4,5,65,71,11,5,5,4,0,0,0,0,0,0,0,0,0,0,0,0,0,0,0,0],"split_type":[0,0,0,0,0,0,0,0,0,0,0,0,0,0,0,0,0,0,0,0,0,0,0,0,0,0,0,0,0,0,0],"sum_hessian":[2.5877697E5,1.9381778E5,6.495919E4,7.254302E4,1.21274766E5,3.602643E4,2.893276E4,1.2854611E4,5.968841E4,1.2767434E4,1.0850733E5,1.0582101E4,2.5444328E4,1.688838E4,1.204438E4,3.5881904E3,9.266422E3,1.6238249E4,4.345016E4,1.1934417E4,8.330163E2,5.5501848E4,5.3005484E4,2.7768865E3,7.805215E3,4.8968525E3,2.0547475E4,7.844714E3,9.043667E3,2.7657092E3,9.278671E3],"tree_param":{"num_deleted":"0","num_feature":"127","num_nodes":"31","size_leaf_vector":"1"}},{"base_weights":[7.32338E-4,-1.2577495E-1,2.7163723E-1,-3.5110804E-1,-7.4421264E-2,1.5091003E-1,4.6313325E-1,-5.201585E-1,-2.582725E-1,-3.1106707E-1,-4.9393564E-2,4.921277E-2,2.5533316E-1,3.8001087E-1,5.50388E-1,-2.867854E-2,-1.7342867E-2,-1.7949807E-2,-6.6724694E-3,-2.7265161E-2,-1.2557848E-2,-2.948913E-3,1.5947957E-2,1.4501186E-2,-1.1453452E-3,6.5615387E-3,1.4768179E-2,1.606111E-2,2.7124086E-2,1.8778099E-2,2.9608278E-2],"categories":[],"categories_nodes":[],"categories_segments":[],"categories_sizes":[],"default_left":[0,0,0,0,0,0,0,0,0,0,0,0,0,0,0,0,0,0,0,0,0,0,0,0,0,0,0,0,0,0,0],"id":8,"left_children":[1,3,5,7,9,11,13,15,17,19,21,23,25,27,29,-1,-1,-1,-1,-1,-1,-1,-1,-1,-1,-1,-1,-1,-1,-1,-1],"loss_changes":[8.605896E3,1.9806533E3,1.8477764E3,4.9819653E2,8.255793E2,5.206083E2,2.2360596E2,1.0368408E2,2.5771912E2,1.8670386E2,4.451162E2,4.314989E2,1.20029785E2,1.5077637E2,1.0950342E2,0E0,0E0,0E0,0E0,0E0,0E0,0E0,0E0,0E0,0E0,0E0,0E0,0E0,0E0,0E0,0E0],"parents":[2147483647,0,0,1,1,2,2,3,3,4,4,5,5,6,6,7,7,8,8,9,9,10,10,11,11,12,12,13,13,14,14],"right_children":[2,4,6,8,10,12,14,16,18,20,22,24,26,28,30,-1,-1,-1,-1,-1,-1,-1,-1,-1,-1,-1,-1,-1,-1,-1,-1],"split_conditions":[4.8E1,7.561209E-1,1.01E2,1.2E1,8E0,8.796257E-1,1.7E2,2.9E1,6.166667E-1,4E0,1E0,2.3202E4,7.909091E-1,1E0,8.314385E-1,-2.867854E-2,-1.7342867E-2,-1.7949807E-2,-6.6724694E-3,-2.7265161E-2,-1.2557848E-2,-2.948913E-3,1.5947957E-2,1.4501186E-2,-1.1453452E-3,6.5615387E-3,1.4768179E-2,1.606111E-2,2.7124086E-2,1.8778099E-2,2.9608278E-2],"split_indices":[4,5,4,4,4,5,4,3,10,4,24,6,10,69,5,0,0,0,0,0,0,0,0,0,0,0,0,0,0,0,0],"split_type":[0,0,0,0,0,0,0,0,0,0,0,0,0,0,0,0,0,0,0,0,0,0,0,0,0,0,0,0,0,0,0],"sum_hessian":[2.5110522E5,1.7117183E5,7.993338E4,3.1767168E4,1.3940466E5,4.9028258E4,3.0905127E4,1.1257253E4,2.0509914E4,1.3330566E4,1.2607409E5,2.484054E4,2.4187719E4,1.5833717E4,1.5071411E4,8.600924E3,2.6563289E3,1.1347948E4,9.161966E3,2.7112876E3,1.0619279E4,1.2287883E5,3.1952725E3,5.7239707E3,1.9116568E4,5.9021543E3,1.8285564E4,1.1631746E4,4.2019697E3,2.9114565E3,1.2159955E4],"tree_param":{"num_deleted":"0","num_feature":"127","num_nodes":"31","size_leaf_vector":"1"}},{"base_weights":[-1.9276413E-4,-1.2041471E-1,2.65364E-1,-3.7511095E-1,-7.956461E-2,1.5699431E-1,4.6694008E-1,-4.8206776E-1,-2.5326484E-1,-3.256248E-1,-5.4154746E-2,5.719929E-2,2.5993815E-1,3.9300692E-1,5.465405E-1,-3.1349473E-2,-2.041708E-2,-2.0248955E-2,-9.441594E-3,-2.4619287E-2,-1.2242087E-2,-5.503991E-3,7.6373207E-4,1.2131962E-2,-5.1846186E-4,1.2184982E-2,2.8695906E-2,2.0977272E-2,7.712195E-3,2.1682492E-2,3.053149E-2],"categories":[],"categories_nodes":[],"categories_segments":[],"categories_sizes":[],"default_left":[0,0,0,0,0,0,0,0,0,0,0,0,0,0,0,0,0,0,0,0,0,0,0,0,0,0,0,0,0,0,0],"id":9,"left_children":[1,3,5,7,9,11,13,15,17,19,21,23,25,27,29,-1,-1,-1,-1,-1,-1,-1,-1,-1,-1,-1,-1,-1,-1,-1,-1],"loss_changes":[7.7958193E3,1.7487427E3,1.6620703E3,3.0241357E2,9.0562335E2,5.0838464E2,1.5600244E2,1.3149097E2,1.0596808E2,1.8229541E2,5.0984976E2,3.149723E2,1.2380469E2,8.723706E1,9.196167E1,0E0,0E0,0E0,0E0,0E0,0E0,0E0,0E0,0E0,0E0,0E0,0E0,0E0,0E0,0E0,0E0],"parents":[2147483647,0,0,1,1,2,2,3,3,4,4,5,5,6,6,7,7,8,8,9,9,10,10,11,11,12,12,13,13,14,14],"right_children":[2,4,6,8,10,12,14,16,18,20,22,24,26,28,30,-1,-1,-1,-1,-1,-1,-1,-1,-1,-1,-1,-1,-1,-1,-1,-1],"split_conditions":[4.9E1,7.182531E-1,1.13E2,1.6E1,8E0,8.796257E-1,1.8E2,1E1,6.354877E-1,5E0,3.3E1,2.5123E4,1E0,8.2427E4,8.6190325E-1,-3.1349473E-2,-2.041708E-2,-2.0248955E-2,-9.441594E-3,-2.4619287E-2,-1.2242087E-2,-5.503991E-3,7.6373207E-4,1.2131962E-2,-5.1846186E-4,1.2184982E-2,2.8695906E-2,2.0977272E-2,7.712195E-3,2.1682492E-2,3.053149E-2],"split_indices":[4,5,4,4,4,5,4,3,5,4,3,6,70,6,5,0,0,0,0,0,0,0,0,0,0,0,0,0,0,0,0],"split_type":[0,0,0,0,0,0,0,0,0,0,0,0,0,0,0,0,0,0,0,0,0,0,0,0,0,0,0,0,0,0,0],"sum_hessian":[2.4418264E5,1.6808805E5,7.609459E4,2.3230182E4,1.4485788E5,4.9491617E4,2.6602973E4,1.2367135E4,1.0863046E4,1.3556076E4,1.313018E5,2.5132465E4,2.4359152E4,1.3799606E4,1.2803367E4,4.1643447E3,8.202791E3,3.2344036E3,7.628643E3,4.419934E3,9.136142E3,7.272395E4,5.8577844E4,6.711093E3,1.8421371E4,2.3165121E4,1.1940312E3,1.2417283E4,1.3823228E3,4.6429194E3,8.1604473E3],"tree_param":{"num_deleted":"0","num_feature":"127","num_nodes":"31","size_leaf_vector":"1"}},{"base_weights":[1.1381E-3,-9.028428E-2,3.2707465E-1,-2.0991251E-1,-4.5049735E-3,1.9931506E-1,4.5900023E-1,-4.335672E-1,-1.5759182E-1,-9.3120225E-2,8.148405E-2,7.799997E-2,2.909437E-1,3.1552032E-1,4.9681467E-1,-2.8472904E-2,-1.750329E-2,-5.41151E-3,-1.5620288E-2,2.148077E-3,-7.512204E-3,9.535859E-3,1.4878192E-3,1.3295355E-2,-1.8462325E-3,2.3722995E-2,1.2111537E-2,8.453044E-3,2.1347728E-2,1.8938739E-2,2.8056229E-2],"categories":[],"categories_nodes":[],"categories_segments":[],"categories_sizes":[],"default_left":[0,0,0,0,0,0,0,0,0,0,0,0,0,0,0,0,0,0,0,0,0,0,0,0,0,0,0,0,0,0,0],"id":10,"left_children":[1,3,5,7,9,11,13,15,17,19,21,23,25,27,29,-1,-1,-1,-1,-1,-1,-1,-1,-1,-1,-1,-1,-1,-1,-1,-1],"loss_changes":[7.100672E3,1.9096011E3,8.7951025E2,9.0915894E2,8.2589154E2,2.9471655E2,1.3888574E2,1.6662378E2,4.8118372E2,4.1496655E2,3.1076575E2,2.4657858E2,1.3472498E2,8.728235E1,1.5367139E2,0E0,0E0,0E0,0E0,0E0,0E0,0E0,0E0,0E0,0E0,0E0,0E0,0E0,0E0,0E0,0E0],"parents":[2147483647,0,0,1,1,2,2,3,3,4,4,5,5,6,6,7,7,8,8,9,9,10,10,11,11,12,12,13,13,14,14],"right_children":[2,4,6,8,10,12,14,16,18,20,22,24,26,28,30,-1,-1,-1,-1,-1,-1,-1,-1,-1,-1,-1,-1,-1,-1,-1,-1],"split_conditions":[6.5E1,1.9E1,1.13E2,7.214788E-1,8.6856157E-1,8.708989E-1,2.6242E4,1.2E1,1E0,5E0,5E0,1E0,1E0,9.1610724E-1,8.5091656E-1,-2.8472904E-2,-1.750329E-2,-5.41151E-3,-1.5620288E-2,2.148077E-3,-7.512204E-3,9.535859E-3,1.4878192E-3,1.3295355E-2,-1.8462325E-3,2.3722995E-2,1.2111537E-2,8.453044E-3,2.1347728E-2,1.8938739E-2,2.8056229E-2],"split_indices":[4,4,4,5,5,5,6,3,71,7,7,71,71,5,5,0,0,0,0,0,0,0,0,0,0,0,0,0,0,0,0],"split_type":[0,0,0,0,0,0,0,0,0,0,0,0,0,0,0,0,0,0,0,0,0,0,0,0,0,0,0,0,0,0,0],"sum_hessian":[2.3828923E5,1.860928E5,5.2196434E4,7.771143E4,1.0838137E5,2.6520025E4,2.5676408E4,1.4729585E4,6.2981848E4,5.337638E4,5.5004992E4,1.1413736E4,1.5106289E4,5.3603174E3,2.031609E4,5.601012E3,9.128572E3,4.7758625E4,1.5223223E4,1.5780817E4,3.7595562E4,1.7674191E4,3.7330797E4,4.33101E3,7.082726E3,3.1644219E3,1.1941867E4,2.318916E3,3.0414016E3,7.1706274E3,1.3145463E4],"tree_param":{"num_deleted":"0","num_feature":"127","num_nodes":"31","size_leaf_vector":"1"}},{"base_weights":[-1.6361529E-3,-1.00068815E-1,2.9295635E-1,-2.2618352E-1,-2.635912E-2,1.7801417E-1,4.4591883E-1,-4.4121596E-1,-1.7130946E-1,-9.441847E-2,5.5195466E-2,2.53947E-2,2.4018662E-1,3.1891263E-1,4.9237034E-1,-3.0595502E-2,-1.9540282E-2,-1.8050103E-2,-6.556856E-3,-2.011989E-3,-1.0692037E-2,6.024008E-3,-7.9182175E-4,1.0227292E-2,-8.370268E-3,2.1262841E-2,9.516656E-3,7.4433186E-3,1.7468799E-2,1.74328E-2,2.6444603E-2],"categories":[],"categories_nodes":[],"categories_segments":[],"categories_sizes":[],"default_left":[0,0,0,0,0,0,0,0,0,0,0,0,0,0,0,0,0,0,0,0,0,0,0,0,0,0,0,0,0,0,0],"id":11,"left_children":[1,3,5,7,9,11,13,15,17,19,21,23,25,27,29,-1,-1,-1,-1,-1,-1,-1,-1,-1,-1,-1,-1,-1,-1,-1,-1],"loss_changes":[6.712406E3,1.6128661E3,1.019042E3,7.5495654E2,6.078527E2,3.140703E2,1.4629688E2,1.113208E2,3.8842126E2,3.8618127E2,2.3103094E2,3.3115222E2,2.1676465E2,3.4357727E1,9.505957E1,0E0,0E0,0E0,0E0,0E0,0E0,0E0,0E0,0E0,0E0,0E0,0E0,0E0,0E0,0E0,0E0],"parents":[2147483647,0,0,1,1,2,2,3,3,4,4,5,5,6,6,7,7,8,8,9,9,10,10,11,11,12,12,13,13,14,14],"right_children":[2,4,6,8,10,12,14,16,18,20,22,24,26,28,30,-1,-1,-1,-1,-1,-1,-1,-1,-1,-1,-1,-1,-1,-1,-1,-1],"split_conditions":[5.9E1,8.3832407E-1,1.13E2,1E1,2.5E1,8.35088E-1,3.505E2,5E0,6.6192734E-1,1E0,8E0,1E0,1E0,1E0,1.4E2,-3.0595502E-2,-1.9540282E-2,-1.8050103E-2,-6.556856E-3,-2.011989E-3,-1.0692037E-2,6.024008E-3,-7.9182175E-4,1.0227292E-2,-8.370268E-3,2.1262841E-2,9.516656E-3,7.4433186E-3,1.7468799E-2,1.74328E-2,2.6444603E-2],"split_indices":[4,5,4,4,4,5,1,4,5,71,7,71,71,11,4,0,0,0,0,0,0,0,0,0,0,0,0,0,0,0,0],"split_type":[0,0,0,0,0,0,0,0,0,0,0,0,0,0,0,0,0,0,0,0,0,0,0,0,0,0,0,0,0,0,0],"sum_hessian":[2.31479E5,1.7350675E5,5.7972254E4,6.3999566E4,1.0950718E5,3.310279E4,2.4869465E4,1.3008184E4,5.0991383E4,5.9693215E4,4.981397E4,9.583259E3,2.351953E4,6.665053E3,1.8204412E4,2.960022E3,1.0048161E4,8.9080625E3,4.208332E4,4.1066406E4,1.8626805E4,2.5957453E4,2.3856514E4,4.9678003E3,4.615458E3,4.9872783E3,1.8532252E4,1.0151555E3,5.649898E3,3.6939128E3,1.4510499E4],"tree_param":{"num_deleted":"0","num_feature":"127","num_nodes":"31","size_leaf_vector":"1"}},{"base_weights":[1.8613912E-3,-1.1166635E-1,2.5089294E-1,-2.5585958E-1,-5.4670576E-2,1.4890753E-1,4.3310368E-1,-4.5944008E-1,-2.0687562E-1,-8.7736934E-2,6.493044E-2,2.3790564E-1,2.9721027E-2,3.7075394E-1,5.202345E-1,-3.1761214E-2,-2.0457027E-2,-1.6180236E-2,-6.8497444E-3,-1.759357E-3,-1.01690395E-2,1.1365634E-2,1.0031598E-3,1.060228E-2,3.3519752E-2,6.3218013E-3,-1.3106576E-3,8.2628345E-3,1.9677332E-2,1.8849298E-2,2.7965635E-2],"categories":[],"categories_nodes":[],"categories_segments":[],"categories_sizes":[],"default_left":[0,0,0,0,0,0,0,0,0,0,0,0,0,0,0,0,0,0,0,0,0,0,0,0,0,0,0,0,0,0,0],"id":12,"left_children":[1,3,5,7,9,11,13,15,17,19,21,23,25,27,29,-1,-1,-1,-1,-1,-1,-1,-1,-1,-1,-1,-1,-1,-1,-1,-1],"loss_changes":[6.41161E3,1.280106E3,1.319398E3,4.3975708E2,4.4154282E2,4.8292957E2,1.3791162E2,7.497583E1,2.900183E2,5.314806E2,1.7613031E2,2.9111877E2,1.0533783E2,6.9392456E1,5.8902588E1,0E0,0E0,0E0,0E0,0E0,0E0,0E0,0E0,0E0,0E0,0E0,0E0,0E0,0E0,0E0,0E0],"parents":[2147483647,0,0,1,1,2,2,3,3,4,4,5,5,6,6,7,7,8,8,9,9,10,10,11,11,12,12,13,13,14,14],"right_children":[2,4,6,8,10,12,14,16,18,20,22,24,26,28,30,-1,-1,-1,-1,-1,-1,-1,-1,-1,-1,-1,-1,-1,-1,-1,-1],"split_conditions":[4.8E1,1.5E1,1.07E2,8E0,4.05E2,7E0,8.488E2,4E0,8.1E1,1E0,1E0,1E0,1E0,1E0,1.4E2,-3.1761214E-2,-2.0457027E-2,-1.6180236E-2,-6.8497444E-3,-1.759357E-3,-1.01690395E-2,1.1365634E-2,1.0031598E-3,1.060228E-2,3.3519752E-2,6.3218013E-3,-1.3106576E-3,8.2628345E-3,1.9677332E-2,1.8849298E-2,2.7965635E-2],"split_indices":[4,3,4,4,1,7,1,4,15,71,71,70,71,11,4,0,0,0,0,0,0,0,0,0,0,0,0,0,0,0,0],"split_type":[0,0,0,0,0,0,0,0,0,0,0,0,0,0,0,0,0,0,0,0,0,0,0,0,0,0,0,0,0,0,0],"sum_hessian":[2.2677842E5,1.5576792E5,7.101051E4,4.41255E4,1.11642414E5,4.553084E4,2.5479664E4,8.554137E3,3.5571363E4,8.7463086E4,2.4179328E4,2.606472E4,1.9466117E4,1.4858991E4,1.0620674E4,1.897303E3,6.656834E3,1.3317067E4,2.2254295E4,6.013913E4,2.7323957E4,5.232075E3,1.8947252E4,2.4597291E4,1.4674314E3,7.132893E3,1.2333225E4,1.4858392E3,1.3373152E4,2.28172E3,8.338953E3],"tree_param":{"num_deleted":"0","num_feature":"127","num_nodes":"31","size_leaf_vector":"1"}},{"base_weights":[7.311243E-4,-7.867352E-2,3.2933834E-1,-2.0415902E-1,-1.1446207E-3,2.2921439E-1,4.5227215E-1,-4.0375668E-1,-1.4598985E-1,8.866141E-2,-7.160276E-2,2.8925842E-1,5.7045806E-2,3.831057E-1,5.440661E-1,-2.890721E-2,-1.7484127E-2,-8.141485E-3,1.3580382E-2,3.708041E-3,2.9533384E-2,-8.122711E-3,1.2551538E-4,2.3533894E-2,1.1726671E-2,-3.7067556E-3,1.0830007E-2,2.5375297E-3,2.010922E-2,2.4139283E-2,2.9308585E-2],"categories":[],"categories_nodes":[],"categories_segments":[],"categories_sizes":[],"default_left":[0,0,0,0,0,0,0,0,0,0,0,0,0,0,0,0,0,0,0,0,0,0,0,0,0,0,0,0,0,0,0],"id":13,"left_children":[1,3,5,7,9,11,13,15,17,19,21,23,25,27,29,-1,-1,-1,-1,-1,-1,-1,-1,-1,-1,-1,-1,-1,-1,-1,-1],"loss_changes":[5.798315E3,1.7411207E3,5.3199756E2,7.93323E2,7.00003E2,2.4635828E2,1.2267554E2,1.4487964E2,3.7226355E2,3.5384766E2,4.174388E2,1.7514331E2,1.291389E2,7.01272E1,2.0779785E1,0E0,0E0,0E0,0E0,0E0,0E0,0E0,0E0,0E0,0E0,0E0,0E0,0E0,0E0,0E0,0E0],"parents":[2147483647,0,0,1,1,2,2,3,3,4,4,5,5,6,6,7,7,8,8,9,9,10,10,11,11,12,12,13,13,14,14],"right_children":[2,4,6,8,10,12,14,16,18,20,22,24,26,28,30,-1,-1,-1,-1,-1,-1,-1,-1,-1,-1,-1,-1,-1,-1,-1,-1],"split_conditions":[7E1,1.8E1,1.32E2,7.482518E-1,7E0,1E1,8.488E2,8E0,1E0,1E0,8.5554665E-1,1E0,8.609112E-1,6.79538E-1,2.73E2,-2.890721E-2,-1.7484127E-2,-8.141485E-3,1.3580382E-2,3.708041E-3,2.9533384E-2,-8.122711E-3,1.2551538E-4,2.3533894E-2,1.1726671E-2,-3.7067556E-3,1.0830007E-2,2.5375297E-3,2.010922E-2,2.4139283E-2,2.9308585E-2],"split_indices":[4,4,4,5,7,7,1,3,65,70,5,71,5,5,4,0,0,0,0,0,0,0,0,0,0,0,0,0,0,0,0],"split_type":[0,0,0,0,0,0,0,0,0,0,0,0,0,0,0,0,0,0,0,0,0,0,0,0,0,0,0,0,0,0,0],"sum_hessian":[2.2221236E5,1.7896767E5,4.3244684E4,6.834374E4,1.1062394E5,2.3837273E4,1.9407412E4,1.5419585E4,5.2924156E4,4.863327E4,6.1990668E4,1.7671932E4,6.1653413E3,1.1074662E4,8.332749E3,3.6443862E3,1.1775199E4,5.0874207E4,2.0499504E3,4.727044E4,1.3628257E3,2.7850182E4,3.4140484E4,4.0912017E3,1.358073E4,3.3835862E3,2.7817554E3,6.020463E2,1.0472616E4,3.4052522E3,4.9274966E3],"tree_param":{"num_deleted":"0","num_feature":"127","num_nodes":"31","size_leaf_vector":"1"}},{"base_weights":[-2.790198E-4,-1.06268354E-1,2.4190311E-1,-2.9353324E-1,-6.011887E-2,1.3672744E-1,4.1193834E-1,-4.670486E-1,-2.2072332E-1,-2.4823566E-1,-3.5881437E-2,3.9126147E-2,2.4205972E-1,2.2362928E-1,4.408036E-1,-2.6716355E-2,-1.7970148E-2,-1.5923044E-2,-5.628317E-3,-1.3814359E-2,5.5814944E-3,1.379561E-3,-5.633214E-3,9.479703E-3,-2.3284506E-3,1.1331711E-2,2.6971195E-2,6.940531E-3,1.7098397E-2,1.8500099E-2,2.5603557E-2],"categories":[],"categories_nodes":[],"categories_segments":[],"categories_sizes":[],"default_left":[0,0,0,0,0,0,0,0,0,0,0,0,0,0,0,0,0,0,0,0,0,0,0,0,0,0,0,0,0,0,0],"id":14,"left_children":[1,3,5,7,9,11,13,15,17,19,21,23,25,27,29,-1,-1,-1,-1,-1,-1,-1,-1,-1,-1,-1,-1,-1,-1,-1,-1],"loss_changes":[5.5862183E3,1.308155E3,1.1845796E3,3.7779932E2,5.53697E2,4.207713E2,1.3731348E2,6.3532593E1,2.2277051E2,1.4001129E2,5.243858E2,2.7404752E2,8.994263E1,3.3655167E1,1.10239746E2,0E0,0E0,0E0,0E0,0E0,0E0,0E0,0E0,0E0,0E0,0E0,0E0,0E0,0E0,0E0,0E0],"parents":[2147483647,0,0,1,1,2,2,3,3,4,4,5,5,6,6,7,7,8,8,9,9,10,10,11,11,12,12,13,13,14,14],"right_children":[2,4,6,8,10,12,14,16,18,20,22,24,26,28,30,-1,-1,-1,-1,-1,-1,-1,-1,-1,-1,-1,-1,-1,-1,-1,-1],"split_conditions":[4.9E1,7.698097E-1,1.01E2,1.1E1,9E0,8.796257E-1,8.02551E-1,1E0,6.166667E-1,1E0,1E0,1E0,1E0,9.2435896E-1,1.7E2,-2.6716355E-2,-1.7970148E-2,-1.5923044E-2,-5.628317E-3,-1.3814359E-2,5.5814944E-3,1.379561E-3,-5.633214E-3,9.479703E-3,-2.3284506E-3,1.1331711E-2,2.6971195E-2,6.940531E-3,1.7098397E-2,1.8500099E-2,2.5603557E-2],"split_indices":[4,5,4,4,4,5,5,11,10,65,71,71,70,10,4,0,0,0,0,0,0,0,0,0,0,0,0,0,0,0,0],"split_type":[0,0,0,0,0,0,0,0,0,0,0,0,0,0,0,0,0,0,0,0,0,0,0,0,0,0,0,0,0,0,0],"sum_hessian":[2.1762423E5,1.513769E5,6.624732E4,2.9926701E4,1.2145021E5,4.0932758E4,2.5314559E4,8.842057E3,2.1084643E4,1.3859124E4,1.07591086E5,2.1248234E4,1.9684525E4,3.367646E3,2.1946914E4,5.435531E3,3.4065261E3,1.1073052E4,1.0011591E4,1.2857744E4,1.00137994E3,5.890035E4,4.869074E4,7.709982E3,1.3538252E4,1.8717594E4,9.6693066E2,1.9649156E3,1.4027305E3,1.1016716E4,1.0930198E4],"tree_param":{"num_deleted":"0","num_feature":"127","num_nodes":"31","size_leaf_vector":"1"}},{"base_weights":[9.7427727E-4,-8.196453E-2,2.9641977E-1,-2.0388173E-1,-1.3030589E-2,2.011559E-1,4.4255024E-1,-3.7861174E-1,-1.4212714E-1,-7.279126E-2,8.1753656E-2,2.0326141E-2,2.538112E-1,3.2029238E-1,4.8665372E-1,-2.9928913E-2,-1.6773492E-2,-1.5936451E-2,-5.0696405E-3,-4.099732E-3,2.350088E-2,3.0073049E-3,1.5007217E-2,-6.574495E-3,5.08358E-3,1.4608462E-2,2.2433922E-3,1.2905577E-2,2.2248933E-2,1.8656766E-2,2.6184937E-2],"categories":[],"categories_nodes":[],"categories_segments":[],"categories_sizes":[],"default_left":[0,0,0,0,0,0,0,0,0,0,0,0,0,0,0,0,0,0,0,0,0,0,0,0,0,0,0,0,0,0,0],"id":15,"left_children":[1,3,5,7,9,11,13,15,17,19,21,23,25,27,29,-1,-1,-1,-1,-1,-1,-1,-1,-1,-1,-1,-1,-1,-1,-1,-1],"loss_changes":[5.240245E3,1.4032773E3,6.522715E2,6.505808E2,6.042246E2,2.701786E2,9.930054E1,1.4889624E2,3.2046008E2,3.268532E2,1.9455319E2,7.909862E1,1.7608081E2,3.7734802E1,5.6616943E1,0E0,0E0,0E0,0E0,0E0,0E0,0E0,0E0,0E0,0E0,0E0,0E0,0E0,0E0,0E0,0E0],"parents":[2147483647,0,0,1,1,2,2,3,3,4,4,5,5,6,6,7,7,8,8,9,9,10,10,11,11,12,12,13,13,14,14],"right_children":[2,4,6,8,10,12,14,16,18,20,22,24,26,28,30,-1,-1,-1,-1,-1,-1,-1,-1,-1,-1,-1,-1,-1,-1,-1,-1],"split_conditions":[6.4E1,8.372758E-1,1.32E2,1.2E1,2.9E1,7E-1,3.505E2,5E0,6.680924E-1,1E0,1E0,7.632705E-1,1E0,5.7E1,8.5091656E-1,-2.9928913E-2,-1.6773492E-2,-1.5936451E-2,-5.0696405E-3,-4.099732E-3,2.350088E-2,3.0073049E-3,1.5007217E-2,-6.574495E-3,5.08358E-3,1.4608462E-2,2.2433922E-3,1.2905577E-2,2.2248933E-2,1.8656766E-2,2.6184937E-2],"split_indices":[4,5,4,4,4,10,1,4,5,40,69,5,43,3,5,0,0,0,0,0,0,0,0,0,0,0,0,0,0,0,0],"split_type":[0,0,0,0,0,0,0,0,0,0,0,0,0,0,0,0,0,0,0,0,0,0,0,0,0,0,0,0,0,0,0],"sum_hessian":[2.1384825E5,1.6697517E5,4.687309E4,6.0307926E4,1.0666724E5,2.837859E4,1.84945E4,1.5745238E4,4.4562688E4,6.5421547E4,4.1245695E4,6.401179E3,2.1977412E4,4.9082944E3,1.3586205E4,2.5769563E3,1.3168282E4,8.348935E3,3.6213754E4,6.4332754E4,1.0887924E3,3.7535203E4,3.7104922E3,2.2321719E3,4.1690073E3,1.8567295E4,3.410117E3,3.2799382E3,1.6283562E3,3.3492292E3,1.0236977E4],"tree_param":{"num_deleted":"0","num_feature":"127","num_nodes":"31","size_leaf_vector":"1"}},{"base_weights":[3.3269357E-4,-9.281277E-2,2.5186163E-1,-3.4661353E-1,-6.275666E-2,1.5459497E-1,4.094371E-1,-5.198771E-1,-2.8551158E-1,-1.7896011E-1,-1.3524265E-2,2.1863207E-2,2.2928686E-1,3.505812E-1,4.9226305E-1,-2.7167076E-2,-4.2121927E-3,-2.114976E-2,-1.1171031E-2,-2.368482E-2,-7.5011724E-3,-1.7856855E-3,6.6260225E-3,7.873709E-3,-3.961364E-3,1.0370269E-2,3.0255387E-2,7.5743333E-3,1.8611763E-2,2.11122E-2,2.8038425E-2],"categories":[],"categories_nodes":[],"categories_segments":[],"categories_sizes":[],"default_left":[0,0,0,0,0,0,0,0,0,0,0,0,0,0,0,0,0,0,0,0,0,0,0,0,0,0,0,0,0,0,0],"id":16,"left_children":[1,3,5,7,9,11,13,15,17,19,21,23,25,27,29,-1,-1,-1,-1,-1,-1,-1,-1,-1,-1,-1,-1,-1,-1,-1,-1],"loss_changes":[4.9156914E3,1.1678774E3,8.6883203E2,1.7120715E2,7.831857E2,3.4756976E2,1.0501636E2,4.2985596E1,1.02065674E2,3.4722473E2,3.1163202E2,1.731676E2,1.8413269E2,5.4380737E1,4.2468506E1,0E0,0E0,0E0,0E0,0E0,0E0,0E0,0E0,0E0,0E0,0E0,0E0,0E0,0E0,0E0,0E0],"parents":[2147483647,0,0,1,1,2,2,3,3,4,4,5,5,6,6,7,7,8,8,9,9,10,10,11,11,12,12,13,13,14,14],"right_children":[2,4,6,8,10,12,14,16,18,20,22,24,26,28,30,-1,-1,-1,-1,-1,-1,-1,-1,-1,-1,-1,-1,-1,-1,-1,-1],"split_conditions":[5.4E1,6.9525546E-1,1.13E2,1E1,1.7E1,1E0,8.488E2,2.11E2,1.2E1,6E0,1E0,1E0,1E0,1E0,2.73E2,-2.7167076E-2,-4.2121927E-3,-2.114976E-2,-1.1171031E-2,-2.368482E-2,-7.5011724E-3,-1.7856855E-3,6.6260225E-3,7.873709E-3,-3.961364E-3,1.0370269E-2,3.0255387E-2,7.5743333E-3,1.8611763E-2,2.11122E-2,2.8038425E-2],"split_indices":[4,5,4,3,3,10,1,1,4,4,69,71,70,11,4,0,0,0,0,0,0,0,0,0,0,0,0,0,0,0,0],"split_type":[0,0,0,0,0,0,0,0,0,0,0,0,0,0,0,0,0,0,0,0,0,0,0,0,0,0,0,0,0,0,0],"sum_hessian":[2.0980925E5,1.5311048E5,5.669876E4,1.6209307E4,1.3690117E5,3.5061348E4,2.1637414E4,4.221408E3,1.1987898E4,4.0738227E4,9.616295E4,1.2627014E4,2.2434336E4,1.2656217E4,8.981197E3,4.004856E3,2.1655197E2,3.7252673E3,8.262632E3,3.638823E3,3.7099402E4,8.3481625E4,1.2681324E4,5.3929033E3,7.2341104E3,2.1203314E4,1.2310209E3,1.2437429E3,1.1412474E4,4.449698E3,4.531499E3],"tree_param":{"num_deleted":"0","num_feature":"127","num_nodes":"31","size_leaf_vector":"1"}},{"base_weights":[-6.8196736E-4,-7.227082E-2,3.1908324E-1,-1.6920361E-1,1.5515225E-2,2.3019722E-1,4.2035285E-1,-3.068534E-1,-1.0311508E-1,8.889388E-2,-6.1005615E-2,2.8573376E-1,7.413259E-2,3.0344576E-1,4.6569282E-1,-2.0251019E-2,-9.86242E-3,-2.489226E-3,-1.1927905E-2,3.7012943E-3,3.080493E-2,-6.925355E-3,6.2387664E-4,2.2656823E-2,1.1811218E-2,-2.3674583E-3,1.0877455E-2,-2.0620758E-3,1.6555637E-2,1.63284E-2,2.5262697E-2],"categories":[],"categories_nodes":[],"categories_segments":[],"categories_sizes":[],"default_left":[0,0,0,0,0,0,0,0,0,0,0,0,0,0,0,0,0,0,0,0,0,0,0,0,0,0,0,0,0,0,0],"id":17,"left_children":[1,3,5,7,9,11,13,15,17,19,21,23,25,27,29,-1,-1,-1,-1,-1,-1,-1,-1,-1,-1,-1,-1,-1,-1,-1,-1],"loss_changes":[4.735631E3,1.4383738E3,3.4034302E2,7.3065796E2,4.980742E2,1.7462305E2,9.334595E1,2.8010376E2,3.9199255E2,3.547494E2,2.4730896E2,1.2289453E2,9.228388E1,4.7266052E1,6.96582E1,0E0,0E0,0E0,0E0,0E0,0E0,0E0,0E0,0E0,0E0,0E0,0E0,0E0,0E0,0E0,0E0],"parents":[2147483647,0,0,1,1,2,2,3,3,4,4,5,5,6,6,7,7,8,8,9,9,10,10,11,11,12,12,13,13,14,14],"right_children":[2,4,6,8,10,12,14,16,18,20,22,24,26,28,30,-1,-1,-1,-1,-1,-1,-1,-1,-1,-1,-1,-1,-1,-1,-1,-1],"split_conditions":[7.2E1,2.2E1,1.32E2,8.0705094E-1,8E0,1E1,8.456016E-1,1.9E1,1E0,1E0,8.639112E-1,1E0,8.5554665E-1,2.6242E4,2.6242E4,-2.0251019E-2,-9.86242E-3,-2.489226E-3,-1.1927905E-2,3.7012943E-3,3.080493E-2,-6.925355E-3,6.2387664E-4,2.2656823E-2,1.1811218E-2,-2.3674583E-3,1.0877455E-2,-2.0620758E-3,1.6555637E-2,1.63284E-2,2.5262697E-2],"split_indices":[4,4,4,5,7,7,5,3,71,70,5,71,5,6,6,0,0,0,0,0,0,0,0,0,0,0,0,0,0,0,0],"split_type":[0,0,0,0,0,0,0,0,0,0,0,0,0,0,0,0,0,0,0,0,0,0,0,0,0,0,0,0,0,0,0],"sum_hessian":[2.0686938E5,1.6902922E5,3.784015E4,8.032962E4,8.86996E4,2.0156488E4,1.768366E4,2.605418E4,5.4275438E4,4.5280293E4,4.341931E4,1.4864312E4,5.2921777E3,4.9469263E3,1.2736733E4,1.3740678E4,1.2313503E4,3.89448E4,1.5330639E4,4.404084E4,1.239455E3,2.1132002E4,2.2287307E4,3.3883123E3,1.1475999E4,2.8653557E3,2.426822E3,3.6709512E2,4.579831E3,2.8248513E3,9.911882E3],"tree_param":{"num_deleted":"0","num_feature":"127","num_nodes":"31","size_leaf_vector":"1"}},{"base_weights":[-1.7376228E-4,-1.15933314E-1,1.8996686E-1,-3.661313E-1,-8.607748E-2,1.0899515E-1,3.8054127E-1,-4.2840898E-1,-2.105459E-1,-3.2569206E-1,-6.6200584E-2,2.0577207E-2,2.0685373E-1,3.1362763E-1,4.513896E-1,-2.2658681E-2,-7.7697597E-3,-1.7756503E-2,-6.4289966E-3,-2.896635E-2,-1.41652245E-2,-8.6262665E-4,-7.4281334E-3,1.0657048E-2,-1.8539991E-3,9.6885925E-3,2.4919067E-2,2.2606567E-2,1.2391005E-2,1.5463702E-2,2.428258E-2],"categories":[],"categories_nodes":[],"categories_segments":[],"categories_sizes":[],"default_left":[0,0,0,0,0,0,0,0,0,0,0,0,0,0,0,0,0,0,0,0,0,0,0,0,0,0,0,0,0,0,0],"id":18,"left_children":[1,3,5,7,9,11,13,15,17,19,21,23,25,27,29,-1,-1,-1,-1,-1,-1,-1,-1,-1,-1,-1,-1,-1,-1,-1,-1],"loss_changes":[4.461899E3,9.411062E2,1.1835974E3,1.2987183E2,5.360678E2,4.6581256E2,1.080376E2,6.460437E1,4.5393845E1,9.2237854E1,4.1905887E2,3.1411243E2,9.7163086E1,1.06957886E2,5.364868E1,0E0,0E0,0E0,0E0,0E0,0E0,0E0,0E0,0E0,0E0,0E0,0E0,0E0,0E0,0E0,0E0],"parents":[2147483647,0,0,1,1,2,2,3,3,4,4,5,5,6,6,7,7,8,8,9,9,10,10,11,11,12,12,13,13,14,14],"right_children":[2,4,6,8,10,12,14,16,18,20,22,24,26,28,30,-1,-1,-1,-1,-1,-1,-1,-1,-1,-1,-1,-1,-1,-1,-1,-1],"split_conditions":[3.9E1,6.898653E-1,1.01E2,3.3E1,7E0,8.772112E-1,1.7E2,1.480303E0,6.332724E-1,3E0,1E0,2.5123E4,1E0,1E0,8.302607E-1,-2.2658681E-2,-7.7697597E-3,-1.7756503E-2,-6.4289966E-3,-2.896635E-2,-1.41652245E-2,-8.6262665E-4,-7.4281334E-3,1.0657048E-2,-1.8539991E-3,9.6885925E-3,2.4919067E-2,2.2606567E-2,1.2391005E-2,1.5463702E-2,2.428258E-2],"split_indices":[4,5,4,3,4,5,4,10,5,4,71,6,70,71,5,0,0,0,0,0,0,0,0,0,0,0,0,0,0,0,0],"split_type":[0,0,0,0,0,0,0,0,0,0,0,0,0,0,0,0,0,0,0,0,0,0,0,0,0,0,0,0,0,0,0],"sum_hessian":[2.027125E5,1.2600248E5,7.671002E4,1.3429869E4,1.125726E5,5.38388E4,2.2871227E4,9.587654E3,3.8422148E3,8.6200625E3,1.0395254E5,2.8285773E4,2.5553025E4,1.1768902E4,1.1102323E4,8.788587E3,7.9906757E2,1.3870419E3,2.4551729E3,1.2301755E3,7.3898867E3,6.5205152E4,3.874739E4,6.51711E3,2.1768664E4,2.4459291E4,1.0937338E3,3.7861833E3,7.9827188E3,2.1614128E3,8.940911E3],"tree_param":{"num_deleted":"0","num_feature":"127","num_nodes":"31","size_leaf_vector":"1"}},{"base_weights":[-3.3349136E-4,-8.164614E-2,2.5619233E-1,-1.9982912E-1,-2.0507116E-2,1.6231507E-1,3.860622E-1,-3.7463665E-1,-1.44101E-1,-9.561394E-2,5.5675764E-2,7.9708155E-3,2.1874243E-1,2.920093E-1,4.3076786E-1,-2.2657655E-2,-1.2796399E-2,-8.142315E-3,1.2542399E-2,-7.276877E-4,-7.574638E-3,7.2317215E-4,8.032526E-3,7.689932E-3,-8.34598E-3,1.9561304E-2,8.654019E-3,9.5176086E-4,1.5996099E-2,1.5473385E-2,2.3741266E-2],"categories":[],"categories_nodes":[],"categories_segments":[],"categories_sizes":[],"default_left":[0,0,0,0,0,0,0,0,0,0,0,0,0,0,0,0,0,0,0,0,0,0,0,0,0,0,0,0,0,0,0],"id":19,"left_children":[1,3,5,7,9,11,13,15,17,19,21,23,25,27,29,-1,-1,-1,-1,-1,-1,-1,-1,-1,-1,-1,-1,-1,-1,-1,-1],"loss_changes":[4.1639155E3,1.0952058E3,5.855654E2,5.0325586E2,5.7164014E2,2.428783E2,8.4392334E1,1.1608191E2,2.9021246E2,2.2784277E2,2.145335E2,1.9056105E2,1.6063715E2,4.947406E1,7.257495E1,0E0,0E0,0E0,0E0,0E0,0E0,0E0,0E0,0E0,0E0,0E0,0E0,0E0,0E0,0E0,0E0],"parents":[2147483647,0,0,1,1,2,2,3,3,4,4,5,5,6,6,7,7,8,8,9,9,10,10,11,11,12,12,13,13,14,14],"right_children":[2,4,6,8,10,12,14,16,18,20,22,24,26,28,30,-1,-1,-1,-1,-1,-1,-1,-1,-1,-1,-1,-1,-1,-1,-1,-1],"split_conditions":[5.9E1,1.6E1,1.13E2,7.632705E-1,8.708989E-1,8.252245E-1,8.5279816E-1,1E0,1E0,7E0,4.3075E2,1E0,1E0,2.6242E4,2.6242E4,-2.2657655E-2,-1.2796399E-2,-8.142315E-3,1.2542399E-2,-7.276877E-4,-7.574638E-3,7.2317215E-4,8.032526E-3,7.689932E-3,-8.34598E-3,1.9561304E-2,8.654019E-3,9.5176086E-4,1.5996099E-2,1.5473385E-2,2.3741266E-2],"split_indices":[4,4,4,5,5,5,5,11,65,7,1,71,71,6,6,0,0,0,0,0,0,0,0,0,0,0,0,0,0,0,0],"split_type":[0,0,0,0,0,0,0,0,0,0,0,0,0,0,0,0,0,0,0,0,0,0,0,0,0,0,0,0,0,0,0],"sum_hessian":[1.9962122E5,1.5157686E5,4.804435E4,5.1677066E4,9.9899805E4,2.7889736E4,2.0154615E4,1.24886455E4,3.918842E4,5.0305906E4,4.9593895E4,7.467907E3,2.0421828E4,6.4994106E3,1.3655205E4,7.5126914E3,4.9759536E3,3.74142E4,1.7742205E3,2.0529764E4,2.977614E4,3.5615297E4,1.3978599E4,4.0729133E3,3.394994E3,4.2708228E3,1.6151006E4,6.037478E2,5.8956626E3,3.6434392E3,1.0011767E4],"tree_param":{"num_deleted":"0","num_feature":"127","num_nodes":"31","size_leaf_vector":"1"}},{"base_weights":[-1.3462375E-3,-9.436698E-2,2.1643041E-1,-1.8777801E-1,-2.1146642E-2,1.2476733E-1,3.6904615E-1,-4.0500322E-1,-1.47539E-1,-1.24530986E-1,2.2523059E-2,7.1440134E-3,1.9712853E-1,2.8115517E-1,4.272696E-1,-2.7510498E-2,-1.759055E-2,-1.6070833E-2,-5.81651E-3,-1.3145799E-2,-2.294122E-3,-1.998956E-3,4.0507386E-3,-3.4368963E-3,6.7005004E-3,8.8096615E-3,2.8918354E-2,3.2376368E-3,1.5369773E-2,1.8696385E-2,2.4895875E-2],"categories":[],"categories_nodes":[],"categories_segments":[],"categories_sizes":[],"default_left":[0,0,0,0,0,0,0,0,0,0,0,0,0,0,0,0,0,0,0,0,0,0,0,0,0,0,0,0,0,0,0],"id":20,"left_children":[1,3,5,7,9,11,13,15,17,19,21,23,25,27,29,-1,-1,-1,-1,-1,-1,-1,-1,-1,-1,-1,-1,-1,-1,-1,-1],"loss_changes":[3.9844453E3,9.4259656E2,8.233484E2,5.2914185E2,3.4884647E2,3.1303064E2,1.1268408E2,7.256897E1,2.771449E2,2.4966562E2,1.985974E2,1.3492264E2,1.8143066E2,4.992267E1,4.954834E1,0E0,0E0,0E0,0E0,0E0,0E0,0E0,0E0,0E0,0E0,0E0,0E0,0E0,0E0,0E0,0E0],"parents":[2147483647,0,0,1,1,2,2,3,3,4,4,5,5,6,6,7,7,8,8,9,9,10,10,11,11,12,12,13,13,14,14],"right_children":[2,4,6,8,10,12,14,16,18,20,22,24,26,28,30,-1,-1,-1,-1,-1,-1,-1,-1,-1,-1,-1,-1,-1,-1,-1,-1],"split_conditions":[4.9E1,8.5554665E-1,1.01E2,9E0,1.7E1,1E0,8.6617225E-1,7E0,6.659632E-1,8.1E1,8.1E1,8.708989E-1,1E0,6.9525546E-1,1.8E2,-2.7510498E-2,-1.759055E-2,-1.6070833E-2,-5.81651E-3,-1.3145799E-2,-2.294122E-3,-1.998956E-3,4.0507386E-3,-3.4368963E-3,6.7005004E-3,8.8096615E-3,2.8918354E-2,3.2376368E-3,1.5369773E-2,1.8696385E-2,2.4895875E-2],"split_indices":[4,5,4,4,3,10,5,3,5,15,15,5,70,5,4,0,0,0,0,0,0,0,0,0,0,0,0,0,0,0,0],"split_type":[0,0,0,0,0,0,0,0,0,0,0,0,0,0,0,0,0,0,0,0,0,0,0,0,0,0,0,0,0,0,0],"sum_hessian":[1.9668438E5,1.378186E5,5.8865773E4,6.0557297E4,7.72613E4,3.677989E4,2.2085883E4,9.461063E3,5.109623E4,2.2943715E4,5.4317582E4,1.401033E4,2.276956E4,8.806419E3,1.3279464E4,2.5308142E3,6.9302495E3,7.7719517E3,4.332428E4,8.311948E3,1.4631767E4,2.625765E4,2.8059932E4,8.766555E3,5.2437764E3,2.1587428E4,1.1821326E3,9.537272E2,7.852692E3,7.574857E3,5.7046064E3],"tree_param":{"num_deleted":"0","num_feature":"127","num_nodes":"31","size_leaf_vector":"1"}},{"base_weights":[-1.1599638E-3,-1.0787024E-1,1.8172868E-1,-3.3854383E-1,-7.909386E-2,9.013424E-2,3.3097684E-1,-4.1532424E-1,-2.1712908E-1,-1.9424894E-1,-3.9385676E-2,-1.5231182E-2,1.5833655E-1,2.7426374E-1,4.2139685E-1,-2.385107E-2,-1.3824183E-2,-1.7527236E-2,-7.595055E-3,-2.9615087E-2,-8.74406E-3,5.022403E-4,-5.661854E-3,-4.1013258E-3,3.9414396E-3,1.6421644E-2,5.389124E-3,2.1389524E-2,1.0762188E-2,1.3940523E-2,2.2838099E-2],"categories":[],"categories_nodes":[],"categories_segments":[],"categories_sizes":[],"default_left":[0,0,0,0,0,0,0,0,0,0,0,0,0,0,0,0,0,0,0,0,0,0,0,0,0,0,0,0,0,0,0],"id":21,"left_children":[1,3,5,7,9,11,13,15,17,19,21,23,25,27,29,-1,-1,-1,-1,-1,-1,-1,-1,-1,-1,-1,-1,-1,-1,-1,-1],"loss_changes":[3.7810935E3,8.12062E2,9.7578784E2,1.2622278E2,4.9738586E2,3.17961E2,1.3888184E2,7.080481E1,4.5607925E1,2.1470935E2,2.9532983E2,1.09244385E2,2.3082428E2,1.5095654E2,5.237903E1,0E0,0E0,0E0,0E0,0E0,0E0,0E0,0E0,0E0,0E0,0E0,0E0,0E0,0E0,0E0,0E0],"parents":[2147483647,0,0,1,1,2,2,3,3,4,4,5,5,6,6,7,7,8,8,9,9,10,10,11,11,12,12,13,13,14,14],"right_children":[2,4,6,8,10,12,14,16,18,20,22,24,26,28,30,-1,-1,-1,-1,-1,-1,-1,-1,-1,-1,-1,-1,-1,-1,-1,-1],"split_conditions":[4E1,6.9783455E-1,8.5E1,2.6E1,1.4E1,8.5E-1,1.7E2,1E0,6.332724E-1,2E0,1E0,8.6856157E-1,2.5123E4,1E0,8.314385E-1,-2.385107E-2,-1.3824183E-2,-1.7527236E-2,-7.595055E-3,-2.9615087E-2,-8.74406E-3,5.022403E-4,-5.661854E-3,-4.1013258E-3,3.9414396E-3,1.6421644E-2,5.389124E-3,2.1389524E-2,1.0762188E-2,1.3940523E-2,2.2838099E-2],"split_indices":[4,5,4,3,3,10,4,11,5,3,71,5,6,71,5,0,0,0,0,0,0,0,0,0,0,0,0,0,0,0,0],"split_type":[0,0,0,0,0,0,0,0,0,0,0,0,0,0,0,0,0,0,0,0,0,0,0,0,0,0,0,0,0,0,0],"sum_hessian":[1.9373886E5,1.2235175E5,7.13871E4,1.35674375E4,1.0878431E5,4.424061E4,2.7146494E4,8.307718E3,5.2597197E3,2.7890207E4,8.089411E4,1.7383805E4,2.6856803E4,1.6688736E4,1.0457758E4,5.747656E3,2.560062E3,1.72349E3,3.5362297E3,1.2909624E3,2.6599246E4,4.8459035E4,3.2435072E4,1.0166244E4,7.217561E3,6.1500684E3,2.0706734E4,4.629954E3,1.2058783E4,2.0826934E3,8.375064E3],"tree_param":{"num_deleted":"0","num_feature":"127","num_nodes":"31","size_leaf_vector":"1"}},{"base_weights":[8.9990324E-4,-6.902647E-2,2.6720744E-1,-1.970979E-1,-1.4918497E-2,1.8897615E-1,3.8545802E-1,-3.6038682E-1,-1.4486465E-1,-8.672297E-2,5.628609E-2,8.0457576E-2,2.681726E-1,3.0274835E-1,4.433607E-1,-2.176627E-2,-1.2484456E-2,-8.315666E-3,1.1999151E-2,-6.2545533E-3,2.3817967E-3,6.393691E-3,-9.419931E-5,1.1953733E-2,-7.372023E-4,2.1880867E-2,1.1124021E-2,1.6278682E-2,1.5031992E-3,2.3225447E-2,1.306646E-2],"categories":[],"categories_nodes":[],"categories_segments":[],"categories_sizes":[],"default_left":[0,0,0,0,0,0,0,0,0,0,0,0,0,0,0,0,0,0,0,0,0,0,0,0,0,0,0,0,0,0,0],"id":22,"left_children":[1,3,5,7,9,11,13,15,17,19,21,23,25,27,29,-1,-1,-1,-1,-1,-1,-1,-1,-1,-1,-1,-1,-1,-1,-1,-1],"loss_changes":[3.5598186E3,1.049152E3,3.675476E2,3.8334753E2,5.442226E2,2.055788E2,7.541528E1,9.006775E1,2.813224E2,2.7323676E2,2.225722E2,1.5256119E2,1.0680707E2,4.0536865E1,3.5465332E1,0E0,0E0,0E0,0E0,0E0,0E0,0E0,0E0,0E0,0E0,0E0,0E0,0E0,0E0,0E0,0E0],"parents":[2147483647,0,0,1,1,2,2,3,3,4,4,5,5,6,6,7,7,8,8,9,9,10,10,11,11,12,12,13,13,14,14],"right_children":[2,4,6,8,10,12,14,16,18,20,22,24,26,28,30,-1,-1,-1,-1,-1,-1,-1,-1,-1,-1,-1,-1,-1,-1,-1,-1],"split_conditions":[6.5E1,1.5E1,1.32E2,7.632705E-1,8.697799E-1,8.6856157E-1,8.6617225E-1,1E0,1E0,6.1E1,7E0,1E0,1E0,1E0,1E0,-2.176627E-2,-1.2484456E-2,-8.315666E-3,1.1999151E-2,-6.2545533E-3,2.3817967E-3,6.393691E-3,-9.419931E-5,1.1953733E-2,-7.372023E-4,2.1880867E-2,1.1124021E-2,1.6278682E-2,1.5031992E-3,2.3225447E-2,1.306646E-2],"split_indices":[4,4,4,5,5,5,5,11,65,3,7,71,71,41,44,0,0,0,0,0,0,0,0,0,0,0,0,0,0,0,0],"split_type":[0,0,0,0,0,0,0,0,0,0,0,0,0,0,0,0,0,0,0,0,0,0,0,0,0,0,0,0,0,0,0],"sum_hessian":[1.9115723E5,1.514031E5,3.9754133E4,4.4964902E4,1.06438195E5,2.3929508E4,1.5824627E4,1.0893991E4,3.407091E4,5.299669E4,5.3441508E4,1.0098291E4,1.3831216E4,6.522611E3,9.302016E3,6.491944E3,4.4020474E3,3.227373E4,1.7971812E3,4.1225438E4,1.1771254E4,2.3957766E4,2.9483744E4,3.7870964E3,6.311195E3,2.933222E3,1.0897994E4,6.0179365E3,5.0467438E2,8.330283E3,9.7173334E2],"tree_param":{"num_deleted":"0","num_feature":"127","num_nodes":"31","size_leaf_vector":"1"}},{"base_weights":[1.1406312E-3,-7.038733E-2,2.4505205E-1,-1.870855E-1,-1.604246E-2,1.6614199E-1,3.6852595E-1,-4.2952722E-1,-1.5509339E-1,-9.058195E-2,3.8829952E-2,2.2909428E-1,2.5521375E-2,2.5918543E-1,4.070676E-1,-2.439787E-2,-1.3939676E-2,-2.1844639E-2,-6.4591626E-3,-6.472292E-3,2.6534335E-3,-3.0920198E-4,6.5350286E-3,1.949547E-2,8.7803565E-3,7.734742E-3,-2.859024E-3,2.0297414E-3,1.448821E-2,1.6159644E-2,2.245935E-2],"categories":[],"categories_nodes":[],"categories_segments":[],"categories_sizes":[],"default_left":[0,0,0,0,0,0,0,0,0,0,0,0,0,0,0,0,0,0,0,0,0,0,0,0,0,0,0,0,0,0,0],"id":23,"left_children":[1,3,5,7,9,11,13,15,17,19,21,23,25,27,29,-1,-1,-1,-1,-1,-1,-1,-1,-1,-1,-1,-1,-1,-1,-1,-1],"loss_changes":[3.2975789E3,9.2683856E2,4.1739282E2,3.5993628E2,4.0787476E2,2.3146606E2,7.0102295E1,4.7273438E1,2.9934595E2,2.3608493E2,2.3754498E2,1.551607E2,8.6461586E1,2.9078247E1,4.322168E1,0E0,0E0,0E0,0E0,0E0,0E0,0E0,0E0,0E0,0E0,0E0,0E0,0E0,0E0,0E0,0E0],"parents":[2147483647,0,0,1,1,2,2,3,3,4,4,5,5,6,6,7,7,8,8,9,9,10,10,11,11,12,12,13,13,14,14],"right_children":[2,4,6,8,10,12,14,16,18,20,22,24,26,28,30,-1,-1,-1,-1,-1,-1,-1,-1,-1,-1,-1,-1,-1,-1,-1,-1],"split_conditions":[6.1E1,1.8E1,1.25E2,6.7722803E-1,8.5554665E-1,9E0,8.4154296E-1,1.9E1,6E0,1.575E0,3.4E1,1E0,1E0,6.79538E-1,5.3E1,-2.439787E-2,-1.3939676E-2,-2.1844639E-2,-6.4591626E-3,-6.472292E-3,2.6534335E-3,-3.0920198E-4,6.5350286E-3,1.949547E-2,8.7803565E-3,7.734742E-3,-2.859024E-3,2.0297414E-3,1.448821E-2,1.6159644E-2,2.245935E-2],"split_indices":[4,3,4,5,5,7,5,4,4,10,4,71,71,5,3,0,0,0,0,0,0,0,0,0,0,0,0,0,0,0,0],"split_type":[0,0,0,0,0,0,0,0,0,0,0,0,0,0,0,0,0,0,0,0,0,0,0,0,0,0,0,0,0,0,0],"sum_hessian":[1.8900555E5,1.4614792E5,4.2857633E4,4.6432613E4,9.9715305E4,2.615093E4,1.6706705E4,5.4094346E3,4.102318E4,4.2281254E4,5.743405E4,1.8062486E4,8.0884424E3,4.35921E3,1.2347495E4,3.894361E3,1.5150736E3,3.4511257E3,3.7572055E4,3.327904E4,9.002217E3,3.8547234E4,1.8886816E4,4.504329E3,1.3558157E4,3.1572117E3,4.931231E3,5.361477E2,3.8230623E3,4.1347153E3,8.212779E3],"tree_param":{"num_deleted":"0","num_feature":"127","num_nodes":"31","size_leaf_vector":"1"}},{"base_weights":[-6.442929E-4,-8.7910414E-2,2.0066145E-1,-1.9385265E-1,-2.9978793E-2,1.1955788E-1,3.4249124E-1,-3.501818E-1,-1.4189248E-1,-1.0166238E-1,1.9488027E-2,3.5968915E-2,2.1267816E-1,2.4912989E-1,3.9165E-1,-2.7806938E-2,-1.5526717E-2,-8.69584E-3,1.0999028E-3,-1.060972E-2,-1.8905745E-3,1.6706687E-3,-1.1781083E-2,8.418634E-3,-1.8852983E-3,1.41813485E-2,8.099251E-3,6.7282125E-4,1.3884132E-2,1.4442054E-2,2.1814128E-2],"categories":[],"categories_nodes":[],"categories_segments":[],"categories_sizes":[],"default_left":[0,0,0,0,0,0,0,0,0,0,0,0,0,0,0,0,0,0,0,0,0,0,0,0,0,0,0,0,0,0,0],"id":24,"left_children":[1,3,5,7,9,11,13,15,17,19,21,23,25,27,29,-1,-1,-1,-1,-1,-1,-1,-1,-1,-1,-1,-1,-1,-1,-1,-1],"loss_changes":[3.2705374E3,7.970465E2,6.4746045E2,3.7275708E2,2.9775385E2,2.7877667E2,9.370337E1,9.30293E1,1.8090417E2,2.419177E2,1.7648004E2,1.8420479E2,6.0780518E1,4.7528442E1,6.117993E1,0E0,0E0,0E0,0E0,0E0,0E0,0E0,0E0,0E0,0E0,0E0,0E0,0E0,0E0,0E0,0E0],"parents":[2147483647,0,0,1,1,2,2,3,3,4,4,5,5,6,6,7,7,8,8,9,9,10,10,11,11,12,12,13,13,14,14],"right_children":[2,4,6,8,10,12,14,16,18,20,22,24,26,28,30,-1,-1,-1,-1,-1,-1,-1,-1,-1,-1,-1,-1,-1,-1,-1,-1],"split_conditions":[4.8E1,8.363019E-1,1.01E2,1.2E1,2.3E1,8.796257E-1,8.5649645E-1,3E0,1.575E0,8.1E1,1E0,1E0,4E0,2.6242E4,2.6242E4,-2.7806938E-2,-1.5526717E-2,-8.69584E-3,1.0999028E-3,-1.060972E-2,-1.8905745E-3,1.6706687E-3,-1.1781083E-2,8.418634E-3,-1.8852983E-3,1.41813485E-2,8.099251E-3,6.7282125E-4,1.3884132E-2,1.4442054E-2,2.1814128E-2],"split_indices":[4,5,4,3,3,5,5,3,10,15,44,71,7,6,6,0,0,0,0,0,0,0,0,0,0,0,0,0,0,0,0],"split_type":[0,0,0,0,0,0,0,0,0,0,0,0,0,0,0,0,0,0,0,0,0,0,0,0,0,0,0,0,0,0,0],"sum_hessian":[1.8617022E5,1.2987237E5,5.6297848E4,4.590906E4,8.3963305E4,3.5819605E4,2.0478246E4,1.144896E4,3.44601E4,3.4283363E4,4.967994E4,1.8878129E4,1.6941475E4,7.0686973E3,1.3409549E4,1.8433684E3,9.605592E3,2.88279E4,5.632199E3,1.2550407E4,2.1732955E4,4.71107E4,2.5692454E3,6.7489014E3,1.2129228E4,7.055137E3,9.886338E3,7.647411E2,6.303956E3,4.064795E3,9.344754E3],"tree_param":{"num_deleted":"0","num_feature":"127","num_nodes":"31","size_leaf_vector":"1"}},{"base_weights":[-6.338979E-4,-8.385047E-2,1.9782612E-1,-2.512024E-1,-4.9947243E-2,1.1669205E-1,3.3588687E-1,-4.0865564E-1,-1.8818998E-1,-1.0668346E-1,1.9941732E-2,-1.9217111E-3,1.907044E-1,2.5394067E-1,3.8786075E-1,-2.2668665E-2,-1.3314108E-2,-1.3805935E-2,-4.505466E-3,-9.6617155E-3,-2.644336E-3,-4.488073E-4,1.0865999E-2,-5.570861E-3,3.9137728E-3,8.54868E-3,2.756298E-2,2.475766E-3,1.3985792E-2,1.4141117E-2,2.1832412E-2],"categories":[],"categories_nodes":[],"categories_segments":[],"categories_sizes":[],"default_left":[0,0,0,0,0,0,0,0,0,0,0,0,0,0,0,0,0,0,0,0,0,0,0,0,0,0,0,0,0,0,0],"id":25,"left_children":[1,3,5,7,9,11,13,15,17,19,21,23,25,27,29,-1,-1,-1,-1,-1,-1,-1,-1,-1,-1,-1,-1,-1,-1,-1,-1],"loss_changes":[3.0333289E3,7.341644E2,6.076633E2,2.1603369E2,4.2672354E2,3.000978E2,8.52417E1,3.9302124E1,1.3419635E2,2.7650092E2,2.7524905E2,1.15358604E2,1.4944202E2,4.1027496E1,6.259485E1,0E0,0E0,0E0,0E0,0E0,0E0,0E0,0E0,0E0,0E0,0E0,0E0,0E0,0E0,0E0,0E0],"parents":[2147483647,0,0,1,1,2,2,3,3,4,4,5,5,6,6,7,7,8,8,9,9,10,10,11,11,12,12,13,13,14,14],"right_children":[2,4,6,8,10,12,14,16,18,20,22,24,26,28,30,-1,-1,-1,-1,-1,-1,-1,-1,-1,-1,-1,-1,-1,-1,-1,-1],"split_conditions":[4.9E1,7.5844234E-1,1.01E2,1.1E1,3.1E1,1E0,8.62901E-1,2.9E1,6.166667E-1,8.3E1,1E0,8.1457114E-1,1E0,2.6242E4,2.6242E4,-2.2668665E-2,-1.3314108E-2,-1.3805935E-2,-4.505466E-3,-9.6617155E-3,-2.644336E-3,-4.488073E-4,1.0865999E-2,-5.570861E-3,3.9137728E-3,8.54868E-3,2.756298E-2,2.475766E-3,1.3985792E-2,1.4141117E-2,2.1832412E-2],"split_indices":[4,5,4,4,3,10,5,3,10,15,69,5,70,6,6,0,0,0,0,0,0,0,0,0,0,0,0,0,0,0,0],"split_type":[0,0,0,0,0,0,0,0,0,0,0,0,0,0,0,0,0,0,0,0,0,0,0,0,0,0,0,0,0,0,0],"sum_hessian":[1.8366636E5,1.2940659E5,5.425977E4,2.1796793E4,1.07609805E5,3.4178746E4,2.0081023E4,6.226037E3,1.5570756E4,5.93943E4,4.8215504E4,1.3132401E4,2.1046344E4,7.7990586E3,1.2281965E4,4.733791E3,1.4922458E3,8.207564E3,7.363192E3,2.2763422E4,3.663088E4,4.2055152E4,6.1603496E3,5.552502E3,7.5799E3,1.9957562E4,1.0887808E3,8.7455334E2,6.924505E3,3.9006382E3,8.381327E3],"tree_param":{"num_deleted":"0","num_feature":"127","num_nodes":"31","size_leaf_vector":"1"}},{"base_weights":[1.0958016E-3,-6.2087733E-2,2.4691813E-1,-1.3681665E-1,1.8945988E-2,1.7456387E-1,3.5770127E-1,-3.1717446E-1,-1.06818534E-1,8.3547704E-2,-4.7099285E-2,4.6076175E-2,2.3033586E-1,2.460299E-1,3.995074E-1,-4.0832236E-2,-1.4708215E-2,-5.7076914E-3,2.3915306E-2,9.663476E-3,9.912135E-4,-2.7211357E-4,-7.2161728E-3,8.902181E-3,-2.1471276E-3,2.0444158E-2,8.893955E-3,9.694701E-3,1.8171515E-2,1.8665086E-2,2.3033438E-2],"categories":[],"categories_nodes":[],"categories_segments":[],"categories_sizes":[],"default_left":[0,0,0,0,0,0,0,0,0,0,0,0,0,0,0,0,0,0,0,0,0,0,0,0,0,0,0,0,0,0,0],"id":26,"left_children":[1,3,5,7,9,11,13,15,17,19,21,23,25,27,29,-1,-1,-1,-1,-1,-1,-1,-1,-1,-1,-1,-1,-1,-1,-1,-1],"loss_changes":[2.827741E3,8.7705963E2,2.981897E2,4.0753198E2,2.9648242E2,1.6134283E2,6.835657E1,1.22825806E2,2.773507E2,2.4557329E2,1.3913211E2,8.016382E1,1.4685895E2,2.4329956E1,1.6672974E1,0E0,0E0,0E0,0E0,0E0,0E0,0E0,0E0,0E0,0E0,0E0,0E0,0E0,0E0,0E0,0E0],"parents":[2147483647,0,0,1,1,2,2,3,3,4,4,5,5,6,6,7,7,8,8,9,9,10,10,11,11,12,12,13,13,14,14],"right_children":[2,4,6,8,10,12,14,16,18,20,22,24,26,28,30,-1,-1,-1,-1,-1,-1,-1,-1,-1,-1,-1,-1,-1,-1,-1,-1],"split_conditions":[6.5E1,2.3E1,1.32E2,7E0,8E0,8.833333E-1,3.505E2,1E0,1E0,1E0,2.52E2,1E0,1E0,5.9E1,3.07E2,-4.0832236E-2,-1.4708215E-2,-5.7076914E-3,2.3915306E-2,9.663476E-3,9.912135E-4,-2.7211357E-4,-7.2161728E-3,8.902181E-3,-2.1471276E-3,2.0444158E-2,8.893955E-3,9.694701E-3,1.8171515E-2,1.8665086E-2,2.3033438E-2],"split_indices":[4,4,4,3,7,10,1,3,40,71,2,71,71,3,4,0,0,0,0,0,0,0,0,0,0,0,0,0,0,0,0],"split_type":[0,0,0,0,0,0,0,0,0,0,0,0,0,0,0,0,0,0,0,0,0,0,0,0,0,0,0,0,0,0,0],"sum_hessian":[1.8205417E5,1.4482961E5,3.7224562E4,7.534619E4,6.948342E4,2.252175E4,1.4702813E4,1.074141E4,6.4604777E4,3.512646E4,3.4356957E4,6.818835E3,1.5702915E4,4.0096655E3,1.0693148E4,4.697291E2,1.0271681E4,6.3806742E4,7.9803345E2,1.2903033E4,2.222343E4,2.4054246E4,1.0302712E4,2.7466694E3,4.0721655E3,3.5621077E3,1.2140808E4,2.7811682E3,1.2284974E3,7.4974077E3,3.1957405E3],"tree_param":{"num_deleted":"0","num_feature":"127","num_nodes":"31","size_leaf_vector":"1"}},{"base_weights":[-1.4580988E-3,-4.7326986E-2,2.4308816E-1,-1.5562724E-1,6.266492E-3,4.266715E-1,2.1804596E-1,-3.767271E-1,-1.254623E-1,-5.5836212E-2,6.578637E-2,4.8170865E-1,2.6491323E-1,1.63683E-1,3.0683008E-1,-2.1491593E-2,-1.1701047E-2,-1.8062798E-2,-4.9522924E-3,-8.919172E-3,-7.4886973E-4,6.5217394E-4,6.0018064E-3,1.0761678E-2,2.5699303E-2,5.579231E-3,1.8610483E-2,2.2725952E-3,9.839973E-3,1.2326814E-2,1.87864E-2],"categories":[],"categories_nodes":[],"categories_segments":[],"categories_sizes":[],"default_left":[0,0,0,0,0,0,0,0,0,0,0,0,0,0,0,0,0,0,0,0,0,0,0,0,0,0,0,0,0,0,0],"id":27,"left_children":[1,3,5,7,9,11,13,15,17,19,21,23,25,27,29,-1,-1,-1,-1,-1,-1,-1,-1,-1,-1,-1,-1,-1,-1,-1,-1],"loss_changes":[2.0166846E3,8.787423E2,1.302627E2,3.3409424E2,3.7436444E2,2.9952515E1,1.2045581E2,4.5285095E1,2.7458417E2,2.481347E2,1.479518E2,2.1498535E1,1.4152687E1,6.0658966E1,3.913556E1,0E0,0E0,0E0,0E0,0E0,0E0,0E0,0E0,0E0,0E0,0E0,0E0,0E0,0E0,0E0,0E0],"parents":[2147483647,0,0,1,1,2,2,3,3,4,4,5,5,6,6,7,7,8,8,9,9,10,10,11,11,12,12,13,13,14,14],"right_children":[2,4,6,8,10,12,14,16,18,20,22,24,26,28,30,-1,-1,-1,-1,-1,-1,-1,-1,-1,-1,-1,-1,-1,-1,-1,-1],"split_conditions":[6.93E2,1.9E1,1E0,6.7722803E-1,8.833333E-1,3.2634E4,2.6E0,1E0,4E0,7.804232E-1,8.772112E-1,3.75E-1,2E0,8.50133E-1,8.2427E4,-2.1491593E-2,-1.1701047E-2,-1.8062798E-2,-4.9522924E-3,-8.919172E-3,-7.4886973E-4,6.5217394E-4,6.0018064E-3,1.0761678E-2,2.5699303E-2,5.579231E-3,1.8610483E-2,2.2725952E-3,9.839973E-3,1.2326814E-2,1.87864E-2],"split_indices":[1,3,71,5,10,6,10,11,3,5,5,10,10,5,6,0,0,0,0,0,0,0,0,0,0,0,0,0,0,0,0],"split_type":[0,0,0,0,0,0,0,0,0,0,0,0,0,0,0,0,0,0,0,0,0,0,0,0,0,0,0,0,0,0,0],"sum_hessian":[1.7978575E5,1.5139183E5,2.8393934E4,5.0116586E4,1.01275234E5,3.403672E3,2.4990262E4,6.013258E3,4.4103324E4,4.9561082E4,5.1714156E4,2.5359497E3,8.6772235E2,1.5504283E4,9.485978E3,4.378739E3,1.634519E3,4.4400796E3,3.9663246E4,1.2389885E4,3.71712E4,2.6223904E4,2.549025E4,2.7614462E2,2.2598052E3,3.5948682E2,5.0823557E2,3.3945315E3,1.2109752E4,5.0649155E3,4.421062E3],"tree_param":{"num_deleted":"0","num_feature":"127","num_nodes":"31","size_leaf_vector":"1"}},{"base_weights":[-6.3853234E-4,-6.3492656E-2,2.3711543E-1,-2.1323228E-1,-2.426637E-2,1.6654292E-1,3.5022506E-1,-3.517144E-1,-1.524932E-1,-9.8588586E-2,3.0973198E-2,5.4693047E-2,2.2677739E-1,2.6736185E-1,4.0542367E-1,-2.5824904E-2,-1.5082091E-2,-5.234185E-3,-1.8493421E-2,1.8240936E-3,-6.594132E-3,-2.813683E-4,6.042197E-3,1.0257699E-2,-3.010176E-3,1.9482499E-2,9.346543E-3,-3.299295E-4,1.4719533E-2,1.4742106E-2,2.2092951E-2],"categories":[],"categories_nodes":[],"categories_segments":[],"categories_sizes":[],"default_left":[0,0,0,0,0,0,0,0,0,0,0,0,0,0,0,0,0,0,0,0,0,0,0,0,0,0,0,0,0,0,0],"id":28,"left_children":[1,3,5,7,9,11,13,15,17,19,21,23,25,27,29,-1,-1,-1,-1,-1,-1,-1,-1,-1,-1,-1,-1,-1,-1,-1,-1],"loss_changes":[2.662816E3,8.277559E2,2.9720947E2,2.4588379E2,4.585238E2,1.5453381E2,6.514429E1,7.313989E1,2.112316E2,2.1416153E2,2.1074937E2,1.389635E2,9.65556E1,4.2469635E1,3.4218384E1,0E0,0E0,0E0,0E0,0E0,0E0,0E0,0E0,0E0,0E0,0E0,0E0,0E0,0E0,0E0,0E0],"parents":[2147483647,0,0,1,1,2,2,3,3,4,4,5,5,6,6,7,7,8,8,9,9,10,10,11,11,12,12,13,13,14,14],"right_children":[2,4,6,8,10,12,14,16,18,20,22,24,26,28,30,-1,-1,-1,-1,-1,-1,-1,-1,-1,-1,-1,-1,-1,-1,-1,-1],"split_conditions":[6.4E1,1.2E1,1.32E2,7.893345E-1,8.5554665E-1,8.5091656E-1,8.62901E-1,7E0,1E0,4E0,3.7E1,1E0,1E0,2.6242E4,2.6242E4,-2.5824904E-2,-1.5082091E-2,-5.234185E-3,-1.8493421E-2,1.8240936E-3,-6.594132E-3,-2.813683E-4,6.042197E-3,1.0257699E-2,-3.010176E-3,1.9482499E-2,9.346543E-3,-3.299295E-4,1.4719533E-2,1.4742106E-2,2.2092951E-2],"split_indices":[4,4,4,5,5,5,5,3,71,7,4,71,71,6,6,0,0,0,0,0,0,0,0,0,0,0,0,0,0,0,0],"split_type":[0,0,0,0,0,0,0,0,0,0,0,0,0,0,0,0,0,0,0,0,0,0,0,0,0,0,0,0,0,0,0],"sum_hessian":[1.7818622E5,1.4093094E5,3.7255285E4,2.9252361E4,1.1167857E5,2.2945295E4,1.430999E4,8.914863E3,2.0337498E4,4.761542E4,6.406315E4,8.0337197E3,1.4911575E4,5.7270483E3,8.582941E3,2.072582E3,6.8422812E3,1.6673896E4,3.663602E3,9.415011E3,3.820041E4,4.5523535E4,1.8539613E4,3.478388E3,4.555332E3,2.9268323E3,1.1984743E4,5.1392554E2,5.213123E3,2.132647E3,6.4502944E3],"tree_param":{"num_deleted":"0","num_feature":"127","num_nodes":"31","size_leaf_vector":"1"}},{"base_weights":[6.995594E-4,-5.697543E-2,1.8623047E-1,-2.385241E-1,-2.82349E-2,9.8575674E-2,2.5928774E-1,-5.6104887E-1,-2.0836897E-1,-2.2941193E-1,-1.0625596E-2,6.1704144E-2,2.1561575E-1,5.765676E-1,2.4822757E-1,-4.0590744E-2,-2.2231821E-2,-1.6223177E-2,-7.5782123E-3,-1.6367985E-2,-8.349831E-3,-1.9863185E-3,3.78773E-3,-2.4383236E-3,4.502555E-3,7.536924E-3,1.4315428E-2,2.9818804E-3,2.9990172E-2,8.695356E-3,1.45383915E-2],"categories":[],"categories_nodes":[],"categories_segments":[],"categories_sizes":[],"default_left":[0,0,0,0,0,0,0,0,0,0,0,0,0,0,0,0,0,0,0,0,0,0,0,0,0,0,0,0,0,0,0],"id":29,"left_children":[1,3,5,7,9,11,13,15,17,19,21,23,25,27,29,-1,-1,-1,-1,-1,-1,-1,-1,-1,-1,-1,-1,-1,-1,-1,-1],"loss_changes":[1.8848007E3,7.0105493E2,2.673905E2,1.7824841E2,4.109245E2,8.1893814E1,7.953076E1,4.487805E1,1.1060077E2,5.6892853E1,2.6814755E2,4.52544E1,2.0707703E1,9.022949E0,6.943848E1,0E0,0E0,0E0,0E0,0E0,0E0,0E0,0E0,0E0,0E0,0E0,0E0,0E0,0E0,0E0,0E0],"parents":[2147483647,0,0,1,1,2,2,3,3,4,4,5,5,6,6,7,7,8,8,9,9,10,10,11,11,12,12,13,13,14,14],"right_children":[2,4,6,8,10,12,14,16,18,20,22,24,26,28,30,-1,-1,-1,-1,-1,-1,-1,-1,-1,-1,-1,-1,-1,-1,-1,-1],"split_conditions":[5.01E2,9E0,7.98E2,2E0,6.7247784E-1,9.204361E-1,1.3484E4,1E0,7.9254025E-1,6.2649953E-1,5.2E1,2.5E1,1.9E0,9.746E3,8.796257E-1,-4.0590744E-2,-2.2231821E-2,-1.6223177E-2,-7.5782123E-3,-1.6367985E-2,-8.349831E-3,-1.9863185E-3,3.78773E-3,-2.4383236E-3,4.502555E-3,7.536924E-3,1.4315428E-2,2.9818804E-3,2.9990172E-2,8.695356E-3,1.45383915E-2],"split_indices":[1,3,1,3,5,5,6,3,5,5,3,3,10,6,5,0,0,0,0,0,0,0,0,0,0,0,0,0,0,0,0],"split_type":[0,0,0,0,0,0,0,0,0,0,0,0,0,0,0,0,0,0,0,0,0,0,0,0,0,0,0,0,0,0,0],"sum_hessian":[1.7613567E5,1.3436647E5,4.17692E4,1.8361352E4,1.1600512E5,1.8990717E4,2.2778484E4,1.5665112E3,1.6794842E4,9.334202E3,1.06670914E5,1.4444541E4,4.546176E3,7.633954E2,2.2015088E4,4.9245966E2,1.0740515E3,5.5138525E3,1.1280988E4,3.6287488E3,5.705453E3,7.979235E4,2.6878564E4,2.948243E3,1.1496298E4,2.374969E3,2.1712065E3,3.342289E1,7.299725E2,8.019037E3,1.3996051E4],"tree_param":{"num_deleted":"0","num_feature":"127","num_nodes":"31","size_leaf_vector":"1"}},{"base_weights":[-8.3745964E-4,-7.970334E-2,1.8322921E-1,-1.6088599E-1,-1.7658591E-2,1.05624616E-1,3.085512E-1,-3.5536444E-1,-1.2522423E-1,-3.2070588E-4,-2.4944754E-1,4.497448E-2,2.2159824E-1,2.0689204E-1,3.4711257E-1,-2.5214285E-2,-1.5051292E-2,-1.5647676E-2,-5.085313E-3,-4.0264647E-3,3.576598E-3,-2.0058218E-2,-8.538533E-3,9.066145E-3,-1.6312329E-4,1.3343212E-2,7.7913404E-3,3.0921315E-4,1.17735E-2,1.4635573E-2,2.0612078E-2],"categories":[],"categories_nodes":[],"categories_segments":[],"categories_sizes":[],"default_left":[0,0,0,0,0,0,0,0,0,0,0,0,0,0,0,0,0,0,0,0,0,0,0,0,0,0,0,0,0,0,0],"id":30,"left_children":[1,3,5,7,9,11,13,15,17,19,21,23,25,27,29,-1,-1,-1,-1,-1,-1,-1,-1,-1,-1,-1,-1,-1,-1,-1,-1],"loss_changes":[2.5325774E3,6.151475E2,5.088003E2,3.6676318E2,2.7817737E2,2.2727777E2,7.821533E1,6.590173E1,1.9727515E2,3.7124466E2,5.728061E1,1.3962903E2,3.2891785E1,3.1559006E1,5.1039307E1,0E0,0E0,0E0,0E0,0E0,0E0,0E0,0E0,0E0,0E0,0E0,0E0,0E0,0E0,0E0,0E0],"parents":[2147483647,0,0,1,1,2,2,3,3,4,4,5,5,6,6,7,7,8,8,9,9,10,10,11,11,12,12,13,13,14,14],"right_children":[2,4,6,8,10,12,14,16,18,20,22,24,26,28,30,-1,-1,-1,-1,-1,-1,-1,-1,-1,-1,-1,-1,-1,-1,-1,-1],"split_conditions":[4.8E1,8.5554665E-1,9.6E1,9E0,1E0,9.1165584E-1,8.446772E-1,5E0,6.5000945E-1,8.1E1,6.166667E-1,2.5123E4,6E0,6.7722803E-1,1.7E2,-2.5214285E-2,-1.5051292E-2,-1.5647676E-2,-5.085313E-3,-4.0264647E-3,3.576598E-3,-2.0058218E-2,-8.538533E-3,9.066145E-3,-1.6312329E-4,1.3343212E-2,7.7913404E-3,3.0921315E-4,1.17735E-2,1.4635573E-2,2.0612078E-2],"split_indices":[4,5,4,4,56,5,5,4,5,15,10,6,7,5,4,0,0,0,0,0,0,0,0,0,0,0,0,0,0,0,0],"split_type":[0,0,0,0,0,0,0,0,0,0,0,0,0,0,0,0,0,0,0,0,0,0,0,0,0,0,0,0,0,0,0],"sum_hessian":[1.744581E5,1.2213125E5,5.232685E4,5.2903664E4,6.9227586E4,3.2318668E4,2.0008182E4,8.194346E3,4.470932E4,6.441218E4,4.8154014E3,2.122356E4,1.1095108E4,5.506923E3,1.4501259E4,2.185475E3,6.0088706E3,4.9739985E3,3.973532E4,3.0437207E4,3.3974977E4,1.6409554E3,3.1744458E3,5.545638E3,1.5677923E4,6.567056E3,4.5280522E3,6.873349E2,4.8195884E3,7.9086216E3,6.5926377E3],"tree_param":{"num_deleted":"0","num_feature":"127","num_nodes":"31","size_leaf_vector":"1"}},{"base_weights":[-6.353234E-4,-9.3474954E-2,1.444387E-1,-2.857565E-1,-6.824995E-2,7.187075E-2,2.825157E-1,-4.264826E-1,-2.1898916E-1,-2.9108524E-2,-1.4269918E-1,1.4712441E-1,-6.070068E-3,2.0748518E-1,3.3466047E-1,4.428191E-2,-2.1692725E-2,1.0295236E-2,-1.2058002E-2,-6.1660125E-3,1.9529179E-3,-9.960732E-3,-1.5236096E-3,1.4477826E-2,4.3156156E-3,4.1352133E-3,-2.9768138E-3,1.8667271E-2,7.935236E-3,5.577583E-3,1.7556204E-2],"categories":[],"categories_nodes":[],"categories_segments":[],"categories_sizes":[],"default_left":[0,0,0,0,0,0,0,0,0,0,0,0,0,0,0,0,0,0,0,0,0,0,0,0,0,0,0,0,0,0,0],"id":31,"left_children":[1,3,5,7,9,11,13,15,17,19,21,23,25,27,29,-1,-1,-1,-1,-1,-1,-1,-1,-1,-1,-1,-1,-1,-1,-1,-1],"loss_changes":[2.326619E3,5.1081897E2,6.7533545E2,1.1448602E2,2.713311E2,2.592079E2,9.063098E1,3.8692505E1,7.819101E1,3.9201727E2,2.03466E2,1.9463467E2,1.0304199E2,7.6887024E1,5.015796E1,0E0,0E0,0E0,0E0,0E0,0E0,0E0,0E0,0E0,0E0,0E0,0E0,0E0,0E0,0E0,0E0],"parents":[2147483647,0,0,1,1,2,2,3,3,4,4,5,5,6,6,7,7,8,8,9,9,10,10,11,11,12,12,13,13,14,14],"right_children":[2,4,6,8,10,12,14,16,18,20,22,24,26,28,30,-1,-1,-1,-1,-1,-1,-1,-1,-1,-1,-1,-1,-1,-1,-1,-1],"split_conditions":[3.7E1,8E0,8.5E1,5E0,1E0,7E0,1.32E2,2.7027028E-2,7.335E3,8.1E1,4.05E2,1E0,2.5123E4,1E0,1E0,4.428191E-2,-2.1692725E-2,1.0295236E-2,-1.2058002E-2,-6.1660125E-3,1.9529179E-3,-9.960732E-3,-1.5236096E-3,1.4477826E-2,4.3156156E-3,4.1352133E-3,-2.9768138E-3,1.8667271E-2,7.935236E-3,5.577583E-3,1.7556204E-2],"split_indices":[4,4,4,4,71,7,4,10,6,15,1,71,6,71,11,0,0,0,0,0,0,0,0,0,0,0,0,0,0,0,0],"split_type":[0,0,0,0,0,0,0,0,0,0,0,0,0,0,0,0,0,0,0,0,0,0,0,0,0,0,0,0,0,0,0],"sum_hessian":[1.7274027E5,1.0533393E5,6.740634E4,1.2212861E4,9.312107E4,4.4187316E4,2.3219025E4,3.9256702E3,8.287191E3,6.103626E4,3.2084807E4,2.2481277E4,2.170604E4,9.525596E3,1.369343E4,2.0487576E1,3.9051826E3,4.0982138E2,7.8773696E3,2.5623396E4,3.5412863E4,2.1336996E4,1.0747811E4,6.7235674E3,1.575771E4,8.157527E3,1.3548512E4,2.161118E3,7.364478E3,9.427163E2,1.2750713E4],"tree_param":{"num_deleted":"0","num_feature":"127","num_nodes":"31","size_leaf_vector":"1"}},{"base_weights":[-1.9684642E-4,-5.3093724E-2,2.4953261E-1,-1.3992205E-1,1.1438524E-2,1.7669772E-1,3.3649954E-1,1.0676349E-1,-1.633147E-1,1.5544935E-1,-1.7383369E-2,2.2465149E-1,4.3468766E-2,2.2939387E-1,3.773142E-1,8.297144E-3,-1.3818375E-2,-1.6841568E-2,-6.669993E-3,9.641183E-3,-7.665203E-3,3.129312E-3,-3.0040967E-3,1.7286224E-2,9.267994E-3,4.658056E-3,-9.373734E-3,6.942933E-3,1.52516905E-2,1.7512934E-2,2.2310609E-2],"categories":[],"categories_nodes":[],"categories_segments":[],"categories_sizes":[],"default_left":[0,0,0,0,0,0,0,0,0,0,0,0,0,0,0,0,0,0,0,0,0,0,0,0,0,0,0,0,0,0,0],"id":32,"left_children":[1,3,5,7,9,11,13,15,17,19,21,23,25,27,29,-1,-1,-1,-1,-1,-1,-1,-1,-1,-1,-1,-1,-1,-1,-1,-1],"loss_changes":[2.2575188E3,7.902279E2,1.890155E2,3.470177E2,3.3581995E2,1.03832886E2,5.9239014E1,1.1817148E2,2.8491968E2,1.5575867E2,2.3018765E2,5.6670166E1,4.9451645E1,2.5610397E1,1.7932251E1,0E0,0E0,0E0,0E0,0E0,0E0,0E0,0E0,0E0,0E0,0E0,0E0,0E0,0E0,0E0,0E0],"parents":[2147483647,0,0,1,1,2,2,3,3,4,4,5,5,6,6,7,7,8,8,9,9,10,10,11,11,12,12,13,13,14,14],"right_children":[2,4,6,8,10,12,14,16,18,20,22,24,26,28,30,-1,-1,-1,-1,-1,-1,-1,-1,-1,-1,-1,-1,-1,-1,-1,-1],"split_conditions":[7.2E1,2E1,1.32E2,9.746E3,3E0,1E1,3.505E2,9.9903864E-1,7E0,1E0,2.5123E4,2.5394E4,5.2832E4,3.8E1,1.4192E3,8.297144E-3,-1.3818375E-2,-1.6841568E-2,-6.669993E-3,9.641183E-3,-7.665203E-3,3.129312E-3,-3.0040967E-3,1.7286224E-2,9.267994E-3,4.658056E-3,-9.373734E-3,6.942933E-3,1.52516905E-2,1.7512934E-2,2.2310609E-2],"split_indices":[4,4,4,6,7,7,1,14,3,41,6,6,6,3,1,0,0,0,0,0,0,0,0,0,0,0,0,0,0,0,0],"split_type":[0,0,0,0,0,0,0,0,0,0,0,0,0,0,0,0,0,0,0,0,0,0,0,0,0,0,0,0,0,0,0],"sum_hessian":[1.708941E5,1.4102484E5,2.9869248E4,6.012563E4,8.089922E4,1.62596045E4,1.3609645E4,5.2065703E3,5.491906E4,1.3490301E4,6.740892E4,1.1954325E4,4.305279E3,3.7598853E3,9.849759E3,4.511273E3,6.9529767E2,8.072159E3,4.68469E4,1.2034744E4,1.4555575E3,2.3462273E4,4.3946645E4,2.9242231E3,9.030103E3,3.5444568E3,7.6082196E2,1.7149164E3,2.0449688E3,7.082772E3,2.7669868E3],"tree_param":{"num_deleted":"0","num_feature":"127","num_nodes":"31","size_leaf_vector":"1"}},{"base_weights":[-4.618392E-5,-5.2003477E-2,2.4582691E-1,-1.5937275E-1,-2.6586687E-3,1.7583281E-1,3.303142E-1,-4.1742873E-1,-1.3526447E-1,6.695419E-2,-5.659795E-2,4.8307523E-2,2.3122904E-1,2.2819926E-1,3.6970624E-1,-3.258716E-2,-1.9080585E-2,-8.388206E-5,-9.50775E-3,4.396038E-3,-8.598705E-3,-5.6577194E-3,-1.0163144E-5,8.823507E-3,-1.801163E-3,1.9864392E-2,9.495138E-3,5.5713984E-3,1.3913912E-2,9.716214E-3,1.8897234E-2],"categories":[],"categories_nodes":[],"categories_segments":[],"categories_sizes":[],"default_left":[0,0,0,0,0,0,0,0,0,0,0,0,0,0,0,0,0,0,0,0,0,0,0,0,0,0,0,0,0,0,0],"id":33,"left_children":[1,3,5,7,9,11,13,15,17,19,21,23,25,27,29,-1,-1,-1,-1,-1,-1,-1,-1,-1,-1,-1,-1,-1,-1,-1,-1],"loss_changes":[2.1621497E3,7.4026E2,1.7441296E2,2.7350854E2,3.5947205E2,1.14049225E2,5.3541626E1,3.0881836E1,2.9503162E2,2.0938551E2,1.720276E2,5.2941677E1,7.703406E1,2.1688705E1,1.3706299E1,0E0,0E0,0E0,0E0,0E0,0E0,0E0,0E0,0E0,0E0,0E0,0E0,0E0,0E0,0E0,0E0],"parents":[2147483647,0,0,1,1,2,2,3,3,4,4,5,5,6,6,7,7,8,8,9,9,10,10,11,11,12,12,13,13,14,14],"right_children":[2,4,6,8,10,12,14,16,18,20,22,24,26,28,30,-1,-1,-1,-1,-1,-1,-1,-1,-1,-1,-1,-1,-1,-1,-1,-1],"split_conditions":[7.2E1,1.6E1,1.32E2,5E0,7E0,9.5E-1,3.505E2,2E0,1.4985E4,1E0,8.2E1,1E0,1E0,2.7E1,4.7272727E-1,-3.258716E-2,-1.9080585E-2,-8.388206E-5,-9.50775E-3,4.396038E-3,-8.598705E-3,-5.6577194E-3,-1.0163144E-5,8.823507E-3,-1.801163E-3,1.9864392E-2,9.495138E-3,5.5713984E-3,1.3913912E-2,9.716214E-3,1.8897234E-2],"split_indices":[4,4,4,4,7,10,1,4,6,41,15,71,71,3,10,0,0,0,0,0,0,0,0,0,0,0,0,0,0,0,0],"split_type":[0,0,0,0,0,0,0,0,0,0,0,0,0,0,0,0,0,0,0,0,0,0,0,0,0,0,0,0,0,0,0],"sum_hessian":[1.6924811E5,1.3972412E5,2.952397E4,4.3992797E4,9.5731336E4,1.6151271E4,1.3372699E4,3.755452E3,4.0237344E4,4.17921E4,5.3939234E4,4.8932285E3,1.1258043E4,3.7274714E3,9.645228E3,4.9282407E2,3.262628E3,1.1719777E4,2.8517566E4,3.8422336E4,3.3697676E3,2.6928662E4,2.7010572E4,1.9417804E3,2.9514482E3,2.23927E3,9.018773E3,1.1216102E3,2.605861E3,4.357724E2,9.209455E3],"tree_param":{"num_deleted":"0","num_feature":"127","num_nodes":"31","size_leaf_vector":"1"}},{"base_weights":[3.5736986E-4,-7.0235655E-2,1.6695307E-1,-2.2823463E-1,-3.963998E-2,9.681384E-2,2.941541E-1,-3.6093044E-1,-1.6431569E-1,-2.3503354E-1,-2.1526588E-2,-1.0120915E-2,1.6209424E-1,2.1576793E-1,3.4890196E-1,-2.576976E-2,-1.5936667E-2,-9.635381E-3,1.1063072E-2,-1.4545185E-2,-6.7825573E-3,1.591783E-3,-4.579019E-3,6.3012578E-3,-5.886934E-3,5.7331487E-3,1.1810203E-2,3.6988236E-4,1.2155197E-2,1.3225647E-2,1.9477265E-2],"categories":[],"categories_nodes":[],"categories_segments":[],"categories_sizes":[],"default_left":[0,0,0,0,0,0,0,0,0,0,0,0,0,0,0,0,0,0,0,0,0,0,0,0,0,0,0,0,0,0,0],"id":34,"left_children":[1,3,5,7,9,11,13,15,17,19,21,23,25,27,29,-1,-1,-1,-1,-1,-1,-1,-1,-1,-1,-1,-1,-1,-1,-1,-1],"loss_changes":[1.9675084E3,5.6796954E2,4.441194E2,1.6147833E2,3.4837244E2,2.2409845E2,7.570471E1,3.9921326E1,1.4096298E2,4.622583E1,3.3681494E2,1.7831691E2,6.99574E1,4.144397E1,3.5415405E1,0E0,0E0,0E0,0E0,0E0,0E0,0E0,0E0,0E0,0E0,0E0,0E0,0E0,0E0,0E0,0E0],"parents":[2147483647,0,0,1,1,2,2,3,3,4,4,5,5,6,6,7,7,8,8,9,9,10,10,11,11,12,12,13,13,14,14],"right_children":[2,4,6,8,10,12,14,16,18,20,22,24,26,28,30,-1,-1,-1,-1,-1,-1,-1,-1,-1,-1,-1,-1,-1,-1,-1,-1],"split_conditions":[4.8E1,1E1,1.01E2,7.9254025E-1,6.898653E-1,8.475455E-1,8.6617225E-1,5E0,1E0,1.2933333E2,1E0,1E0,9.3439925E-1,2.6242E4,2.6242E4,-2.576976E-2,-1.5936667E-2,-9.635381E-3,1.1063072E-2,-1.4545185E-2,-6.7825573E-3,1.591783E-3,-4.579019E-3,6.3012578E-3,-5.886934E-3,5.7331487E-3,1.1810203E-2,3.6988236E-4,1.2155197E-2,1.3225647E-2,1.9477265E-2],"split_indices":[4,4,4,5,5,5,5,4,65,1,71,71,5,6,6,0,0,0,0,0,0,0,0,0,0,0,0,0,0,0,0],"split_type":[0,0,0,0,0,0,0,0,0,0,0,0,0,0,0,0,0,0,0,0,0,0,0,0,0,0,0,0,0,0,0],"sum_hessian":[1.6729288E5,1.1750271E5,4.979017E4,1.905955E4,9.844316E4,3.2096639E4,1.7693533E4,6.192427E3,1.2867125E4,8.348936E3,9.009422E4,1.2166419E4,1.993022E4,7.281188E3,1.0412345E4,1.323114E3,4.869313E3,1.1985931E4,8.81194E2,5.3410015E3,3.0079333E3,5.113896E4,3.8955258E4,5.37051E3,6.795909E3,1.2156815E4,7.773405E3,8.453653E2,6.4358228E3,3.3907437E3,7.0216016E3],"tree_param":{"num_deleted":"0","num_feature":"127","num_nodes":"31","size_leaf_vector":"1"}},{"base_weights":[-3.6591841E-4,-8.228845E-2,1.4458022E-1,-2.6114038E-1,-5.605169E-2,7.291E-2,2.6778486E-1,-3.7408972E-1,-2.009469E-1,-2.3222527E-1,-3.6724243E-2,-9.390356E-4,1.5905727E-1,1.645947E-1,3.091944E-1,-2.5324905E-2,-1.6696632E-2,-1.6318562E-2,-7.6157274E-3,-1.8999262E-2,-8.237033E-3,7.068347E-4,-5.8409343E-3,5.7228873E-3,-3.078038E-3,2.5771118E-3,9.537174E-3,3.4035232E-3,1.2500204E-2,1.2999904E-2,1.953882E-2],"categories":[],"categories_nodes":[],"categories_segments":[],"categories_sizes":[],"default_left":[0,0,0,0,0,0,0,0,0,0,0,0,0,0,0,0,0,0,0,0,0,0,0,0,0,0,0,0,0,0,0],"id":35,"left_children":[1,3,5,7,9,11,13,15,17,19,21,23,25,27,29,-1,-1,-1,-1,-1,-1,-1,-1,-1,-1,-1,-1,-1,-1,-1,-1],"loss_changes":[1.9672059E3,4.9660754E2,5.281504E2,9.1816345E1,3.142534E2,2.406619E2,9.3833496E1,2.4546692E1,5.373578E1,9.077957E1,3.3889322E2,1.4248604E2,5.942459E1,5.1901077E1,6.26969E1,0E0,0E0,0E0,0E0,0E0,0E0,0E0,0E0,0E0,0E0,0E0,0E0,0E0,0E0,0E0,0E0],"parents":[2147483647,0,0,1,1,2,2,3,3,4,4,5,5,6,6,7,7,8,8,9,9,10,10,11,11,12,12,13,13,14,14],"right_children":[2,4,6,8,10,12,14,16,18,20,22,24,26,28,30,-1,-1,-1,-1,-1,-1,-1,-1,-1,-1,-1,-1,-1,-1,-1,-1],"split_conditions":[4E1,7.182531E-1,8.5E1,1.2E1,8E0,8.745876E-1,8.4651613E-1,6E0,6.332724E-1,5E0,1E0,1E0,6.9166666E-1,9.2435896E-1,1.7E2,-2.5324905E-2,-1.6696632E-2,-1.6318562E-2,-7.6157274E-3,-1.8999262E-2,-8.237033E-3,7.068347E-4,-5.8409343E-3,5.7228873E-3,-3.078038E-3,2.5771118E-3,9.537174E-3,3.4035232E-3,1.2500204E-2,1.2999904E-2,1.953882E-2],"split_indices":[4,5,4,4,4,5,5,4,5,4,71,71,10,10,4,0,0,0,0,0,0,0,0,0,0,0,0,0,0,0,0],"split_type":[0,0,0,0,0,0,0,0,0,0,0,0,0,0,0,0,0,0,0,0,0,0,0,0,0,0,0,0,0,0,0],"sum_hessian":[1.6566523E5,1.0584454E5,5.9820688E4,1.353755E4,9.230699E4,3.7822883E4,2.1997805E4,4.701866E3,8.835683E3,9.122626E3,8.318437E4,2.036521E4,1.7457672E4,6.3034756E3,1.5694329E4,1.0878802E3,3.613986E3,2.464683E3,6.371E3,2.8565725E3,6.266053E3,5.0876773E4,3.2307594E4,7.0124253E3,1.3352786E4,3.9761404E3,1.3481532E4,2.961701E3,3.3417747E3,9.796792E3,5.897537E3],"tree_param":{"num_deleted":"0","num_feature":"127","num_nodes":"31","size_leaf_vector":"1"}},{"base_weights":[-2.8910812E-3,-5.8310036E-2,2.0955035E-1,-2.4542652E-1,-3.2625753E-2,1.4400165E-1,3.1617728E-1,-4.0344054E-1,-1.9924158E-1,-1.0331129E-1,1.9867988E-2,1.9825757E-1,2.6703492E-2,8.37465E-3,3.2868472E-1,-2.1626798E-2,-2.3233016E-4,-1.29033355E-2,-4.761714E-3,-1.4714271E-2,-4.0324084E-3,-7.3413066E-5,8.412066E-3,1.785596E-2,7.4936384E-3,-5.626332E-3,4.953689E-3,-1.0459151E-2,5.124414E-3,1.0270046E-2,1.7910792E-2],"categories":[],"categories_nodes":[],"categories_segments":[],"categories_sizes":[],"default_left":[0,0,0,0,0,0,0,0,0,0,0,0,0,0,0,0,0,0,0,0,0,0,0,0,0,0,0,0,0,0,0],"id":36,"left_children":[1,3,5,7,9,11,13,15,17,19,21,23,25,27,29,-1,-1,-1,-1,-1,-1,-1,-1,-1,-1,-1,-1,-1,-1,-1,-1],"loss_changes":[1.9336772E3,6.2598425E2,2.3734119E2,1.1448114E2,4.250395E2,1.339115E2,4.9738647E1,4.115741E1,7.435849E1,2.1117328E2,2.0811206E2,1.1042981E2,6.712772E1,1.0419587E1,4.5017334E1,0E0,0E0,0E0,0E0,0E0,0E0,0E0,0E0,0E0,0E0,0E0,0E0,0E0,0E0,0E0,0E0],"parents":[2147483647,0,0,1,1,2,2,3,3,4,4,5,5,6,6,7,7,8,8,9,9,10,10,11,11,12,12,13,13,14,14],"right_children":[2,4,6,8,10,12,14,16,18,20,22,24,26,28,30,-1,-1,-1,-1,-1,-1,-1,-1,-1,-1,-1,-1,-1,-1,-1,-1],"split_conditions":[6.4E1,7.182531E-1,1.32E2,1E1,2.5E1,9E0,6.871048E-1,2.11E2,1E0,5E0,1E0,1E0,7.8223294E-1,2.6E1,2.6242E4,-2.1626798E-2,-2.3233016E-4,-1.29033355E-2,-4.761714E-3,-1.4714271E-2,-4.0324084E-3,-7.3413066E-5,8.412066E-3,1.785596E-2,7.4936384E-3,-5.626332E-3,4.953689E-3,-1.0459151E-2,5.124414E-3,1.0270046E-2,1.7910792E-2],"split_indices":[4,5,4,3,3,7,5,1,11,3,69,71,5,3,6,0,0,0,0,0,0,0,0,0,0,0,0,0,0,0,0],"split_type":[0,0,0,0,0,0,0,0,0,0,0,0,0,0,0,0,0,0,0,0,0,0,0,0,0,0,0,0,0,0,0],"sum_hessian":[1.642407E5,1.3026185E5,3.397886E4,1.5719362E4,1.1454249E5,2.1046604E4,1.2932254E4,3.551112E3,1.2168251E4,4.8813504E4,6.5728984E4,1.4388558E4,6.658046E3,5.0557712E2,1.2426677E4,3.309137E3,2.4197522E2,7.7695127E3,4.398738E3,5.1750015E3,4.36385E4,5.7466246E4,8.262741E3,3.3555222E3,1.1033035E4,2.276056E3,4.38199E3,1.514466E2,3.5413052E2,2.405481E3,1.0021196E4],"tree_param":{"num_deleted":"0","num_feature":"127","num_nodes":"31","size_leaf_vector":"1"}},{"base_weights":[1.1090147E-3,-5.7373125E-2,1.9501127E-1,-1.8202361E-1,-1.9536605E-2,1.3475688E-1,3.144177E-1,-4.2938024E-1,-1.5582837E-1,-9.849085E-2,2.084215E-2,-8.65603E-3,1.8044204E-1,2.5925216E-1,3.7808716E-1,-3.8993444E-2,-1.8490626E-2,-2.0511078E-2,-6.6621364E-3,-7.974341E-3,-9.841769E-4,-5.71598E-4,5.3653824E-3,5.543856E-3,-8.081747E-3,1.6963994E-2,6.8899714E-3,2.1843498E-3,1.37094855E-2,2.0076334E-2,1.1161117E-2],"categories":[],"categories_nodes":[],"categories_segments":[],"categories_sizes":[],"default_left":[0,0,0,0,0,0,0,0,0,0,0,0,0,0,0,0,0,0,0,0,0,0,0,0,0,0,0,0,0,0,0],"id":37,"left_children":[1,3,5,7,9,11,13,15,17,19,21,23,25,27,29,-1,-1,-1,-1,-1,-1,-1,-1,-1,-1,-1,-1,-1,-1,-1,-1],"loss_changes":[1.8511687E3,5.914679E2,2.7200464E2,1.8900177E2,3.067565E2,1.64775E2,4.4259277E1,5.7599854E1,1.515531E2,1.5647049E2,1.776638E2,1.1114997E2,1.2900769E2,2.1835663E1,2.1080444E1,0E0,0E0,0E0,0E0,0E0,0E0,0E0,0E0,0E0,0E0,0E0,0E0,0E0,0E0,0E0,0E0],"parents":[2147483647,0,0,1,1,2,2,3,3,4,4,5,5,6,6,7,7,8,8,9,9,10,10,11,11,12,12,13,13,14,14],"right_children":[2,4,6,8,10,12,14,16,18,20,22,24,26,28,30,-1,-1,-1,-1,-1,-1,-1,-1,-1,-1,-1,-1,-1,-1,-1,-1],"split_conditions":[5.9E1,1.4E1,1.32E2,3E0,8.3832407E-1,8.159575E-1,8.8875604E-1,1E0,6E0,8.5E-1,5.6E1,1E0,1E0,6.79538E-1,1E0,-3.8993444E-2,-1.8490626E-2,-2.0511078E-2,-6.6621364E-3,-7.974341E-3,-9.841769E-4,-5.71598E-4,5.3653824E-3,5.543856E-3,-8.081747E-3,1.6963994E-2,6.8899714E-3,2.1843498E-3,1.37094855E-2,2.0076334E-2,1.1161117E-2],"split_indices":[4,3,4,3,5,5,5,3,4,10,3,71,71,5,44,0,0,0,0,0,0,0,0,0,0,0,0,0,0,0,0],"split_type":[0,0,0,0,0,0,0,0,0,0,0,0,0,0,0,0,0,0,0,0,0,0,0,0,0,0,0,0,0,0,0],"sum_hessian":[1.6323922E5,1.2541415E5,3.7825062E4,2.9201084E4,9.621307E4,2.5143008E4,1.2682054E4,2.7927905E3,2.6408293E4,3.2555938E4,6.365713E4,6.074026E3,1.9068982E4,6.8014966E3,5.880557E3,4.018218E2,2.3909688E3,2.1500674E3,2.4258227E4,1.8349604E4,1.4206334E4,4.6354754E4,1.7302375E4,3.409508E3,2.6645178E3,4.032193E3,1.5036789E4,4.419246E2,6.3595723E3,5.103904E3,7.7665344E2],"tree_param":{"num_deleted":"0","num_feature":"127","num_nodes":"31","size_leaf_vector":"1"}},{"base_weights":[-1.7707869E-3,-4.1029956E-2,2.1264337E-1,-1.4182606E-1,4.1360892E-3,3.890349E-1,1.8936718E-1,-3.5682988E-1,-1.1559087E-1,-3.8160592E-2,7.297871E-2,4.4295526E-1,2.3700158E-1,1.3876112E-1,2.7347776E-1,-3.9243896E-2,-1.5755208E-2,-1.508289E-2,-4.5400397E-3,-1.135188E-2,-1.164489E-3,1.6562262E-3,7.1677454E-3,6.4763534E-3,2.4028402E-2,4.099016E-3,1.7149571E-2,-9.501209E-3,7.461309E-3,7.485582E-3,1.4758487E-2],"categories":[],"categories_nodes":[],"categories_segments":[],"categories_sizes":[],"default_left":[0,0,0,0,0,0,0,0,0,0,0,0,0,0,0,0,0,0,0,0,0,0,0,0,0,0,0,0,0,0,0],"id":38,"left_children":[1,3,5,7,9,11,13,15,17,19,21,23,25,27,29,-1,-1,-1,-1,-1,-1,-1,-1,-1,-1,-1,-1,-1,-1,-1,-1],"loss_changes":[1.3594574E3,6.21485E2,1.0238428E2,2.3811859E2,2.7450366E2,2.3551636E1,9.3867065E1,8.136157E1,1.735582E2,1.6396196E2,1.0059465E2,2.5081299E1,1.248494E1,4.7512238E1,2.2109375E1,0E0,0E0,0E0,0E0,0E0,0E0,0E0,0E0,0E0,0E0,0E0,0E0,0E0,0E0,0E0,0E0],"parents":[2147483647,0,0,1,1,2,2,3,3,4,4,5,5,6,6,7,7,8,8,9,9,10,10,11,11,12,12,13,13,14,14],"right_children":[2,4,6,8,10,12,14,16,18,20,22,24,26,28,30,-1,-1,-1,-1,-1,-1,-1,-1,-1,-1,-1,-1,-1,-1,-1,-1],"split_conditions":[6.93E2,1.8E1,1E0,4E0,9.000202E-1,3.2634E4,2.6E0,1E0,6.821063E-1,6.519133E-1,1.4333333E0,3.75E-1,2.2333333E0,3.9285713E-1,8.748571E2,-3.9243896E-2,-1.5755208E-2,-1.508289E-2,-4.5400397E-3,-1.135188E-2,-1.164489E-3,1.6562262E-3,7.1677454E-3,6.4763534E-3,2.4028402E-2,4.099016E-3,1.7149571E-2,-9.501209E-3,7.461309E-3,7.485582E-3,1.4758487E-2],"split_indices":[1,3,71,3,5,6,10,3,5,5,10,10,10,10,1,0,0,0,0,0,0,0,0,0,0,0,0,0,0,0,0],"split_type":[0,0,0,0,0,0,0,0,0,0,0,0,0,0,0,0,0,0,0,0,0,0,0,0,0,0,0,0,0,0,0],"sum_hessian":[1.6149845E5,1.3650647E5,2.4991979E4,4.2239816E4,9.426666E4,2.9090159E3,2.2082963E4,4.590296E3,3.764952E4,5.839046E4,3.587619E4,2.1438584E3,7.651575E2,1.379196E4,8.291002E3,4.04231E2,4.186065E3,4.4230483E3,3.3226473E4,4.2588887E3,5.4131574E4,2.2908264E4,1.2967929E4,2.3108623E2,1.9127722E3,3.127256E2,4.5243185E2,4.2394772E2,1.3368012E4,1.2398142E3,7.051188E3],"tree_param":{"num_deleted":"0","num_feature":"127","num_nodes":"31","size_leaf_vector":"1"}},{"base_weights":[4.6023444E-4,-9.178253E-2,1.1391701E-1,-1.7557435E-1,-4.2421117E-2,5.6110043E-2,2.5301626E-1,-3.262192E-1,-1.3899812E-1,-5.0881702E-2,4.4577897E-1,1.475578E-1,2.9087353E-3,1.4471823E-1,2.94181E-1,-2.6187137E-2,-1.4474046E-2,-5.1686903E-3,-1.2991122E-2,-3.033066E-3,1.8675141E-2,1.3333631E-2,3.4478154E-2,1.4836453E-2,3.9380435E-3,-3.0672853E-3,4.4120485E-3,1.2420089E-2,3.8563057E-3,2.1977654E-2,1.3389948E-2],"categories":[],"categories_nodes":[],"categories_segments":[],"categories_sizes":[],"default_left":[0,0,0,0,0,0,0,0,0,0,0,0,0,0,0,0,0,0,0,0,0,0,0,0,0,0,0,0,0,0,0],"id":39,"left_children":[1,3,5,7,9,11,13,15,17,19,21,23,25,27,29,-1,-1,-1,-1,-1,-1,-1,-1,-1,-1,-1,-1,-1,-1,-1,-1],"loss_changes":[1.6812302E3,3.6642914E2,5.791829E2,1.8081622E2,2.3030765E2,2.4757968E2,9.412622E1,4.6122375E1,1.1366519E2,2.2749371E2,4.096019E1,1.919834E2,1.7644629E2,4.076612E1,5.841455E1,0E0,0E0,0E0,0E0,0E0,0E0,0E0,0E0,0E0,0E0,0E0,0E0,0E0,0E0,0E0,0E0],"parents":[2147483647,0,0,1,1,2,2,3,3,4,4,5,5,6,6,7,7,8,8,9,9,10,10,11,11,12,12,13,13,14,14],"right_children":[2,4,6,8,10,12,14,16,18,20,22,24,26,28,30,-1,-1,-1,-1,-1,-1,-1,-1,-1,-1,-1,-1,-1,-1,-1,-1],"split_conditions":[3.2E1,8.3832407E-1,8.5E1,9E0,1E0,5E0,8.436503E-1,4E0,1E0,1E0,1.3E1,1E0,8.772112E-1,7E0,1E0,-2.6187137E-2,-1.4474046E-2,-5.1686903E-3,-1.2991122E-2,-3.033066E-3,1.8675141E-2,1.3333631E-2,3.4478154E-2,1.4836453E-2,3.9380435E-3,-3.0672853E-3,4.4120485E-3,1.2420089E-2,3.8563057E-3,2.1977654E-2,1.3389948E-2],"split_indices":[4,5,4,4,75,7,5,4,71,65,7,71,5,7,71,0,0,0,0,0,0,0,0,0,0,0,0,0,0,0,0],"split_type":[0,0,0,0,0,0,0,0,0,0,0,0,0,0,0,0,0,0,0,0,0,0,0,0,0,0,0,0,0,0,0],"sum_hessian":[1.6063966E5,8.860277E4,7.2036875E4,3.284303E4,5.575974E4,5.0891316E4,2.1145562E4,6.4124443E3,2.6430588E4,5.4811938E4,9.478007E2,1.8715268E4,3.2176049E4,5.8273594E3,1.5318203E4,1.0008387E3,5.411606E3,2.0416004E4,6.0145845E3,5.3579312E4,1.232627E3,5.4914844E2,3.9865225E2,5.904288E3,1.2810979E4,1.8354256E4,1.3821793E4,2.2967183E3,3.530641E3,2.3472456E3,1.2970958E4],"tree_param":{"num_deleted":"0","num_feature":"127","num_nodes":"31","size_leaf_vector":"1"}},{"base_weights":[6.341363E-4,-9.005716E-2,1.121815E-1,-2.838697E-1,-6.985106E-2,6.1299566E-2,2.6824462E-1,-3.4653178E-1,-1.5354797E-1,-3.0130273E-1,-5.5946223E-2,-2.2842575E-2,1.2145782E-1,1.9860715E-1,3.1852007E-1,-2.6377408E-2,-1.568873E-2,-1.3646196E-2,-3.8805013E-3,-2.407415E-2,-1.2835068E-2,-6.3380324E-3,-2.656492E-4,-4.0282835E-3,2.495654E-3,1.3638671E-2,3.8768684E-3,8.573494E-4,1.1260464E-2,1.2227604E-2,1.7913176E-2],"categories":[],"categories_nodes":[],"categories_segments":[],"categories_sizes":[],"default_left":[0,0,0,0,0,0,0,0,0,0,0,0,0,0,0,0,0,0,0,0,0,0,0,0,0,0,0,0,0,0,0],"id":40,"left_children":[1,3,5,7,9,11,13,15,17,19,21,23,25,27,29,-1,-1,-1,-1,-1,-1,-1,-1,-1,-1,-1,-1,-1,-1,-1,-1],"loss_changes":[1.612946E3,3.4429675E2,5.676765E2,6.76087E1,2.562197E2,2.729688E2,6.133838E1,3.2769104E1,2.4379246E1,3.5904358E1,2.6936304E2,9.4424904E1,2.0887674E2,3.5564117E1,2.9730713E1,0E0,0E0,0E0,0E0,0E0,0E0,0E0,0E0,0E0,0E0,0E0,0E0,0E0,0E0,0E0,0E0],"parents":[2147483647,0,0,1,1,2,2,3,3,4,4,5,5,6,6,7,7,8,8,9,9,10,10,11,11,12,12,13,13,14,14],"right_children":[2,4,6,8,10,12,14,16,18,20,22,24,26,28,30,-1,-1,-1,-1,-1,-1,-1,-1,-1,-1,-1,-1,-1,-1,-1,-1],"split_conditions":[3.2E1,6.821063E-1,9.6E1,3E1,6E0,8.5E-1,8.673592E-1,7E0,6.332724E-1,3E0,8.1E1,8.6856157E-1,2.5123E4,2.6242E4,2.6242E4,-2.6377408E-2,-1.568873E-2,-1.3646196E-2,-3.8805013E-3,-2.407415E-2,-1.2835068E-2,-6.3380324E-3,-2.656492E-4,-4.0282835E-3,2.495654E-3,1.3638671E-2,3.8768684E-3,8.573494E-4,1.1260464E-2,1.2227604E-2,1.7913176E-2],"split_indices":[4,5,4,3,4,10,5,4,5,4,15,5,6,6,6,0,0,0,0,0,0,0,0,0,0,0,0,0,0,0,0],"split_type":[0,0,0,0,0,0,0,0,0,0,0,0,0,0,0,0,0,0,0,0,0,0,0,0,0,0,0,0,0,0,0],"sum_hessian":[1.5943481E5,8.793782E4,7.1497E4,8.299289E3,7.963853E4,5.3920734E4,1.7576264E4,5.6014824E3,2.6978066E3,4.5103193E3,7.512821E4,2.2478814E4,3.144192E4,7.374535E3,1.0201728E4,8.5300116E2,4.748481E3,1.0461208E3,1.6516858E3,8.903872E2,3.6199324E3,3.1319518E4,4.380869E4,1.2535338E4,9.943477E3,7.0700854E3,2.4371834E4,9.4402356E2,6.4305117E3,3.5719417E3,6.629786E3],"tree_param":{"num_deleted":"0","num_feature":"127","num_nodes":"31","size_leaf_vector":"1"}},{"base_weights":[1.1156701E-3,-5.043887E-2,1.8656379E-1,-1.194498E-1,7.6174214E-3,1.2935978E-1,2.9197535E-1,-2.4194978E-1,-7.8284584E-2,-1.571491E-2,1.3854043E-1,2.207769E-2,1.8484248E-1,-3.0780626E-2,3.039493E-1,-1.8681915E-2,-8.864839E-3,-8.270917E-3,-1.2985532E-3,-6.8857386E-3,2.1210709E-4,1.1836686E-2,3.0469652E-3,7.7034244E-3,-4.2896704E-3,1.639424E-2,7.476482E-3,9.2637475E-4,-2.5260052E-2,9.904514E-3,1.6498147E-2],"categories":[],"categories_nodes":[],"categories_segments":[],"categories_sizes":[],"default_left":[0,0,0,0,0,0,0,0,0,0,0,0,0,0,0,0,0,0,0,0,0,0,0,0,0,0,0,0,0,0,0],"id":41,"left_children":[1,3,5,7,9,11,13,15,17,19,21,23,25,27,29,-1,-1,-1,-1,-1,-1,-1,-1,-1,-1,-1,-1,-1,-1,-1,-1],"loss_changes":[1.5136729E3,4.963493E2,2.07531E2,2.8534174E2,2.0554884E2,1.3287067E2,4.687024E1,1.2097949E2,1.9309253E2,1.3905826E2,7.748169E1,1.0845442E2,7.416666E1,1.025949E1,3.1953735E1,0E0,0E0,0E0,0E0,0E0,0E0,0E0,0E0,0E0,0E0,0E0,0E0,0E0,0E0,0E0,0E0],"parents":[2147483647,0,0,1,1,2,2,3,3,4,4,5,5,6,6,7,7,8,8,9,9,10,10,11,11,12,12,13,13,14,14],"right_children":[2,4,6,8,10,12,14,16,18,20,22,24,26,28,30,-1,-1,-1,-1,-1,-1,-1,-1,-1,-1,-1,-1,-1,-1,-1,-1],"split_conditions":[6.1E1,2.6E1,1.32E2,7.893345E-1,2.1E0,8.475455E-1,6.79538E-1,1.1E1,8.3E1,7.482518E-1,1E0,1E0,1E0,5E0,2.6242E4,-1.8681915E-2,-8.864839E-3,-8.270917E-3,-1.2985532E-3,-6.8857386E-3,2.1210709E-4,1.1836686E-2,3.0469652E-3,7.7034244E-3,-4.2896704E-3,1.639424E-2,7.476482E-3,9.2637475E-4,-2.5260052E-2,9.904514E-3,1.6498147E-2],"split_indices":[4,3,4,5,10,5,5,4,15,5,71,71,71,21,6,0,0,0,0,0,0,0,0,0,0,0,0,0,0,0,0],"split_type":[0,0,0,0,0,0,0,0,0,0,0,0,0,0,0,0,0,0,0,0,0,0,0,0,0,0,0,0,0,0,0],"sum_hessian":[1.583164E5,1.2387877E5,3.443763E4,5.659972E4,6.7279055E4,2.2327158E4,1.211047E4,1.4232643E4,4.236708E4,5.710309E4,1.0175965E4,7.61268E3,1.4714478E4,4.3265424E2,1.1677815E4,4.682735E3,9.549907E3,1.5891273E4,2.6475805E4,8.0272515E3,4.907584E4,4.4893237E3,5.6866406E3,3.4238276E3,4.1888525E3,2.909223E3,1.1805255E4,3.9337515E2,3.9279095E1,2.3081426E3,9.369673E3],"tree_param":{"num_deleted":"0","num_feature":"127","num_nodes":"31","size_leaf_vector":"1"}},{"base_weights":[5.546974E-4,-7.298915E-2,1.2631974E-1,-2.7723283E-1,-5.545855E-2,6.2099557E-2,2.4374369E-1,-5.2707475E-1,-2.3372974E-1,-1.2426612E-1,-1.861998E-2,1.342283E-1,1.2018783E-3,1.8075867E-1,2.8851166E-1,-3.7650976E-2,-2.154332E-2,-1.9153643E-2,-8.644477E-3,-4.565519E-3,-1.4019409E-2,1.467951E-3,-4.096418E-3,1.3130899E-2,4.037233E-3,-2.6757685E-3,2.7683338E-3,1.601972E-2,7.098481E-3,7.3121176E-3,1.5566925E-2],"categories":[],"categories_nodes":[],"categories_segments":[],"categories_sizes":[],"default_left":[0,0,0,0,0,0,0,0,0,0,0,0,0,0,0,0,0,0,0,0,0,0,0,0,0,0,0,0,0,0,0],"id":42,"left_children":[1,3,5,7,9,11,13,15,17,19,21,23,25,27,29,-1,-1,-1,-1,-1,-1,-1,-1,-1,-1,-1,-1,-1,-1,-1,-1],"loss_changes":[1.4495914E3,3.540083E2,4.360282E2,8.459131E1,2.3083911E2,1.642074E2,5.747351E1,2.4324493E1,6.0306732E1,1.6328842E2,1.8020744E2,1.1742917E2,6.009831E1,4.588321E1,3.863501E1,0E0,0E0,0E0,0E0,0E0,0E0,0E0,0E0,0E0,0E0,0E0,0E0,0E0,0E0,0E0,0E0],"parents":[2147483647,0,0,1,1,2,2,3,3,4,4,5,5,6,6,7,7,8,8,9,9,10,10,11,11,12,12,13,13,14,14],"right_children":[2,4,6,8,10,12,14,16,18,20,22,24,26,28,30,-1,-1,-1,-1,-1,-1,-1,-1,-1,-1,-1,-1,-1,-1,-1,-1],"split_conditions":[3.9E1,6E0,8.5E1,2E0,1.5E1,6E0,1.32E2,1E0,8.1E1,1E0,1E0,1E0,4.4E1,1E0,2.5E1,-3.7650976E-2,-2.154332E-2,-1.9153643E-2,-8.644477E-3,-4.565519E-3,-1.4019409E-2,1.467951E-3,-4.096418E-3,1.3130899E-2,4.037233E-3,-2.6757685E-3,2.7683338E-3,1.601972E-2,7.098481E-3,7.3121176E-3,1.5566925E-2],"split_indices":[4,3,4,3,4,7,4,3,15,71,71,71,3,71,3,0,0,0,0,0,0,0,0,0,0,0,0,0,0,0,0],"split_type":[0,0,0,0,0,0,0,0,0,0,0,0,0,0,0,0,0,0,0,0,0,0,0,0,0,0,0,0,0,0,0],"sum_hessian":[1.567205E5,9.8891305E4,5.78292E4,7.8140483E3,9.107726E4,3.738652E4,2.044268E4,1.1550155E3,6.659033E3,3.1755357E4,5.93219E4,1.7112809E4,2.027371E4,8.498865E3,1.1943813E4,3.4039264E2,8.146229E2,1.9237605E3,4.7352725E3,2.6223896E4,5.531461E3,3.3745887E4,2.5576014E4,5.029253E3,1.2083555E4,1.0084058E4,1.0189654E4,1.8436326E3,6.6552334E3,1.6543546E3,1.0289459E4],"tree_param":{"num_deleted":"0","num_feature":"127","num_nodes":"31","size_leaf_vector":"1"}},{"base_weights":[-2.035816E-4,-4.727429E-2,1.9087704E-1,-1.0368205E-1,2.3108399E-2,1.3074744E-1,2.876178E-1,-2.424421E-1,-7.624404E-2,-1.5805265E-3,1.474178E-1,1.8528202E-1,1.1694005E-2,1.4397302E-1,3.1277084E-1,-1.3475633E-2,3.216312E-3,-1.6981289E-3,-8.020045E-3,-1.3482678E-3,3.5120752E-3,1.2650526E-2,3.940969E-3,1.638052E-2,7.1452144E-3,2.7571232E-3,-8.966042E-3,6.178156E-4,1.118134E-2,7.8040995E-3,1.6205296E-2],"categories":[],"categories_nodes":[],"categories_segments":[],"categories_sizes":[],"default_left":[0,0,0,0,0,0,0,0,0,0,0,0,0,0,0,0,0,0,0,0,0,0,0,0,0,0,0,0,0,0,0],"id":43,"left_children":[1,3,5,7,9,11,13,15,17,19,21,23,25,27,29,-1,-1,-1,-1,-1,-1,-1,-1,-1,-1,-1,-1,-1,-1,-1,-1],"loss_changes":[1.3979434E3,4.951243E2,1.7855847E2,2.634881E2,1.7029959E2,1.2299472E2,4.2376587E1,9.496161E1,2.0563916E2,8.439181E1,6.6509415E1,7.8216675E1,4.9432762E1,1.839841E1,1.7615417E1,0E0,0E0,0E0,0E0,0E0,0E0,0E0,0E0,0E0,0E0,0E0,0E0,0E0,0E0,0E0,0E0],"parents":[2147483647,0,0,1,1,2,2,3,3,4,4,5,5,6,6,7,7,8,8,9,9,10,10,11,11,12,12,13,13,14,14],"right_children":[2,4,6,8,10,12,14,16,18,20,22,24,26,28,30,-1,-1,-1,-1,-1,-1,-1,-1,-1,-1,-1,-1,-1,-1,-1,-1],"split_conditions":[6.5E1,3.3E1,1.32E2,9E0,2.1E0,9E0,2.6E1,1E0,1E0,7E1,1E0,1E0,5.2832E4,2.5394E4,1E0,-1.3475633E-2,3.216312E-3,-1.6981289E-3,-8.020045E-3,-1.3482678E-3,3.5120752E-3,1.2650526E-2,3.940969E-3,1.638052E-2,7.1452144E-3,2.7571232E-3,-8.966042E-3,6.178156E-4,1.118134E-2,7.8040995E-3,1.6205296E-2],"split_indices":[4,3,4,4,10,7,3,65,71,3,71,71,6,6,11,0,0,0,0,0,0,0,0,0,0,0,0,0,0,0,0],"split_type":[0,0,0,0,0,0,0,0,0,0,0,0,0,0,0,0,0,0,0,0,0,0,0,0,0,0,0,0,0,0,0],"sum_hessian":[1.5542388E5,1.2470612E5,3.0717754E4,6.922631E4,5.54798E4,1.8947262E4,1.1770492E4,1.1425235E4,5.780108E4,4.6287473E4,9.192326E3,1.2993145E4,5.954118E3,1.7568466E3,1.00136455E4,1.0499451E4,9.257846E2,3.847523E4,1.932585E4,3.420232E4,1.2085154E4,3.6170627E3,5.5752637E3,2.9771592E3,1.0015985E4,4.8525576E3,1.1015605E3,6.6395215E2,1.0928945E3,6.784164E2,9.335229E3],"tree_param":{"num_deleted":"0","num_feature":"127","num_nodes":"31","size_leaf_vector":"1"}},{"base_weights":[7.476496E-4,-4.3360636E-2,1.555778E-1,-1.9799976E-1,-1.9993996E-2,9.2382774E-2,2.227164E-1,-4.9582562E-1,-1.7252839E-1,